{"vocabulary":{"como":0,"compra":1,"pesadelos":2,"onde":3,"comprar":4,"quero":5,"consegue":6,"consigo":7,"pega":8,"pego":9,"qual":10,"e":11,"a":12,"loja":13,"de":14,"o":15,"link":16,"para":17,"ganha":18,"ganhar":19,"faz":20,"algumas":21,"perguntas":22,"sobre":23,"trocar":24,"senha":25,"se":26,"nao":27,"ta":28,"indo":29,"ela":30,"incorreta":31,"resetei":32,"sua":33,"troquei":34,"mudei":35,"redefini":36,"ola":37,"boa":38,"tarde":39,"atualmente":40,"eu":41,"jogo":42,"no":43,"sparklypower":44,"pelo":45,"mine":46,"original":47,"pc":48,"eventualmente":49,"comprei":50,"iphone":51,"consiguirei":52,"jogar":53,"em":54,"ambos":55,"atraves":56,"da":57,"minha":58,"conta":59,"normalmente":60,"enviei":61,"errado":62,"pessoa":63,"errada":64,"mandei":65,"dei":66,"estava":67,"acontecendo":68,"uma":69,"rifa":70,"meus":71,"sairam":72,"devolvi":73,"os":74,"mas":75,"dono":76,"do":77,"plugin":78,"ainda":79,"atualizou":80,"pois":81,"era":82,"pra":83,"estar":84,"funcionando":85,"entao":86,"porque":87,"la":88,"<#760262410098442270>":89,"mypet":90,"esta":91,"disponivel":92,"fez":93,"isso":94,"hoje":95,"voce":96,"matou":97,"ele":98,"perdi":99,"meu":100,"bichinho":101,"chamar":102,"matei":103,"sniffer":104,"com":105,"laco":106,"kit":107,"noob":108,"por":109,"favor":110,"me":111,"ajudem":112,"tava":113,"querendo":114,"completar":115,";--;":116,"pior":117,"que":118,"to":119,"triste":120,"agora":121,"https://discordcom/channels/320248230917046282/332866197701918731/1253826917350506538":122,"essa":123,"foi":124,"ultima":125,"atualizacao":126,"conseguindo":127,"entrar":128,"causa":129,"versao":130,"power":131,"na":132,"nova":133,"ah":134,"certoobrigada":135,"/warp":136,"reparar":137,"clica":138,"placa":139,"[reparar]":140,"repara":141,"pic":142,"monstra":143,"certo":144,"obg":145,"vai":146,"possibilitar":147,"logar":148,"sem":149,"colocar":150,"um":151,"periodo":152,"infelizmente":153,"recordo":154,"pode":155,"utilizar":156,"/lembrar":157,"/premium":158,"so":159,"ser":160,"utilizado":161,"minecraft":162,"java":163,"portanto":164,"console":165,"celular":166,"bedrock":167,"geral":168,"possivel":169,"ajudar":170,"logotenho":171,"ficar":172,"colocando":173,"toda":174,"vez":175,"cansativo":176,"quando":177,"mandoele":178,"diz":179,"parece":180,"oficial":181,"ou":182,"obtido":183,"legalmente":184,"gostaria":185,"ajudatenho":186,"mandar":187,"espero":188,"tenha":189,"feito":190,"certopois":191,"achei":192,"noite":193,"m_eeow03":194,"nickname":195,"=":196,"as":197,"coisas":198,"antiga":199,"estao":200,"<@&332650495522897920>":201,"🤡":202,"":203,"cnt":204,"tou":205,"usando":206,"ag":207,"registrei":208,"esse":209,"discord":210,"foxy_zn8833":211,"ai":212,"tem":213,"passar":214,"nick":215,"p":216,"acho":217,"tinha":218,"transferir":219,"tudo":220,"li":221,"consegui":222,"microsoft":223,"usa":224,"/changepass":225,"<#830658622383980545>":226,"staff":227,"mais":228,"tempo":229,"tentei":230,"retornar":231,"login":232,"conectada":233,"fazer":234,"vinculada":235,"alguma":236,"outra":237,"resolucao":238,"entendi":239,"obrigado":240,"pela":241,"atencao":242,"irei":243,"notificalo":244,"valor":245,"ja":246,"debitado":247,"/transactions":248,"mostra":249,"digitou":250,"chequei":251,"transacoes":252,"usuario":253,"tambem":254,"consta":255,"recebido":256,"sc0refl":257,"disse":258,"chegou":259,"economia":260,"liga":261,"nome":262,"escrito":263,"mandou":264,"caps":265,"lock":266,"ligado":267,"desculpe":268,"ops":269,"correto":270,"seria":271,"ao":272,"2kk":273,"alguns":274,"erros":275,"ortograficos":276,"passaram":277,"despercebidos":278,"acabei":279,"mandando":280,"poderiam":281,"ressarcir":282,"mim":283,"diretamente":284,"playerr":285,"sempre":286,"ando":287,"mochilas":288,"inv":289,"uso":290,"elas":291,"mt":292,"estranhei":293,"costumo":294,"guardar":295,"nenhum":296,"lugar":297,"aqui":298,"ver":299,"haviam":300,"3":301,"tenho":302,"print":303,"pouco":304,"antes":305,"off":306,"desloga":307,"seu":308,"inventario":309,"salvo":310,"ninguem":311,"mexer":312,"alterar":313,"qualquer":314,"coisa":315,"nada":316,"sumir":317,"provar":318,"tais":319,"loguei":320,"joguei":321,"fechei":322,"ir":323,"mercado":324,"fui":325,"deparo":326,"algo":327,"nunca":328,"ocorreu":329,"deixou":330,"bastante":331,"surpreso":332,"nem":333,"imaginava":334,"poderia":335,"acontecer":336,"entendo":337,"todos":338,"nos":339,"enganamos":340,"vezes":341,"fechar":342,"havia":343,"unidades":344,"mochila":345,"terra":346,"porem":347,"sumido":348,"ok":349,"duvidas":350,"encerrar":351,"tikcket":352,"obgg":353,"the":354,"boy":355,"farmar":356,"msm":357,"eta":358,"permitiu":359,"farm":360,"use":361,"apenas":362,"mesmo":363,"itens":364,"etc":365,"deixa":366,"caso":367,"voltar":368,"falar":369,"pegou":370,"permissao":371,"dele":372,"ban":373,"hm":374,"realmente":375,"usar":376,"problema":377,"podemos":378,"deixar":379,"kskks":380,"supostamente":381,"alt":382,"daily":383,"ahhh":384,"vimax99":385,"bom":386,"dia":387,"player":388,"amigo":389,"banido":390,"(nao":391,"sei":392,"motivo":393,"exato)":394,"trust":395,"(pois":396,"construi":397,"ele)":398,"autorizou":399,"queria":400,"saber":401,"forma":402,"posse":403,"(ele":404,"estando":405,"ciente":406,"acordo)":407,"algum":408,"canal":409,"comandos":410,"comando":411,"slash":412,"logada":413,"recebi":414,"cargos":415,"membro":416,"vip":417,"faco":418,"agr":419,"puxar":420,"-bal":421,"ratoto_132":422,"outro":423,"cara":424,"botei":425,"m":426,"maiusculo":427,"pay":428,"ratoto":429,"pronto":430,"-mcuser":431,"setar":432,"xp":433,"criei":434,"id":435,"973754017236779068":436,"roubaram":437,"qr":438,"abrir":439,"denuncia":440,"dx":441,"ladrao":442,"n":443,"pagar":444,"pagou":445,"cria":446,"-money":447,"cebotarov":448,"trabalhando":449,"cobtratou":450,"deu":451,"terreno":452,"trabalhei":453,"devia":454,"desprotegido":455,"tirar":456,"perm":457,"tbm":458,"estranho":459,"depois":460,"dois":461,"sumirem":462,"aq":463,"ficou":464,"on":465,"uns":466,"10min":467,"dps":468,"terminei":469,"si":470,"lembro":471,"cebo":472,"v":473,"final":474,"vou":475,"coordenada":476,"saiu":477,"game":478,"amg":479,"entrou":480,"sv":481,"tirou":482,"area":483,"2":484,"ate":485,"sinal":486,"deles":487,"oioi":488,"andares":489,"pro":490,"cobrei":491,"520k":492,"simplesmente":493,"carente":494,"enchendo":495,"saco":496,"abertamente":497,"<#320541695697616896>":498,"irritar":499,"provocar":500,"indiretas":501,"falando":502,"merda":503,"sentiu":504,"incomodado":505,"fato":506,"estou":507,"catalogando":508,"/lojas":509,"decidi":510,"suporte":511,"voces":512,"resolva":513,"255141045715599360":514,"''":515,"respeite":516,"membros":517,"irrite":518,"provoque":519,"nesse":520,"serao":521,"toleradas":522,"pessoas":523,"toxicas":524,"causam":525,"desordem":526,"conversar":527,"divertir":528,"ter":529,"aturar":530,"gente":531,"temos":532,"sentimentos":533,"limite":534,"paciencia":535,":nb::nde:":536,"regra":537,"inclui":538,"tentam":539,"provocar/iniciar":540,"brigas":541,"discussoes":542,"(qualquer":543,"motivo)":544,"contam":545,"spoilers":546,"usam":547,"contas":548,"fakes":549,"evasao":550,"denuncie":551,"mesmo''":552,"pressionei":553,"dizer":554,"quieto":555,"''era":556,"irmao":557,"vender''":558,"desconectou":559,"kkkkkkkkkk":560,"dai":561,"pulga":562,"cocou":563,"scam":564,"desse":565,"tu":566,"investe":567,"50m":568,"pagando":569,"levantar":570,"andar":571,"tal":572,"vender":573,"6m":574,"dinheiro":575,"primeiro":576,"/claim":577,"abobora":578,"35":579,"cavado":580,"baixo":581,"desvincilhando":582,"pergunta":583,"kkkkkkkk":584,"historico":585,"quem/onde":586,"tpa":587,"confirmar":588,"marcim":589,"acaso":590,"grana":591,"negocio":592,"souza1tzzzz":593,"das":594,"duas":595,"verificar":596,"criar":597,"contra":598,"oi":599,"carinha":600,"quer":601,"envie":602,"''claim/posse''":603,"for":604,"mom1ntzada7":605,"hackead":606,"perguntar":607,"porq":608,"sai":609,"daquela":610,"registrar":611,"avisar":612,"desativei":613,"aquela":614,"vim":615,"sou":616,"sido":617,"hackeda":618,"tbom":619,"https://bitly/sparklypower-unban":620,"faca":621,"formulario":622,"unban":623,"alguem":624,"responde":625,"abri":626,"querer":627,"banida":628,"pedir":629,"passou":630,"mes":631,"comprir":632,"aquele":633,"mod":634,"construir":635,"constroe":636,"sozinho":637,"schematic":638,"podem":639,"ticket":640,":)":641,"-unban":642,"guisenpaii22":643,"legal":644,"fosse":645,"call":646,"^^":647,"gosto":648,"conhecer":649,"regras":650,"juntos":651,"claro":652,"te":653,"desbanir":654,"peco":655,"vi":656,"respeitou":657,"evadiu":658,"novamente":659,"baniu":660,"-checkban":661,"bem":662,"(de":663,"acordo":664,"data":665,"falaram)":666,"deveria":667,"durar":668,"meses":669,"viro":670,"eterno":671,"ping":672,"assim":673,"dar":674,"colher":675,"ia":676,"resolver":677,"grande":678,"parte":679,"dos":680,"problemas":681,"ain":682,"quebrei":683,"elevador":684,"testei":685,"quebrar":686,"plantacao":687,"crescendo":688,"crescida":689,"descobri":690,"recentemente":691,"/containertrust":692,"(nick)":693,"acesso":694,"aos":695,"jogadores":696,"principal":697,"farms":698,"pedi":699,"testar":700,"funcionava":701,"conseguiu":702,"(podia":703,"cheio":704,"sla)":705,"muitos":706,"amigos":707,"teste":708,"enfim":709,"funciona":710,"esteja":711,"otimo":712,"quem":713,"aluga":714,"(colher)":715,"blocos":716,"resposta":717,"esclarecer":718,"perguntei":719,"zum":720,"podia":721,"falou":722,"pensando":723,"montar":724,"lojinha":725,"competir":726,"lojas":727,"10%":728,"resto":729,"precisa":730,"herbalismo":731,"duvida":732,"ruim":733,"primeira":734,"chamada":735,"alison00007":736,"cheguei":737,"conectar":738,"(nem":739,"nela)":740,"xxalisonkkjxx":741,"troca":742,"achar":743,"curto":744,"gostei":745,"numero":746,"xbox":747,"nojentinho":748,"dittom":749,"averiguar":750,"dia/boa":751,"klapa":752,"este":753,"meio":754,"desbanido":755,"gostava":756,"muito":757,"permanentemente":758,"aprendi":759,"(e":760,"cometi)":761,"nocao":762,"durante":763,"desda":764,"cresci":765,"prometo":766,"farei":767,"bug/xray":768,"3º":769,"oportunidade":770,"players":771,"frequentam":772,"quiserem":773,"cometi":774,"demasiados":775,"<:lori_hug:543220309336260619>":776,"abusei":777,"bug":778,"apanhei":779,"kamiao":780,"dupou":781,"outras":782,"palavras":783,"aproveitei-me":784,"deem":785,"comprimentos-":786,"(alex)":787,"aguardo":788,"provavelmente":789,"corretamente":790,"parado":791,"in-game":792,"morreu":793,"ghast":794,"tela":795,"morte":796,"entrei":797,"apareceu":798,"sentido":799,"morrido":800,"minerando":801,"desligou":802,"liguei":803,"morri":804,"bau":805,"seja":806,"picaretas":807,"monstras":808,"(eram":809,"5)":810,"minerios":811,"pa":812,"queimou":813,"lava":814,"desligado":815,"voltei":816,"cai":817,"nether":818,"man":819,"donada":820,"estiver":821,"entrando":822,"sla":823,"presiso":824,"nivel":825,"estarei":826,"fechando":827,"explicado":828,"resumo":829,"ler":830,"acontece":831,"identifica":832,"camadas":833,"superiores":834,"protegida":835,"dropares":836,"item":837,"comsegue":838,"tipo":839,"+250":840,"altura":841,"voa":842,"alto":843,"jetpack":844,"drop":845,"/spawn":846,"encontrei":847,"teria":848,"retirar":849,"1":850,"tumulo":851,"fiquei":852,"esqueci":853,"altera":854,"mudar":855,"muda":856,"recuperar":857,"redefinir":858,"redefine":859,"recupera":860,"troco":861,"hey":862,"posso":863,"oieee":864,"td":865,"servidores":866,"ontem":867,"rapaz":868},"weights":[0.48041107424594104,0.32800112075391824,0.9485684560372495,0.16401696207316538,0.4924119861273062,0.16408258854527996,0.13610719226018145,0.15700969424598193,0.16418107749135893,0.164213920275414,0.32272197292929244,0.004260825899350314,-0.23960297574132833,0.132539332217895,-0.06185887243003216,-1.6956015074781736E-4,0.16427962555445078,-0.1981999760589309,0.1643124880520612,0.16434535712348589,-0.033099190243337254,-0.033099190243337254,-0.033099190243337254,-0.033099190243337254,-0.1247874202648836,-0.1422727633413454,-1.1774512270144472E-27,-0.08393794826380534,-0.009277346235927832,-1.9427255473882295E-28,-1.9427255473882295E-28,-1.9427255473882295E-28,-1.9431141702222739E-28,-7.774789195372196E-28,-1.9435028707964332E-28,-1.9438916491262585E-28,-1.944280505227304E-28,-9.874187506002782E-28,-0.011156121491019438,-3.9199166659281823E-28,-1.944669439115127E-28,-0.12972649021641336,-0.01199283146920991,-0.002323069915096308,-0.006954276320831537,-5.834008317345154E-28,-3.889338878230254E-28,-3.9010431430084737E-28,-1.944669439115127E-28,-1.944669439115127E-28,-1.944669439115127E-28,-1.944669439115127E-28,-1.944669439115127E-28,-1.944669439115127E-28,-1.1779207932323437E-27,-1.944669439115127E-28,-1.944669439115127E-28,-0.008555123956114392,-0.07638583111347948,-0.0037679176736574297,-1.944669439115127E-28,-0.18293301914696197,-0.16460854651005608,-0.27079137159183675,-0.27079137159183675,-0.14864417145606476,-0.10971195358297535,-0.16474029921702935,-0.16474029921702935,-0.16474029921702935,-0.16474029921702935,-0.1647732538678029,-0.1647732538678029,-0.16480621511082505,-0.16480621511082505,-0.003278267490189955,-0.005889226084109334,-0.10957028757486548,-0.05547611675823357,-0.002323069915096308,-1.9477837124096135E-28,-5.8731637601367945E-28,-1.9481733470790293E-28,-0.05547611675823357,-1.9481733470790293E-28,-1.9481733470790293E-28,-0.002323069915096308,-0.002323069915096308,-0.002323069915096308,-0.002323069915096308,-1.9489528502610196E-28,-1.9489528502610196E-28,-1.9489528502610196E-28,-1.9493427188047805E-28,-7.835396532454421E-28,-1.9493427188047805E-28,-0.05199388246922157,-1.9493427188047805E-28,-0.001973475124247298,-0.003427508958659848,-0.091688230021546,-1.949732665337848E-28,-0.001973475124247298,-1.9505127924343101E-28,-1.9505127924343101E-28,-3.926550355230921E-28,-1.9505127924343101E-28,-1.9505127924343101E-28,-1.9505127924343101E-28,-0.01588623977170338,-0.0038934083024934965,-0.015069133857192999,-0.0038934083024934965,-0.03170743741144535,-0.03170743741144535,-0.03170743741144535,-0.03170743741144535,-0.008142153846388073,-0.0326617995333846,-0.008142153846388073,-0.008142153846388073,-0.008142153846388073,-0.020829987760209657,-5.879325280425964E-28,-0.06128053901273265,-1.9524644760807819E-28,-1.9524644760807819E-28,-1.953245696229446E-28,-3.919820062216987E-28,-0.005804422254499103,-0.006954276320831537,-0.006954276320831537,-0.006954276320831537,-0.006954276320831537,-0.009982946535077225,-0.009982946535077225,-1.9544181125824572E-28,-1.9544181125824572E-28,-1.9544181125824572E-28,-1.9544181125824572E-28,-1.9544181125824572E-28,-0.16543373301094982,-0.16543373301094982,-0.16543373301094982,-0.008988327463843591,-0.008988327463843591,-3.9119649365600155E-28,-1.955591232666754E-28,-1.955591232666754E-28,-1.955591232666754E-28,-1.955591232666754E-28,-0.01199283146920991,-1.955591232666754E-28,-1.955591232666754E-28,-1.955591232666754E-28,-0.011175725718076108,-1.633765878363046E-10,-1.633765878363046E-10,-5.870686993505674E-28,-0.091688230021546,-3.912747407786726E-28,-1.956373703893363E-28,-7.828234991308001E-28,-1.956373703893363E-28,-1.956373703893363E-28,-3.9143132896126265E-28,-1.956373703893363E-28,-1.956373703893363E-28,-1.956373703893363E-28,-1.956373703893363E-28,-0.011175725554699546,-1.9571564882023844E-28,-3.9347756717807793E-28,-1.9571564882023844E-28,-1.9571564882023844E-28,-1.9571564882023844E-28,-1.9571564882023844E-28,-1.9575479978019448E-28,-1.9575479978019448E-28,-1.9575479978019448E-28,-1.9575479978019448E-28,-1.9575479978019448E-28,-0.01199283146920991,-1.9575479978019448E-28,-1.9575479978019448E-28,-1.9579395857190887E-28,-1.9579395857190887E-28,-1.9579395857190887E-28,-1.9583312519694827E-28,-5.910828704468821E-28,-1.9583312519694827E-28,-1.9583312519694827E-28,-1.9583312519694827E-28,-0.011156121491019438,-0.014154409663025653,-0.0010172159720420893,-0.0010172159720420893,-0.0027507017016153122,-0.0027507017016153122,-0.0027507017016153122,-1.9598987006170018E-28,-0.091688230021546,-0.005165110639753042,-0.005420751064120968,-1.9618597758058305E-28,-1.9618597758058305E-28,-1.9618597758058305E-28,-1.9618597758058305E-28,-3.950978258125582E-28,-0.010643673525613677,-1.9622522262510807E-28,-0.004423547163060643,-3.953742558194015E-28,-0.19316500291758767,-1.9638228132470423E-28,-3.9382800201789803E-28,-3.9390657850263153E-28,-3.9497498645184687E-28,-1.965394657341087E-28,-1.965394657341087E-28,-1.965394657341087E-28,-1.9657878149040678E-28,-1.9665743659874881E-28,-1.9665743659874881E-28,-1.966967759539396E-28,-1.966967759539396E-28,-1.966967759539396E-28,-5.940394210242184E-28,0.0,-1.9776191835781893E-28,0.0,0.0,0.0,0.0,0.0,0.0,0.0,0.0,0.0,-1.9681484124247867E-28,-1.9681484124247867E-28,-1.9681484124247867E-28,-1.9681484124247867E-28,-1.9681484124247867E-28,-1.9681484124247867E-28,-1.9681484124247867E-28,-1.9681484124247867E-28,-1.9681484124247867E-28,-1.9685421208489564E-28,-1.9685421208489564E-28,-1.9685421208489564E-28,-1.9689359080305625E-28,-1.9689359080305625E-28,-1.9689359080305625E-28,-1.9689359080305625E-28,-1.9689359080305625E-28,-1.9689359080305625E-28,-7.887967196657894E-28,-1.9697237187291054E-28,-1.9697237187291054E-28,-0.05547611675823357,-0.05547611675823357,-0.05547611675823357,-0.05547611675823357,-3.9437841408248566E-28,-1.9713002859088423E-28,-1.9713002859088423E-28,-1.9713002859088423E-28,-9.576514285229869E-28,-8.202448303100824E-28,-1.754546791552284E-4,-1.754546791552284E-4,0.0,0.0,0.0,0.0,0.0,0.0,0.0,0.0,0.0,0.0,0.0,0.0,0.0,0.0,-1.9760375627966501E-28,-1.9760375627966501E-28,-0.02451964552361998,-1.9760375627966501E-28,-1.9760375627966501E-28,-3.9528657778060717E-28,-1.9760375627966501E-28,-1.9764328493665234E-28,-1.9768282150095254E-28,-1.9768282150095254E-28,-1.9768282150095254E-28,-1.9768282150095254E-28,-2.0071085797329687E-28,-0.005889226084109334,-0.02451964552361998,-0.091688230021546,-1.9776191835781893E-28,-1.9776191835781893E-28,-1.9776191835781893E-28,-1.9776191835781893E-28,-1.9776191835781893E-28,0.0,0.0,0.0,0.0,0.0,0.0,-0.00818006277631945,0.0,0.0,-1.3651286986351015E-6,0.0,-0.02451964552361998,-0.02451964552361998,0.0,0.0,0.0,0.0,0.0,0.0,0.0,-0.01199283146920991,0.0,0.0,0.0,0.0,0.0,0.0,0.0,0.0,0.0,0.0,0.0,0.0,0.0,0.0,-1.3651286986351015E-6,0.0,0.0,0.0,0.0,0.0,0.0,-1.9799939886849693E-28,0.0,0.0,0.0,-1.9807862239430977E-28,-1.9807862239430977E-28,-1.9807862239430977E-28,-1.9811824604351849E-28,-1.9811824604351849E-28,-3.963157552380846E-28,0.0,0.0,0.0,0.0,0.0,0.0,0.0,0.0,-1.9835615444689433E-28,0.0,0.0,0.0,-1.9835615444689433E-28,-0.003278267490189955,0.0,-1.9831648321600496E-28,-1.9835615444689433E-28,-0.003488573843805253,-1.9835615444689433E-28,0.0,-0.091688230021546,0.0,0.0,0.0,0.0,-1.9851491874466174E-28,-0.020665462549271,-1.9863407535537498E-28,-1.9863407535537498E-28,0.0,0.0,0.0,0.0,-6.768072570445498E-4,0.0,0.0,0.0,0.0,0.0,0.0,0.0,0.0,0.0,0.0,0.0,0.0,0.0,0.0,0.0,0.0,0.0,0.0,0.0,0.0,0.0,0.0,0.0,0.0,-0.091688230021546,0.0,0.0,-0.005889226084109334,-1.9903178085087487E-28,-1.9903178085087487E-28,0.0,0.0,0.0,0.0,0.0,0.0,0.0,-1.9919108592012415E-28,-1.9923093210654547E-28,0.0,0.0,0.0,-0.010643673525613677,-1.9939039657649167E-28,0.0,0.0,0.0,-1.996298326296837E-28,0.0,0.0,-0.026935199337716462,0.0,0.0,-1.996298326296837E-28,-1.996697665830003E-28,-3.997393123242922E-28,0.0,0.0,0.0,-0.009167493574299293,0.0,0.0,0.0,-0.02104597325360699,-0.02104597325360699,0.0,0.0,0.0,0.0,0.0,0.0,-0.01199283146920991,0.0,0.0,0.0,0.0,0.0,0.0,0.0,0.0,0.0,0.0,-2.0071085797329687E-28,0.0,-0.01199283146920991,0.0,0.0,0.0,0.0,0.0,0.0,0.0,0.0,0.0,0.0,0.0,0.0,0.0,0.0,0.0,0.0,0.0,0.0,0.0,0.0,0.0,0.0,0.0,0.0,0.0,0.0,0.0,0.0,0.0,0.0,0.0,0.0,0.0,0.0,0.0,0.0,-2.0034986731774317E-28,0.0,0.0,0.0,0.0,0.0,0.0,0.0,0.0,0.0,0.0,0.0,0.0,0.0,0.0,0.0,0.0,0.0,0.0,0.0,0.0,0.0,0.0,0.0,0.0,0.0,0.0,0.0,0.0,0.0,0.0,0.0,0.0,0.0,0.0,0.0,0.0,0.0,0.0,0.0,0.0,0.0,0.0,0.0,0.0,0.0,0.0,-0.005889226084109334,0.0,0.0,0.0,0.0,-0.010329217961578768,0.0,0.0,0.0,0.0,0.0,0.0,0.0,0.0,0.0,0.0,0.0,0.0,0.0,0.0,0.0,0.0,0.0,0.0,-0.005889226084109334,-0.005889226084109334,-0.005889226084109334,-2.0071085797329687E-28,0.0,0.0,0.0,0.0,0.0,0.0,0.0,0.0,0.0,0.0,0.0,0.0,0.0,0.0,0.0,0.0,0.0,0.0,0.0,0.0,0.0,0.0,0.0,0.0,0.0,0.0,0.0,0.0,0.0,0.0,0.0,0.0,0.0,0.0,0.0,0.0,0.0,0.0,0.0,0.0,0.0,0.0,-0.091688230021546,0.0,0.0,0.0,0.0,0.0,0.0,0.0,-1.3651286986351015E-6,-1.3651286986351015E-6,0.0,0.0,0.0,0.0,0.0,0.0,0.0,0.0,0.0,0.0,0.0,0.0,0.0,0.0,0.0,0.0,0.0,0.0,0.0,0.0,0.0,0.0,0.0,0.0,0.0,0.0,0.0,0.0,-0.091688230021546,0.0,0.0,0.0,-0.01199283146920991,0.0,0.0,0.0,0.0,0.0,0.0,0.0,0.0,0.0,0.0,0.0,0.0,0.0,0.0,0.0,0.0,0.0,0.0,0.0,0.0,0.0,0.0,0.0,0.0,0.0,0.0,0.0,0.0,0.0,0.0,0.0,0.0,0.0,0.0,0.0,0.0,0.0,0.0,0.0,0.0,0.0,0.0,0.0,0.0,0.0,0.0,0.0,0.0,0.0,0.0,0.0,0.0,0.0,0.0,0.0,0.0,0.0,0.0,0.0,0.0,0.0,0.0,0.0,0.0,0.0,0.0,0.0,0.0,-0.06449517939597436,0.0,0.0,0.0,0.0,0.0,0.0,0.0,0.0,0.0,0.0,0.0,0.0,0.0,0.0,0.0,0.0,0.0,0.0,0.0,0.0,0.0,0.0,0.0,0.0,0.0,0.0,0.0,0.0,0.0,0.0,0.0,0.0,0.0,0.0,0.0,0.0,0.0,0.0,0.0,0.0,0.0,0.0,0.0,0.0,0.0,0.0,-0.01199283146920991,-0.01199283146920991,-0.01199283146920991,-0.01199283146920991,-0.18490350625850654,-0.01199283146920991,0.0,-0.005804422254499103,0.0,0.0,0.0,0.0,0.0,0.0,0.0,0.0,0.0,0.0,0.0,0.0,0.0,0.0,0.0,0.0,0.0,0.0,0.0,0.0,0.0,0.0,0.0,0.0,0.0,0.0,0.0,0.0,0.0,0.0,0.0,0.0,0.0,0.0,0.0,0.0,0.0,0.0,0.0,-0.004439991877469428,-0.004439991877469428,-0.004439991877469428,0.0,0.0,0.0,-0.008244349854560231,-0.008244349854560231,0.0,0.0,0.0,0.0,-0.091688230021546,-0.091688230021546,-0.091688230021546,0.0,0.0,-0.03538797781357536,-4.335061758008204E-4,-3.9679294245590376E-8,0.0,-0.03606478507061974,0.0,0.0,0.0,0.0,-0.03538797781357536,-0.03538797781357536,0.0,0.0,0.0,0.0,0.0],"bias":-1.0400000000000007}