{"vocabulary":{"como":0,"compra":1,"pesadelos":2,"onde":3,"comprar":4,"quero":5,"consegue":6,"consigo":7,"pega":8,"pego":9,"qual":10,"e":11,"a":12,"loja":13,"de":14,"o":15,"link":16,"para":17,"faz":18,"algumas":19,"perguntas":20,"sobre":21,"trocar":22,"senha":23,"se":24,"nao":25,"ta":26,"indo":27,"ela":28,"incorreta":29,"resetei":30,"sua":31,"troquei":32,"mudei":33,"redefini":34,"ola":35,"boa":36,"tarde":37,"atualmente":38,"eu":39,"jogo":40,"no":41,"sparklypower":42,"pelo":43,"mine":44,"original":45,"pc":46,"eventualmente":47,"comprei":48,"iphone":49,"consiguirei":50,"jogar":51,"em":52,"ambos":53,"atraves":54,"da":55,"minha":56,"conta":57,"normalmente":58,"enviei":59,"errado":60,"pessoa":61,"errada":62,"mandei":63,"dei":64,"estava":65,"acontecendo":66,"uma":67,"rifa":68,"meus":69,"sairam":70,"devolvi":71,"os":72,"mas":73,"dono":74,"do":75,"plugin":76,"ainda":77,"atualizou":78,"pois":79,"era":80,"pra":81,"estar":82,"funcionando":83,"entao":84,"porque":85,"la":86,"<#760262410098442270>":87,"mypet":88,"esta":89,"disponivel":90,"fez":91,"isso":92,"hoje":93,"voce":94,"matou":95,"ele":96,"perdi":97,"meu":98,"bichinho":99,"chamar":100,"matei":101,"sniffer":102,"com":103,"laco":104,"kit":105,"noob":106,"por":107,"favor":108,"me":109,"ajudem":110,"tava":111,"querendo":112,"completar":113,";--;":114,"pior":115,"que":116,"to":117,"triste":118,"agora":119,"https://discordcom/channels/320248230917046282/332866197701918731/1253826917350506538":120,"essa":121,"foi":122,"ultima":123,"atualizacao":124,"conseguindo":125,"entrar":126,"causa":127,"versao":128,"power":129,"na":130,"nova":131,"ah":132,"certoobrigada":133,"/warp":134,"reparar":135,"clica":136,"placa":137,"[reparar]":138,"repara":139,"pic":140,"monstra":141,"certo":142,"obg":143,"vai":144,"possibilitar":145,"logar":146,"sem":147,"colocar":148,"um":149,"periodo":150,"infelizmente":151,"recordo":152,"pode":153,"utilizar":154,"/lembrar":155,"/premium":156,"so":157,"ser":158,"utilizado":159,"minecraft":160,"java":161,"portanto":162,"console":163,"celular":164,"bedrock":165,"geral":166,"possivel":167,"ajudar":168,"logotenho":169,"ficar":170,"colocando":171,"toda":172,"vez":173,"cansativo":174,"quando":175,"mandoele":176,"diz":177,"parece":178,"oficial":179,"ou":180,"obtido":181,"legalmente":182,"gostaria":183,"ajudatenho":184,"mandar":185,"espero":186,"tenha":187,"feito":188,"certopois":189,"achei":190,"noite":191,"m_eeow03":192,"nickname":193,"=":194,"as":195,"coisas":196,"antiga":197,"estao":198,"<@&332650495522897920>":199,"🤡":200,"":201,"cnt":202,"tou":203,"usando":204,"ag":205,"registrei":206,"esse":207,"discord":208,"foxy_zn8833":209,"ai":210,"tem":211,"passar":212,"nick":213,"p":214,"acho":215,"tinha":216,"transferir":217,"tudo":218,"li":219,"consegui":220,"microsoft":221,"usa":222,"/changepass":223,"<#830658622383980545>":224,"staff":225,"mais":226,"tempo":227,"tentei":228,"retornar":229,"login":230,"conectada":231,"fazer":232,"vinculada":233,"alguma":234,"outra":235,"resolucao":236,"entendi":237,"obrigado":238,"pela":239,"atencao":240,"irei":241,"notificalo":242,"valor":243,"ja":244,"debitado":245,"/transactions":246,"mostra":247,"digitou":248,"chequei":249,"transacoes":250,"usuario":251,"tambem":252,"consta":253,"recebido":254,"sc0refl":255,"disse":256,"chegou":257,"economia":258,"liga":259,"nome":260,"escrito":261,"mandou":262,"caps":263,"lock":264,"ligado":265,"desculpe":266,"ops":267,"correto":268,"seria":269,"ao":270,"2kk":271,"alguns":272,"erros":273,"ortograficos":274,"passaram":275,"despercebidos":276,"acabei":277,"mandando":278,"poderiam":279,"ressarcir":280,"mim":281,"diretamente":282,"playerr":283,"sempre":284,"ando":285,"mochilas":286,"inv":287,"uso":288,"elas":289,"mt":290,"estranhei":291,"costumo":292,"guardar":293,"nenhum":294,"lugar":295,"aqui":296,"ver":297,"haviam":298,"3":299,"tenho":300,"print":301,"pouco":302,"antes":303,"off":304,"desloga":305,"seu":306,"inventario":307,"salvo":308,"ninguem":309,"mexer":310,"alterar":311,"qualquer":312,"coisa":313,"nada":314,"sumir":315,"provar":316,"tais":317,"loguei":318,"joguei":319,"fechei":320,"ir":321,"mercado":322,"fui":323,"deparo":324,"algo":325,"nunca":326,"ocorreu":327,"deixou":328,"bastante":329,"surpreso":330,"nem":331,"imaginava":332,"poderia":333,"acontecer":334,"entendo":335,"todos":336,"nos":337,"enganamos":338,"vezes":339,"fechar":340,"havia":341,"unidades":342,"mochila":343,"terra":344,"porem":345,"sumido":346,"ok":347,"duvidas":348,"encerrar":349,"tikcket":350,"obgg":351,"the":352,"boy":353,"farmar":354,"msm":355,"eta":356,"permitiu":357,"farm":358,"use":359,"apenas":360,"mesmo":361,"itens":362,"etc":363,"deixa":364,"caso":365,"voltar":366,"falar":367,"pegou":368,"permissao":369,"dele":370,"ban":371,"hm":372,"realmente":373,"usar":374,"problema":375,"podemos":376,"deixar":377,"kskks":378,"supostamente":379,"alt":380,"daily":381,"ahhh":382,"vimax99":383,"bom":384,"dia":385,"player":386,"amigo":387,"banido":388,"(nao":389,"sei":390,"motivo":391,"exato)":392,"trust":393,"(pois":394,"construi":395,"ele)":396,"autorizou":397,"queria":398,"saber":399,"forma":400,"posse":401,"(ele":402,"estando":403,"ciente":404,"acordo)":405,"algum":406,"canal":407,"comandos":408,"comando":409,"slash":410,"logada":411,"recebi":412,"cargos":413,"membro":414,"vip":415,"faco":416,"agr":417,"puxar":418,"-bal":419,"ratoto_132":420,"outro":421,"cara":422,"botei":423,"m":424,"maiusculo":425,"pay":426,"ratoto":427,"pronto":428,"-mcuser":429,"setar":430,"xp":431,"criei":432,"id":433,"973754017236779068":434,"roubaram":435,"qr":436,"abrir":437,"denuncia":438,"dx":439,"ladrao":440,"n":441,"pagar":442,"pagou":443,"cria":444,"-money":445,"cebotarov":446,"trabalhando":447,"cobtratou":448,"deu":449,"terreno":450,"trabalhei":451,"devia":452,"desprotegido":453,"tirar":454,"perm":455,"tbm":456,"estranho":457,"depois":458,"dois":459,"sumirem":460,"aq":461,"ficou":462,"on":463,"uns":464,"10min":465,"dps":466,"terminei":467,"si":468,"lembro":469,"cebo":470,"v":471,"final":472,"vou":473,"coordenada":474,"saiu":475,"game":476,"amg":477,"entrou":478,"sv":479,"tirou":480,"area":481,"2":482,"ate":483,"sinal":484,"deles":485,"oioi":486,"andares":487,"pro":488,"cobrei":489,"520k":490,"simplesmente":491,"carente":492,"enchendo":493,"saco":494,"abertamente":495,"<#320541695697616896>":496,"irritar":497,"provocar":498,"indiretas":499,"falando":500,"merda":501,"sentiu":502,"incomodado":503,"fato":504,"estou":505,"catalogando":506,"/lojas":507,"decidi":508,"suporte":509,"voces":510,"resolva":511,"255141045715599360":512,"''":513,"respeite":514,"membros":515,"irrite":516,"provoque":517,"nesse":518,"serao":519,"toleradas":520,"pessoas":521,"toxicas":522,"causam":523,"desordem":524,"conversar":525,"divertir":526,"ter":527,"aturar":528,"gente":529,"temos":530,"sentimentos":531,"limite":532,"paciencia":533,":nb::nde:":534,"regra":535,"inclui":536,"tentam":537,"provocar/iniciar":538,"brigas":539,"discussoes":540,"(qualquer":541,"motivo)":542,"contam":543,"spoilers":544,"usam":545,"contas":546,"fakes":547,"evasao":548,"denuncie":549,"mesmo''":550,"pressionei":551,"dizer":552,"quieto":553,"''era":554,"irmao":555,"vender''":556,"desconectou":557,"kkkkkkkkkk":558,"dai":559,"pulga":560,"cocou":561,"scam":562,"desse":563,"tu":564,"investe":565,"50m":566,"pagando":567,"levantar":568,"andar":569,"tal":570,"vender":571,"6m":572,"dinheiro":573,"primeiro":574,"/claim":575,"abobora":576,"35":577,"cavado":578,"baixo":579,"desvincilhando":580,"pergunta":581,"kkkkkkkk":582,"historico":583,"quem/onde":584,"tpa":585,"confirmar":586,"marcim":587,"acaso":588,"grana":589,"negocio":590,"souza1tzzzz":591,"das":592,"duas":593,"verificar":594,"criar":595,"contra":596,"oi":597,"carinha":598,"quer":599,"envie":600,"''claim/posse''":601,"for":602,"mom1ntzada7":603,"hackead":604,"perguntar":605,"porq":606,"sai":607,"daquela":608,"registrar":609,"avisar":610,"desativei":611,"aquela":612,"vim":613,"sou":614,"sido":615,"hackeda":616,"tbom":617,"https://bitly/sparklypower-unban":618,"faca":619,"formulario":620,"unban":621,"alguem":622,"responde":623,"abri":624,"querer":625,"banida":626,"pedir":627,"passou":628,"mes":629,"comprir":630,"aquele":631,"mod":632,"construir":633,"constroe":634,"sozinho":635,"schematic":636,"podem":637,"ticket":638,":)":639,"-unban":640,"guisenpaii22":641,"legal":642,"fosse":643,"call":644,"^^":645,"gosto":646,"conhecer":647,"regras":648,"juntos":649,"claro":650,"te":651,"desbanir":652,"peco":653,"vi":654,"respeitou":655,"evadiu":656,"novamente":657,"baniu":658,"-checkban":659,"bem":660,"(de":661,"acordo":662,"data":663,"falaram)":664,"deveria":665,"durar":666,"meses":667,"viro":668,"eterno":669,"ping":670,"assim":671,"dar":672,"colher":673,"ia":674,"resolver":675,"grande":676,"parte":677,"dos":678,"problemas":679,"ain":680,"quebrei":681,"elevador":682,"testei":683,"quebrar":684,"plantacao":685,"crescendo":686,"crescida":687,"descobri":688,"recentemente":689,"/containertrust":690,"(nick)":691,"acesso":692,"aos":693,"jogadores":694,"principal":695,"farms":696,"pedi":697,"testar":698,"funcionava":699,"conseguiu":700,"(podia":701,"cheio":702,"sla)":703,"muitos":704,"amigos":705,"teste":706,"enfim":707,"funciona":708,"esteja":709,"otimo":710,"quem":711,"aluga":712,"(colher)":713,"blocos":714,"resposta":715,"esclarecer":716,"perguntei":717,"zum":718,"podia":719,"falou":720,"pensando":721,"montar":722,"lojinha":723,"competir":724,"lojas":725,"10%":726,"resto":727,"precisa":728,"herbalismo":729,"duvida":730,"ruim":731,"primeira":732,"chamada":733,"alison00007":734,"cheguei":735,"conectar":736,"(nem":737,"nela)":738,"xxalisonkkjxx":739,"troca":740,"achar":741,"curto":742,"gostei":743,"numero":744,"xbox":745,"nojentinho":746,"dittom":747,"averiguar":748,"dia/boa":749,"klapa":750,"este":751,"meio":752,"desbanido":753,"gostava":754,"muito":755,"permanentemente":756,"aprendi":757,"(e":758,"cometi)":759,"nocao":760,"durante":761,"desda":762,"cresci":763,"prometo":764,"farei":765,"bug/xray":766,"3º":767,"oportunidade":768,"players":769,"frequentam":770,"quiserem":771,"cometi":772,"demasiados":773,"<:lori_hug:543220309336260619>":774,"abusei":775,"bug":776,"apanhei":777,"kamiao":778,"dupou":779,"outras":780,"palavras":781,"aproveitei-me":782,"deem":783,"comprimentos-":784,"(alex)":785,"aguardo":786,"provavelmente":787,"corretamente":788,"parado":789,"in-game":790,"morreu":791,"ghast":792,"tela":793,"morte":794,"entrei":795,"apareceu":796,"sentido":797,"morrido":798,"minerando":799,"desligou":800,"liguei":801,"morri":802,"bau":803,"seja":804,"picaretas":805,"monstras":806,"(eram":807,"5)":808,"minerios":809,"pa":810,"queimou":811,"lava":812,"desligado":813,"voltei":814,"cai":815,"nether":816,"man":817,"donada":818,"estiver":819,"entrando":820,"sla":821,"presiso":822,"nivel":823,"estarei":824,"fechando":825,"explicado":826,"resumo":827,"ler":828,"acontece":829,"identifica":830,"camadas":831,"superiores":832,"protegida":833,"dropares":834,"item":835,"comsegue":836,"tipo":837,"+250":838,"altura":839,"voa":840,"alto":841,"jetpack":842,"drop":843,"/spawn":844,"encontrei":845,"teria":846,"retirar":847,"1":848,"tumulo":849,"fiquei":850,"esqueci":851,"altera":852,"mudar":853,"muda":854,"recuperar":855,"redefinir":856,"redefine":857,"recupera":858,"troco":859,"hey":860,"posso":861,"oieee":862,"td":863,"servidores":864,"ontem":865,"rapaz":866},"weights":[0.3345714682638857,0.3302991302711116,0.7057326155922449,0.16516608174372893,0.49586187504200685,0.16523216800164287,0.14429841442810026,0.14619859261562382,0.1653313469713867,0.16536441985535777,0.3090418049349752,0.026323742479817686,-0.1421889154273569,0.14049423267595149,-0.050388577920892054,0.012690013489505339,0.16543058547232328,-0.118375129460973,-0.025457790232743104,-0.025457790232743104,-0.025457790232743104,-0.025457790232743104,-0.0931180472382469,-0.08776320817470733,-1.7559185153637396E-27,-0.07025000635738345,-0.0033677239214156027,-2.8971626855226813E-28,-2.8971626855226813E-28,-2.8971626855226813E-28,-2.897742233969475E-28,-1.1594447386003335E-27,-2.8983218983491447E-28,-2.8989016786848818E-28,-2.8994815749998817E-28,-1.4725254234034493E-27,-1.1717712300380103E-27,-5.84572345288468E-28,-2.900061587317345E-28,-0.0980568991640008,-1.3828346844011575E-13,-0.006826833639692628,-0.0032838092264943102,-8.700184761951692E-28,-5.80012317463469E-28,-5.817577600568676E-28,-2.900061587317345E-28,-2.900061587317345E-28,-2.900061587317345E-28,-2.900061587317345E-28,-2.900061587317345E-28,-2.900061587317345E-28,-1.7566187736821153E-27,-2.900061587317345E-28,-2.900061587317345E-28,-0.021786279892578402,-0.051031128024390845,-8.391469492127274E-5,-2.900061587317345E-28,-0.16627745765910892,-0.16569551278802283,-0.21614545792779336,-0.21614545792779336,-0.1215589730445125,-0.0960776488291822,-0.16582813550297892,-0.16582813550297892,-0.16582813550297892,-0.16582813550297892,-0.16586130776453184,-0.16586130776453184,-0.1658944866618642,-0.1658944866618642,-0.006062013049667954,-0.0020731088169853758,-0.06973336582262764,-0.04105799931646396,-8.736856541719909E-28,-2.9047058647313296E-28,-8.758576791615152E-28,-2.905286922115753E-28,-0.04105799931646396,-2.905286922115753E-28,-2.905286922115753E-28,-8.777897115366095E-28,-2.9058680957348997E-28,-8.391469492127274E-5,-5.826303376326609E-28,-2.906449385612022E-28,-2.906449385612022E-28,-2.906449385612022E-28,-2.907030791770376E-28,-1.1684830361457303E-27,-2.907030791770376E-28,-0.03205139922440607,-2.907030791770376E-28,-0.012188939751755702,-0.004610775125770933,-0.07448709064519637,-2.907612314233223E-28,-0.012188939751755702,-2.9087757081654607E-28,-2.9087757081654607E-28,-5.8556161920526345E-28,-2.9087757081654607E-28,-2.9087757081654607E-28,-2.9087757081654607E-28,-8.391469505955777E-5,-2.909357579681397E-28,-4.0534647986708703E-19,-2.909357579681397E-28,-0.02490326667927831,-0.02490326667927831,-0.02490326667927831,-0.02490326667927831,-2.910521671929302E-28,-0.02656985539548909,-5.823372925870897E-28,-2.910521671929302E-28,-2.910521671929302E-28,-1.7687798574952634E-27,-8.767765390947604E-28,-0.06284427920904251,-2.911686229953834E-28,-2.911686229953834E-28,-2.9128512539413605E-28,-5.845579388959773E-28,-0.021786279892578402,-0.0032838092264943102,-0.0032838092264943102,-0.0032838092264943102,-0.0032838092264943102,-1.418333294569486E-27,-1.1251191356303374E-27,-2.9145996640111244E-28,-2.9145996640111244E-28,-2.9145996640111244E-28,-2.9145996640111244E-28,-2.9145996640111244E-28,-0.11698628748084267,-0.11698628748084267,-0.11698628748084267,-4.0534647898647145E-19,-2.915765853721979E-28,-4.053464789866496E-19,-4.0534647869490973E-19,-4.0534647869490973E-19,-4.0534647869490973E-19,-4.0534647869490973E-19,-1.3828387378659552E-13,-4.0534647869490973E-19,-4.0534647869490973E-19,-4.0534647869490973E-19,-0.011084592606376684,-0.011084592606376684,-0.011084592606376684,-0.006826833639692628,-0.06766025700550368,-5.8350320265026965E-28,-2.9175160132513482E-28,-0.006826833639692628,-2.9175160132513482E-28,-2.9175160132513482E-28,-0.006826833639692628,-2.9175160132513482E-28,-2.9175160132513482E-28,-2.9175160132513482E-28,-2.9175160132513482E-28,-2.918099633177984E-28,-2.9186833698519544E-28,-5.867882505334449E-28,-2.9186833698519544E-28,-2.9186833698519544E-28,-2.9186833698519544E-28,-2.9186833698519544E-28,-2.9192672232966136E-28,-2.9192672232966136E-28,-2.9192672232966136E-28,-2.9192672232966136E-28,-2.9192672232966136E-28,-1.3828346844011575E-13,-2.9192672232966136E-28,-2.9192672232966136E-28,-0.006826833639692628,-0.006826833639692628,-0.006826833639692628,-2.9204352805914387E-28,-8.814746059280259E-28,-2.9204352805914387E-28,-2.9204352805914387E-28,-2.9204352805914387E-28,-5.87198884749538E-28,-1.0007367646108079E-27,-2.9221882428979654E-28,-2.9221882428979654E-28,-8.782380139995574E-28,-5.846130266408692E-28,-1.7555363943971254E-27,-2.922772797457457E-28,-0.06766025700550368,-1.2307693897842646E-27,-1.1834465254600018E-27,-2.9256973247372968E-28,-2.9256973247372968E-28,-2.9256973247372968E-28,-2.9256973247372968E-28,-5.892045222827013E-28,-0.006201653056484623,-2.9262825812535476E-28,-6.418434618494868E-28,-5.896167589478685E-28,-0.16949975558150457,-2.928624778299952E-28,-5.873108496947114E-28,-5.87428029838781E-28,-5.890213334567526E-28,-2.9309688500412474E-28,-2.9309688500412474E-28,-2.9309688500412474E-28,-2.931555161073462E-28,-2.9327281350183443E-28,-2.9327281350183443E-28,-2.93331479797794E-28,-2.93331479797794E-28,-2.93331479797794E-28,-8.858836733961666E-28,0.0,-2.9491991354822037E-28,0.0,0.0,0.0,0.0,0.0,0.0,0.0,-8.391469492127274E-5,0.0,-2.935075491087014E-28,-2.935075491087014E-28,-2.935075491087014E-28,-2.935075491087014E-28,-2.935075491087014E-28,-2.935075491087014E-28,-2.935075491087014E-28,-2.935075491087014E-28,-2.935075491087014E-28,-2.9356626236117363E-28,-2.9356626236117363E-28,-2.9356626236117363E-28,-2.9362498735864534E-28,-2.9362498735864534E-28,-2.9362498735864534E-28,-2.9362498735864534E-28,-2.9362498735864534E-28,-2.9362498735864534E-28,-1.1763228345613224E-27,-2.937424725979856E-28,-2.937424725979856E-28,-0.04105799931646396,-0.04105799931646396,-0.04105799931646396,-0.04105799931646396,-5.881316724286934E-28,-2.9397758412006828E-28,-2.9397758412006828E-28,-2.9397758412006828E-28,-2.9403639139834795E-28,-5.882492516891204E-28,-1.4328576416276455E-27,-1.4328576416276455E-27,0.0,0.0,0.0,0.0,0.0,0.0,0.0,0.0,0.0,0.0,0.0,0.0,0.0,0.0,-2.946840483887241E-28,-2.946840483887241E-28,-0.015485262789112424,-2.946840483887241E-28,-2.946840483887241E-28,-5.894860057683058E-28,-2.946840483887241E-28,-2.9474299698812175E-28,-2.9480195737959766E-28,-2.9480195737959766E-28,-2.9480195737959766E-28,-2.9480195737959766E-28,0.0,-0.0020731088169853758,-0.015485262789112424,-0.06766025700550368,-2.9491991354822037E-28,-2.9491991354822037E-28,-2.9491991354822037E-28,-2.9491991354822037E-28,-2.9491991354822037E-28,0.0,0.0,0.0,0.0,0.0,0.0,-0.007836239670431367,0.0,0.0,0.0,0.0,-0.015485262789112424,-0.015485262789112424,0.0,0.0,0.0,0.0,0.0,0.0,0.0,-1.3828346844011575E-13,0.0,0.0,0.0,0.0,0.0,0.0,0.0,0.0,0.0,0.0,0.0,0.0,0.0,0.0,0.0,0.0,0.0,0.0,0.0,0.0,0.0,-2.9527406530938925E-28,0.0,0.0,0.0,-2.9539221037785197E-28,-2.9539221037785197E-28,-2.9539221037785197E-28,-2.9545130063797955E-28,-2.9545130063797955E-28,-5.910208054370465E-28,0.0,0.0,0.0,0.0,0.0,0.0,0.0,0.0,-2.958060905102594E-28,0.0,0.0,0.0,-2.958060905102594E-28,-0.006062013049667954,0.0,-2.957469292921573E-28,-2.958060905102594E-28,-0.005481543828640466,-2.958060905102594E-28,0.0,-0.06766025700550368,0.0,0.0,0.0,0.0,-2.960428537524494E-28,-0.021934861530827684,-2.9622055053867624E-28,-2.9622055053867624E-28,0.0,0.0,0.0,0.0,-0.004610775125770933,0.0,0.0,0.0,0.0,0.0,0.0,0.0,0.0,0.0,0.0,0.0,0.0,0.0,0.0,0.0,0.0,0.0,0.0,0.0,0.0,0.0,0.0,0.0,0.0,-0.06766025700550368,0.0,0.0,-0.0020731088169853758,-2.9681364384665204E-28,-2.9681364384665204E-28,0.0,0.0,0.0,0.0,0.0,0.0,0.0,-2.970512135346937E-28,-2.9711063566182607E-28,0.0,0.0,0.0,-0.006201653056484623,-2.9734844306216413E-28,0.0,0.0,0.0,-2.97705511099803E-28,0.0,0.0,-0.0021722800112341915,0.0,0.0,-2.97705511099803E-28,-2.9776506411262553E-28,-5.961263139610124E-28,0.0,0.0,0.0,-0.008135121866653312,0.0,0.0,0.0,-9.917119424880156E-5,-9.917119424880156E-5,0.0,0.0,0.0,0.0,0.0,0.0,-1.3828346844011575E-13,0.0,0.0,0.0,0.0,0.0,0.0,0.0,0.0,0.0,0.0,0.0,0.0,-1.3828346844011575E-13,0.0,0.0,0.0,0.0,0.0,0.0,0.0,0.0,0.0,0.0,0.0,0.0,0.0,0.0,0.0,0.0,0.0,0.0,0.0,0.0,0.0,0.0,0.0,0.0,0.0,0.0,0.0,0.0,0.0,0.0,0.0,0.0,0.0,0.0,0.0,0.0,-2.987792899633858E-28,0.0,0.0,0.0,0.0,0.0,0.0,0.0,0.0,0.0,0.0,0.0,0.0,0.0,0.0,0.0,0.0,0.0,0.0,0.0,0.0,0.0,0.0,0.0,0.0,0.0,0.0,0.0,0.0,0.0,0.0,0.0,0.0,0.0,0.0,0.0,0.0,0.0,0.0,0.0,0.0,0.0,0.0,0.0,0.0,0.0,0.0,-0.0020731088169853758,0.0,0.0,0.0,0.0,-0.0020731088169853758,0.0,0.0,0.0,0.0,0.0,0.0,0.0,0.0,0.0,0.0,0.0,0.0,0.0,0.0,0.0,0.0,0.0,0.0,-0.0020731088169853758,-0.0020731088169853758,-0.0020731088169853758,0.0,0.0,0.0,0.0,0.0,0.0,0.0,0.0,0.0,0.0,0.0,0.0,0.0,0.0,0.0,0.0,0.0,0.0,0.0,0.0,0.0,0.0,0.0,0.0,0.0,0.0,0.0,0.0,0.0,0.0,0.0,0.0,0.0,0.0,0.0,-8.391469492127274E-5,0.0,0.0,0.0,0.0,-8.391469492127274E-5,-8.391469492127274E-5,0.0,-0.06766025700550368,0.0,0.0,0.0,0.0,0.0,0.0,0.0,0.0,0.0,0.0,0.0,0.0,0.0,0.0,0.0,0.0,0.0,0.0,0.0,0.0,0.0,0.0,0.0,0.0,0.0,0.0,0.0,0.0,0.0,0.0,0.0,0.0,0.0,0.0,0.0,0.0,0.0,-0.06766025700550368,0.0,0.0,0.0,-1.3828346844011575E-13,0.0,0.0,0.0,0.0,0.0,0.0,0.0,0.0,0.0,0.0,0.0,0.0,0.0,0.0,0.0,0.0,0.0,0.0,0.0,0.0,0.0,0.0,0.0,0.0,0.0,0.0,0.0,0.0,0.0,0.0,0.0,0.0,0.0,0.0,0.0,0.0,0.0,0.0,0.0,0.0,0.0,0.0,0.0,0.0,0.0,0.0,0.0,0.0,0.0,0.0,0.0,0.0,0.0,0.0,0.0,0.0,0.0,0.0,0.0,0.0,0.0,0.0,0.0,0.0,0.0,0.0,0.0,0.0,-0.03626147129177289,0.0,0.0,0.0,0.0,0.0,0.0,0.0,0.0,0.0,0.0,0.0,0.0,0.0,0.0,0.0,0.0,0.0,0.0,0.0,0.0,0.0,0.0,0.0,0.0,0.0,0.0,0.0,0.0,0.0,0.0,0.0,0.0,0.0,0.0,0.0,0.0,0.0,0.0,0.0,0.0,0.0,0.0,0.0,0.0,0.0,0.0,-1.3828346844011575E-13,-1.3828346844011575E-13,-1.3828346844011575E-13,-1.3828346844011575E-13,-0.17405246284711032,-1.3828346844011575E-13,0.0,-0.021786279892578402,0.0,0.0,0.0,0.0,0.0,0.0,0.0,0.0,0.0,0.0,0.0,0.0,0.0,0.0,0.0,0.0,0.0,0.0,0.0,0.0,0.0,0.0,0.0,0.0,0.0,0.0,0.0,0.0,0.0,0.0,0.0,0.0,0.0,0.0,0.0,0.0,0.0,0.0,0.0,-6.528734486564757E-28,-6.528734486564757E-28,-6.528734486564757E-28,0.0,0.0,0.0,-8.76391364685703E-28,-8.76391364685703E-28,0.0,0.0,0.0,0.0,-0.06766025700550368,-0.06766025700550368,-0.06766025700550368,0.0,0.0,-0.013596927280970039,-4.5730187287359575E-9,0.0,0.0,-0.01820770240674106,0.0,0.0,0.0,0.0,-0.013596927280970039,-0.013596927280970039,0.0,0.0,0.0,0.0,0.0],"bias":-1.0700000000000007}