{"vocabulary":{"eu":0,"esqueci":1,"a":2,"minha":3,"senha":4,"nao":5,"lembro":6,"como":7,"troca":8,"trocar":9,"alterar":10,"altera":11,"mudar":12,"muda":13,"quero":14,"queria":15,"recuperar":16,"redefinir":17,"redefine":18,"recupera":19,"ou":20,"troco":21,"da":22,"conta":23,"hey":24,"posso":25,"oieee":26,"td":27,"bem":28,"sou":29,"nova":30,"em":31,"servidores":32,"de":33,"minecraft":34,"e":35,"entrei":36,"pela":37,"primeira":38,"vez":39,"no":40,"sparklypower":41,"ontem":42,"mas":43,"que":44,"faco":45,"pra":46,"oi":47,"registrar":48,"novamente":49,"rapaz":50,"para":51,"antiga":52,"perdi":53,"sei":54,"login":55,"do":56,"mine":57,"gostaria":58,"saber":59,"faz":60,"algumas":61,"perguntas":62,"sobre":63,"se":64,"ta":65,"indo":66,"ela":67,"incorreta":68,"o":69,"dono":70,"plugin":71,"ainda":72,"atualizou":73,"pois":74,"era":75,"estar":76,"funcionando":77,"entao":78,"porque":79,"la":80,"<#760262410098442270>":81,"mypet":82,"esta":83,"disponivel":84,"fez":85,"isso":86,"hoje":87,"voce":88,"matou":89,"ele":90,"meu":91,"bichinho":92,"consigo":93,"chamar":94,"matei":95,"sniffer":96,"com":97,"laco":98,"kit":99,"noob":100,"por":101,"favor":102,"me":103,"ajudem":104,"tava":105,"querendo":106,"completar":107,"loja":108,";--;":109,"pior":110,"to":111,"triste":112,"agora":113,"https://discordcom/channels/320248230917046282/332866197701918731/1253826917350506538":114,"essa":115,"foi":116,"ultima":117,"atualizacao":118,"<@967081750717161572>":119,"conseguindo":120,"entrar":121,"causa":122,"versao":123,"power":124,"na":125,"ah":126,"certoobrigada":127,"/warp":128,"reparar":129,"clica":130,"placa":131,"[reparar]":132,"repara":133,"pic":134,"monstra":135,"certo":136,"obg":137,"vai":138,"possibilitar":139,"logar":140,"sem":141,"colocar":142,"um":143,"periodo":144,"infelizmente":145,"recordo":146,"qual":147,"pode":148,"utilizar":149,"/lembrar":150,"/premium":151,"so":152,"ser":153,"utilizado":154,"java":155,"original":156,"portanto":157,"console":158,"celular":159,"bedrock":160,"geral":161,"possivel":162,"ajudar":163,"logotenho":164,"ficar":165,"colocando":166,"toda":167,"cansativo":168,"quando":169,"mandoele":170,"diz":171,"parece":172,"oficial":173,"obtido":174,"legalmente":175,"ajudatenho":176,"mandar":177,"espero":178,"tenha":179,"feito":180,"certopois":181,"achei":182,"boa":183,"noite":184,"m_eeow03":185,"nickname":186,"=":187,"as":188,"coisas":189,"estao":190,"<@&332650495522897920>":191,"🤡":192,"<@400683515873591296>":193,"cnt":194,"tou":195,"usando":196,"ag":197,"registrei":198,"esse":199,"discord":200,"foxy_zn8833":201,"ai":202,"tem":203,"passar":204,"nick":205,"p":206,"acho":207,"tinha":208,"transferir":209,"tudo":210,"li":211,"errado":212,"consegui":213,"microsoft":214,"usa":215,"/changepass":216,"<#830658622383980545>":217,"ola":218,"staff":219,"jogo":220,"mais":221,"tempo":222,"tentei":223,"retornar":224,"conectada":225,"fazer":226,"vinculada":227,"alguma":228,"outra":229,"resolucao":230,"entendi":231,"obrigado":232,"atencao":233,"irei":234,"notificalo":235,"valor":236,"ja":237,"debitado":238,"/transactions":239,"mostra":240,"digitou":241,"chequei":242,"transacoes":243,"usuario":244,"tambem":245,"consta":246,"recebido":247,"<@758378626537357324>":248,"sc0refl":249,"disse":250,"chegou":251,"economia":252,"liga":253,"nome":254,"escrito":255,"mandou":256,"caps":257,"lock":258,"ligado":259,"desculpe":260,"ops":261,"correto":262,"seria":263,"mandei":264,"tarde":265,"ao":266,"2kk":267,"alguns":268,"erros":269,"ortograficos":270,"passaram":271,"despercebidos":272,"acabei":273,"mandando":274,"poderiam":275,"ressarcir":276,"mim":277,"diretamente":278,"playerr":279,"sempre":280,"ando":281,"mochilas":282,"inv":283,"uso":284,"elas":285,"mt":286,"estranhei":287,"costumo":288,"guardar":289,"nenhum":290,"lugar":291,"aqui":292,"ver":293,"haviam":294,"3":295,"tenho":296,"uma":297,"print":298,"pouco":299,"antes":300,"off":301,"desloga":302,"seu":303,"inventario":304,"salvo":305,"ninguem":306,"mexer":307,"qualquer":308,"coisa":309,"nada":310,"sumir":311,"consegue":312,"provar":313,"tais":314,"loguei":315,"normalmente":316,"joguei":317,"fechei":318,"ir":319,"mercado":320,"fui":321,"deparo":322,"algo":323,"nunca":324,"ocorreu":325,"deixou":326,"bastante":327,"surpreso":328,"nem":329,"imaginava":330,"poderia":331,"acontecer":332,"entendo":333,"todos":334,"nos":335,"enganamos":336,"vezes":337,"fechar":338,"havia":339,"unidades":340,"mochila":341,"terra":342,"porem":343,"sumido":344,"ok":345,"duvidas":346,"encerrar":347,"tikcket":348,"obgg":349,"the":350,"boy":351,"farmar":352,"msm":353,"eta":354,"permitiu":355,"farm":356,"use":357,"apenas":358,"mesmo":359,"itens":360,"etc":361,"deixa":362,"caso":363,"voltar":364,"falar":365,"pegou":366,"permissao":367,"dele":368,"ban":369,"hm":370,"realmente":371,"usar":372,"problema":373,"podemos":374,"pessoa":375,"deixar":376,"kskks":377,"supostamente":378,"alt":379,"daily":380,"ahhh":381,"vimax99":382,"bom":383,"dia":384,"player":385,"amigo":386,"banido":387,"(nao":388,"motivo":389,"exato)":390,"trust":391,"(pois":392,"construi":393,"ele)":394,"autorizou":395,"forma":396,"posse":397,"(ele":398,"estando":399,"ciente":400,"acordo)":401,"algum":402,"canal":403,"comandos":404,"comando":405,"slash":406,"sua":407,"logada":408,"recebi":409,"os":410,"cargos":411,"membro":412,"vip":413,"agr":414,"puxar":415,"-bal":416,"ratoto_132":417,"outro":418,"cara":419,"botei":420,"m":421,"maiusculo":422,"pay":423,"ratoto":424,"<@1239702087441448992>":425,"pronto":426,"-mcuser":427,"setar":428,"xp":429,"criei":430,"id":431,"973754017236779068":432,"roubaram":433,"qr":434,"abrir":435,"denuncia":436,"dx":437,"ladrao":438,"n":439,"pagar":440,"pagou":441,"<@691240086083469393>":442,"cria":443,"-money":444,"cebotarov":445,"trabalhando":446,"cobtratou":447,"deu":448,"terreno":449,"trabalhei":450,"devia":451,"desprotegido":452,"tirar":453,"perm":454,"tbm":455,"estranho":456,"depois":457,"dois":458,"sumirem":459,"aq":460,"ficou":461,"on":462,"uns":463,"10min":464,"dps":465,"terminei":466,"si":467,"cebo":468,"v":469,"final":470,"vou":471,"coordenada":472,"":473,"saiu":474,"game":475,"amg":476,"entrou":477,"sv":478,"tirou":479,"area":480,"sairam":481,"2":482,"ate":483,"sinal":484,"deles":485,"oioi":486,"andares":487,"pro":488,"cobrei":489,"520k":490,"simplesmente":491,"carente":492,"enchendo":493,"saco":494,"abertamente":495,"<#320541695697616896>":496,"irritar":497,"provocar":498,"indiretas":499,"falando":500,"merda":501,"sentiu":502,"incomodado":503,"fato":504,"estou":505,"catalogando":506,"/lojas":507,"decidi":508,"suporte":509,"voces":510,"resolva":511,"255141045715599360":512,"''":513,"respeite":514,"membros":515,"irrite":516,"provoque":517,"nesse":518,"serao":519,"toleradas":520,"pessoas":521,"toxicas":522,"causam":523,"desordem":524,"conversar":525,"divertir":526,"ter":527,"aturar":528,"gente":529,"temos":530,"sentimentos":531,"limite":532,"paciencia":533,":nb::nde:":534,"regra":535,"inclui":536,"tentam":537,"provocar/iniciar":538,"brigas":539,"discussoes":540,"(qualquer":541,"motivo)":542,"contam":543,"spoilers":544,"usam":545,"contas":546,"fakes":547,"evasao":548,"denuncie":549,"mesmo''":550,"pressionei":551,"dizer":552,"quieto":553,"''era":554,"irmao":555,"vender''":556,"desconectou":557,"kkkkkkkkkk":558,"dai":559,"pulga":560,"cocou":561,"scam":562,"desse":563,"tu":564,"investe":565,"50m":566,"pagando":567,"levantar":568,"andar":569,"tal":570,"vender":571,"6m":572,"dinheiro":573,"primeiro":574,"/claim":575,"abobora":576,"35":577,"cavado":578,"baixo":579,"desvincilhando":580,"pergunta":581,"kkkkkkkk":582,"historico":583,"quem/onde":584,"dei":585,"tpa":586,"confirmar":587,"marcim":588,"acaso":589,"grana":590,"negocio":591,"souza1tzzzz":592,"das":593,"duas":594,"verificar":595,"criar":596,"contra":597,"<@123170274651668480>":598,"carinha":599,"quer":600,"envie":601,"''claim/posse''":602,"for":603,"mom1ntzada7":604,"estava":605,"hackead":606,"perguntar":607,"porq":608,"sai":609,"daquela":610,"avisar":611,"desativei":612,"aquela":613,"vim":614,"sido":615,"hackeda":616,"<@1045160191211098112>":617,"tbom":618,"https://bitly/sparklypower-unban":619,"faca":620,"formulario":621,"unban":622,"alguem":623,"responde":624,"abri":625,"querer":626,"banida":627,"pedir":628,"passou":629,"mes":630,"comprir":631,"aquele":632,"mod":633,"construir":634,"constroe":635,"sozinho":636,"schematic":637,"podem":638,"ticket":639,"<@1084815932481867880>":640,":)":641,"-unban":642,"guisenpaii22":643,"legal":644,"fosse":645,"call":646,"^^":647,"gosto":648,"conhecer":649,"jogar":650,"regras":651,"juntos":652,"claro":653,"te":654,"desbanir":655,"peco":656,"pelo":657,"vi":658,"respeitou":659,"evadiu":660,"baniu":661,"<@252342821514641409>":662,"-checkban":663,"(de":664,"acordo":665,"data":666,"falaram)":667,"deveria":668,"durar":669,"meses":670,"viro":671,"eterno":672,"ping":673,"assim":674,"dar":675,"colher":676,"ia":677,"resolver":678,"grande":679,"parte":680,"dos":681,"problemas":682,"ain":683,"quebrei":684,"elevador":685,"testei":686,"quebrar":687,"plantacao":688,"crescendo":689,"crescida":690,"descobri":691,"recentemente":692,"/containertrust":693,"(nick)":694,"acesso":695,"aos":696,"jogadores":697,"principal":698,"farms":699,"pedi":700,"testar":701,"funcionava":702,"conseguiu":703,"(podia":704,"cheio":705,"sla)":706,"muitos":707,"amigos":708,"teste":709,"enfim":710,"funciona":711,"esteja":712,"otimo":713,"quem":714,"aluga":715,"(colher)":716,"blocos":717,"resposta":718,"esclarecer":719,"perguntei":720,"zum":721,"podia":722,"falou":723,"compra":724,"pensando":725,"montar":726,"lojinha":727,"competir":728,"lojas":729,"10%":730,"resto":731,"precisa":732,"herbalismo":733,"duvida":734,"ruim":735,"chamada":736,"alison00007":737,"troquei":738,"cheguei":739,"conectar":740,"(nem":741,"nela)":742,"xxalisonkkjxx":743,"achar":744,"curto":745,"gostei":746,"numero":747,"xbox":748,"nojentinho":749,"dittom":750,"<@117360836959404033>":751,"averiguar":752,"dia/boa":753,"klapa":754,"este":755,"meio":756,"desbanido":757,"gostava":758,"muito":759,"permanentemente":760,"aprendi":761,"(e":762,"cometi)":763,"nocao":764,"durante":765,"desda":766,"cresci":767,"prometo":768,"farei":769,"bug/xray":770,"3º":771,"oportunidade":772,"players":773,"frequentam":774,"quiserem":775,"cometi":776,"demasiados":777,"<:lori_hug:543220309336260619>":778,"abusei":779,"bug":780,"apanhei":781,"kamiao":782,"dupou":783,"outras":784,"palavras":785,"aproveitei-me":786,"deem":787,"meus":788,"comprimentos-":789,"(alex)":790,"aguardo":791,"<@810173694848532512>":792,"provavelmente":793,"corretamente":794,"parado":795,"in-game":796,"morreu":797,"ghast":798,"tela":799,"morte":800,"apareceu":801,"sentido":802,"morrido":803,"minerando":804,"pc":805,"desligou":806,"liguei":807,"morri":808,"bau":809,"seja":810,"picaretas":811,"monstras":812,"(eram":813,"5)":814,"minerios":815,"pa":816,"queimou":817,"lava":818,"desligado":819,"voltei":820,"cai":821,"nether":822,"man":823,"donada":824,"estiver":825,"entrando":826,"sla":827,"presiso":828,"nivel":829,"estarei":830,"fechando":831,"explicado":832,"resumo":833,"ler":834,"acontece":835,"identifica":836,"camadas":837,"superiores":838,"protegida":839,"dropares":840,"item":841,"comsegue":842,"tipo":843,"+250":844,"altura":845,"voa":846,"alto":847,"jetpack":848,"drop":849,"/spawn":850,"encontrei":851,"teria":852,"retirar":853,"pesadelos":854,"1":855,"tumulo":856,"fiquei":857,"<@197501878399926272>":858},"weights":[0.08004370343369734,0.2758621181673906,0.24408711286786083,0.4466606443270222,1.1130792509258964,-0.013126397635696629,0.33378086781627203,0.21373610627062722,0.17895783530448675,-0.042934215782633275,0.013860398729276757,0.011295783776590204,0.20826085177420106,0.018420757041991632,0.03274889201018106,0.15927553168420436,0.1505471905471942,0.09529241614316329,0.01634714568607605,0.0010441957390156375,0.01773123610887865,1.744554558951765E-25,0.1063375015966474,-0.14423532975360845,7.493275236926589E-26,7.493275236926589E-26,0.04487370058174429,0.04487370058174429,0.04487370058174429,0.02111899070027369,0.04487370058174429,0.03685002113169957,0.04487370058174429,0.07795080539916847,0.04487370058174429,-0.2547103083457759,-0.02289583440636551,0.04487370058174429,0.04487370058174429,-0.06705182688523863,-0.05579738703068252,0.11939524760889779,0.04487370058174429,-0.012317485324582808,-0.1201621868236444,0.22955609047332215,0.04581753846455389,0.06398311554104102,0.06398311554104102,0.06398311554104102,0.054044130709302814,0.048746521292522285,-0.13509922350289863,0.201147477052194,0.020801647201740728,0.0450888128283609,0.19272728628794292,0.11905117504111519,1.1716721511444785E-27,2.499791847004934E-26,-0.17992691869675298,-0.17992691869675298,-0.17992691869675298,-0.17992691869675298,-0.18669168227328506,-0.357336005646482,-0.178668002823241,-0.178668002823241,-0.178668002823241,-0.16977106065971967,-2.3702659084232198E-26,-4.7681897732507737E-26,-0.021104031690501457,-2.3702659084232198E-26,-0.0016717056923986546,-0.00969538514244324,-0.0016717056923986546,-0.0016717056923986546,-1.2078993604509928E-25,-7.282063640633466E-26,-9.737163213256517E-26,-7.258110667496734E-26,-2.37168863702177E-26,-2.37168863702177E-26,-2.37168863702177E-26,-0.017037204865739584,-0.11192552746698278,-0.04093297166153296,-0.12802271560706682,-2.3721630696356972E-26,-0.0166874607368686,-0.15152377326591684,-0.11059080160438335,-4.755736851489793E-26,-2.3731122195990482E-26,-2.3735869369864454E-26,-2.3735869369864454E-26,-0.008023679450044554,-2.3735869369864454E-26,-2.3735869369864454E-26,-2.3735869369864454E-26,-0.06882287460645575,-4.880863523847271E-26,-0.08219562817454946,-4.880863523847271E-26,-0.08500245320433604,-0.08500245320433604,-0.08500245320433604,-0.08500245320433604,-0.08500245320433604,-4.8828164551166593E-26,-7.259729073828095E-26,-4.8828164551166593E-26,-4.8828164551166593E-26,-1.3281993109586764E-25,-0.021104031690501457,-0.04905920150573304,-1.033105185869327E-25,-1.033105185869327E-25,-0.004586472452998848,-2.3769126187114442E-26,-4.770044949771395E-26,-0.04905920150573304,-4.7543007150421234E-26,-0.013372753568093814,-0.021623677318738464,-1.5162736243250418E-25,-1.0339320834254515E-25,-0.004586472452998848,-0.004586472452998848,-0.004586472452998848,-0.004586472452998848,-0.004586472452998848,-0.048773804534878944,-0.048773804534878944,-0.06581100940061839,-0.06882287460645575,-7.544408277297247E-26,-0.06882287460645575,-0.06882287460645575,-0.06882287460645575,-0.06882287460645575,-0.06882287460645575,-0.10975584626798864,-0.06882287460645575,-0.06882287460645575,-0.06882287460645575,-0.11788207611218887,-0.12802271560706682,-4.7609620640564705E-26,-2.3802429601178575E-26,-7.144062839767649E-26,-0.02375470988147046,-4.7614382078772903E-26,-2.3807191039386452E-26,-2.3807191039386452E-26,-2.3807191039386452E-26,-2.3807191039386452E-26,-4.7633437358293456E-26,-2.3807191039386452E-26,-2.3807191039386452E-26,-2.3807191039386452E-26,-2.3807191039386452E-26,-2.3811953430072465E-26,-0.11192552746698278,-0.12310896480959166,-0.11192552746698278,-0.11192552746698278,-0.11192552746698278,-4.7892023322417545E-26,-2.3821481069641078E-26,-2.3821481069641078E-26,-2.3821481069641078E-26,-2.3821481069641078E-26,-2.3821481069641078E-26,-2.3821481069641078E-26,-2.3826246318904858E-26,-0.005297609416780609,-2.383101252140914E-26,-7.192911450830426E-26,-2.383101252140914E-26,-2.383101252140914E-26,-2.383101252140914E-26,-0.04093297166153296,-0.04093297166153296,-1.527844510952051E-25,-0.005297609416780609,-5.0431687982250264E-26,-0.007734820296078055,-0.007734820296078055,-2.385008686764557E-26,-1.5169911398735487E-25,-1.037661320460604E-25,-1.037868894239452E-25,-0.04610286990777003,-0.022348160026299514,-0.022348160026299514,-0.022348160026299514,-0.021104031690501457,-0.021104031690501457,-0.044858741571972054,-7.573134446614768E-26,-7.236744745985903E-26,-0.14216554589306218,-7.220773601400922E-26,-0.020149120700051946,-7.208718107496856E-26,-0.008023679450044554,-0.02375470988147046,-2.3916967388179096E-26,-0.017037204865739584,-2.39217517385268E-26,-4.7877020737932874E-26,-0.04093297166153296,-0.04093297166153296,-2.393611053270465E-26,-0.12802271560706682,-2.393611053270465E-26,-0.04093297166153296,-0.04093297166153296,-0.04093297166153296,-0.04093297166153296,-0.05211640900414154,-0.04093297166153296,-0.04093297166153296,-0.04093297166153296,-0.04093297166153296,-0.04093297166153296,-0.04895665111157754,-0.2371042284607612,-0.04093297166153296,-4.8258094989631164E-26,-2.3950477945606266E-26,-2.3950477945606266E-26,-2.3950477945606266E-26,-2.3950477945606266E-26,-2.3950477945606266E-26,-0.013372753568093814,-2.3950477945606266E-26,-2.3955268999406147E-26,-2.3955268999406147E-26,-2.3955268999406147E-26,-2.396006101160847E-26,-2.396006101160847E-26,-2.396006101160847E-26,-2.396006101160847E-26,-2.396006101160847E-26,-2.396006101160847E-26,-2.396006101160847E-26,-9.598899309959586E-26,-2.396964791198735E-26,-2.396964791198735E-26,-2.3979238648277117E-26,-2.3979238648277117E-26,-0.008023679450044554,-4.812210819747565E-26,-4.7992069343331266E-26,-2.398883322201259E-26,-2.398883322201259E-26,-2.398883322201259E-26,-2.3993631948402273E-26,-4.8001663915914355E-26,-2.402244447214518E-26,-2.402244447214518E-26,-4.8525226854061837E-26,-2.403686370613751E-26,0.0,0.0,0.0,0.0,0.0,0.0,0.0,-0.017037204865739584,0.0,0.0,0.0,0.0,0.0,0.0,-2.404648133681298E-26,-2.404648133681298E-26,-7.218275365974911E-26,-2.404648133681298E-26,-2.404648133681298E-26,-4.8102584152507397E-26,-2.404648133681298E-26,-2.4051291595132008E-26,-2.4056102815695148E-26,-2.4056102815695148E-26,-0.0166874607368686,-2.4056102815695148E-26,-4.848550080221618E-26,-0.008023679450044554,-4.813627232293244E-26,-2.4060914998694887E-26,-0.011183437342608668,-0.011183437342608668,-0.011183437342608668,-0.011183437342608668,-0.011183437342608668,-0.011183437342608668,-2.4070542252774306E-26,-0.005297609416780609,-2.4070542252774306E-26,-2.4070542252774306E-26,-2.4070542252774306E-26,-2.4070542252774306E-26,-2.4070542252774306E-26,-0.008023679450044554,-2.4070542252774306E-26,-2.4070542252774306E-26,-2.4075357324239154E-26,-2.4075357324239154E-26,-2.4075357324239154E-26,0.0,0.0,0.0,0.0,0.0,0.0,0.0,0.0,0.0,0.0,0.0,0.0,0.0,0.0,-0.008234534794749481,0.0,-0.005297609416780609,0.0,0.0,0.0,0.0,0.0,0.0,0.0,0.0,0.0,-0.017037204865739584,0.0,0.0,0.0,-2.409462724409488E-26,-2.4099447133521583E-26,-2.4099447133521583E-26,-2.4099447133521583E-26,-2.4104267987119008E-26,-2.4104267987119008E-26,-2.4104267987119008E-26,-4.8261619400013914E-26,-4.839240895316279E-26,-4.8227825175195086E-26,0.0,-4.8266430596273226E-26,-2.412356104707393E-26,-2.412356104707393E-26,-4.8266430596273226E-26,-0.032572238155103274,-2.412356104707393E-26,-2.412356104707393E-26,-2.4138040975287289E-26,0.0,0.0,0.0,-2.4138040975287289E-26,-0.036836581436920444,-2.4152529594933916E-26,-2.4133213367092232E-26,-2.4138040975287289E-26,-0.12802271560706682,-2.4138040975287289E-26,-2.4142869549197127E-26,-2.4142869549197127E-26,-2.4142869549197127E-26,-2.4142869549197127E-26,-2.4152529594933916E-26,-2.4152529594933916E-26,-2.4152529594933916E-26,-2.4157361067147344E-26,-2.4162193505848513E-26,-2.4171861283487456E-26,-2.4171861283487456E-26,0.0,-0.020149120700051946,0.0,0.0,0.0,0.0,0.0,0.0,0.0,0.0,0.0,0.0,0.0,0.0,0.0,0.0,0.0,-2.4181532929397896E-26,-2.4181532929397896E-26,-2.4181532929397896E-26,-0.12802271560706682,-0.12802271560706682,-0.12802271560706682,-2.419120844512761E-26,-0.008234534794749481,-0.041959200397357635,-0.008234534794749481,-0.008234534794749481,-0.008234534794749481,-0.0166874607368686,-2.4215414175074055E-26,-2.42202582267194E-26,-2.42202582267194E-26,-4.874759286188099E-26,-0.008023679450044554,0.0,0.0,0.0,0.0,0.0,-4.8484137149165797E-26,-2.4239644125280665E-26,-2.4244493023885442E-26,-2.4249342892463934E-26,-2.4249342892463934E-26,-2.4254193731210176E-26,0.0,-2.4263898319982237E-26,-0.17241654691775685,0.0,0.0,-2.4293035390515926E-26,-2.4283319148081135E-26,-2.4283319148081135E-26,-0.07422232890021069,-2.4283319148081135E-26,0.0,-2.4293035390515926E-26,-2.4293035390515926E-26,-2.4297894969509827E-26,-4.864443922711878E-26,-2.430275552061395E-26,0.0,-0.013372753568093814,0.0,0.0,0.0,0.0,-0.06619864945016626,-0.08288611018703451,-0.020149120700051946,0.0,0.0,0.0,0.0,0.0,0.0,0.0,0.0,0.0,0.0,0.0,-0.008023679450044554,-0.008023679450044554,-0.008023679450044554,-0.008023679450044554,-0.008023679450044554,-0.020149120700051946,-4.89081848537741E-26,-0.0166874607368686,-0.0166874607368686,-0.0166874607368686,-0.0166874607368686,-0.0166874607368686,-0.0166874607368686,-0.0166874607368686,-0.0166874607368686,-0.0166874607368686,-0.0166874607368686,-0.0166874607368686,-0.0166874607368686,0.0,0.0,0.0,0.0,0.0,0.0,0.0,0.0,0.0,0.0,0.0,0.0,0.0,0.0,0.0,0.0,0.0,0.0,0.0,0.0,0.0,0.0,0.0,0.0,0.0,0.0,-2.4380656704069168E-26,0.0,0.0,0.0,0.0,0.0,0.0,0.0,0.0,0.0,0.0,0.0,0.0,0.0,0.0,0.0,0.0,0.0,0.0,0.0,0.0,0.0,0.0,0.0,0.0,0.0,0.0,0.0,0.0,0.0,0.0,0.0,0.0,0.0,0.0,0.0,0.0,0.0,0.0,0.0,0.0,0.0,0.0,0.0,0.0,0.0,0.0,0.0,0.0,0.0,0.0,0.0,0.0,0.0,0.0,0.0,0.0,0.0,0.0,0.0,0.0,0.0,0.0,0.0,0.0,0.0,0.0,0.0,0.0,0.0,0.0,0.0,0.0,0.0,0.0,-2.4424585803520346E-26,0.0,0.0,0.0,0.0,0.0,-0.017037204865739584,0.0,-0.005297609416780609,0.0,0.0,-2.446370033567004E-26,0.0,0.0,0.0,0.0,0.0,-0.02375470988147046,0.0,0.0,-2.88181899167013E-26,-5.76363798334026E-26,-2.88181899167013E-26,-2.88181899167013E-26,-0.02375470988147046,0.0,0.0,-0.02375470988147046,-0.02375470988147046,-0.02375470988147046,-2.4497976931932186E-26,-2.4502877507433674E-26,-2.4507779063246323E-26,0.0,0.0,0.0,0.0,0.0,-2.4522489614512454E-26,-2.4522489614512454E-26,0.0,0.0,0.0,0.0,0.0,0.0,0.0,0.0,0.0,0.0,0.0,0.0,0.0,0.0,0.0,0.0,0.0,0.0,0.0,0.0,0.0,0.0,0.0,0.0,0.0,0.0,0.0,0.0,0.0,0.0,0.0,0.0,0.0,0.0,0.0,0.0,0.0,0.0,0.0,0.0,0.0,0.0,0.0,0.0,0.0,0.0,0.0,0.0,0.0,0.0,0.0,0.0,0.0,0.0,0.0,0.0,0.0,0.0,0.0,0.0,0.0,0.0,0.0,0.0,0.0,0.0,0.0,0.0,0.0,0.0,0.0,0.0,0.0,0.0,0.0,0.0,0.0,0.0,0.0,0.0,0.0,0.0,0.0,0.0,0.0,0.0,0.0,0.0,0.0,0.0,0.0,-0.013372753568093814,0.0,0.0,0.0,0.0,0.0,0.0,0.0,0.0,0.0,0.0,0.0,0.0,-0.017037204865739584,0.0,0.0,0.0,0.0,0.0,0.0,0.0,0.0,0.0,0.0,0.0,0.0,-0.017037204865739584,0.0,0.0,0.0,0.0,0.0,0.0,0.0,0.0,0.0,0.0,0.0,0.0,0.0,0.0,0.0,0.0,0.0,0.0,0.0,0.0,0.0,0.0,0.0,0.0,0.0,0.0,0.0,0.0,0.0,0.0,0.0,0.0,0.0,0.0,0.0,0.0,0.0,0.0,0.0,0.0,0.0,0.0,0.0,-0.01553503328936364,0.0,0.0,0.0,0.0,0.0,0.0,0.0,0.0,-0.08467511258847545,0.0,0.0,-0.04905920150573304,0.0,0.0,0.0,0.0,0.0,0.0,0.0,0.0,-0.017037204865739584,-0.017037204865739584,-0.017037204865739584,-0.017037204865739584,-0.017037204865739584,-0.017037204865739584,-0.017037204865739584,-0.017037204865739584,-0.017037204865739584,-0.017037204865739584,0.0,0.0,0.0,0.0,-0.01553503328936364,-0.01553503328936364,0.0,0.0,0.0,0.0,0.0,0.0,0.0,0.0,0.0,0.0,0.0,0.0,0.0,0.0,0.0,0.0,-0.008190412437403942,0.0,0.0,0.0,0.0,0.0,0.0,0.0,-0.008190412437403942,-0.008190412437403942,0.0,0.0,0.0,0.0,0.0,0.0,0.0,0.0],"bias":-1.1500000000000008}