{"vocabulary":{"eu":0,"esqueci":1,"a":2,"minha":3,"senha":4,"nao":5,"lembro":6,"como":7,"troca":8,"trocar":9,"alterar":10,"altera":11,"mudar":12,"muda":13,"quero":14,"queria":15,"recuperar":16,"redefinir":17,"redefine":18,"recupera":19,"ou":20,"troco":21,"da":22,"conta":23,"hey":24,"posso":25,"oieee":26,"td":27,"bem":28,"sou":29,"nova":30,"em":31,"servidores":32,"de":33,"minecraft":34,"e":35,"entrei":36,"pela":37,"primeira":38,"vez":39,"no":40,"sparklypower":41,"ontem":42,"mas":43,"que":44,"faco":45,"pra":46,"oi":47,"registrar":48,"novamente":49,"rapaz":50,"para":51,"antiga":52,"perdi":53,"sei":54,"login":55,"do":56,"mine":57,"gostaria":58,"saber":59,"faz":60,"algumas":61,"perguntas":62,"sobre":63,"se":64,"ta":65,"indo":66,"ela":67,"incorreta":68,"resetei":69,"sua":70,"troquei":71,"mudei":72,"redefini":73,"o":74,"dono":75,"plugin":76,"ainda":77,"atualizou":78,"pois":79,"era":80,"estar":81,"funcionando":82,"entao":83,"porque":84,"la":85,"<#760262410098442270>":86,"mypet":87,"esta":88,"disponivel":89,"fez":90,"isso":91,"hoje":92,"voce":93,"matou":94,"ele":95,"meu":96,"bichinho":97,"consigo":98,"chamar":99,"matei":100,"sniffer":101,"com":102,"laco":103,"kit":104,"noob":105,"por":106,"favor":107,"me":108,"ajudem":109,"tava":110,"querendo":111,"completar":112,"loja":113,";--;":114,"pior":115,"to":116,"triste":117,"agora":118,"https://discordcom/channels/320248230917046282/332866197701918731/1253826917350506538":119,"essa":120,"foi":121,"ultima":122,"atualizacao":123,"conseguindo":124,"entrar":125,"causa":126,"versao":127,"power":128,"na":129,"ah":130,"certoobrigada":131,"/warp":132,"reparar":133,"clica":134,"placa":135,"[reparar]":136,"repara":137,"pic":138,"monstra":139,"certo":140,"obg":141,"vai":142,"possibilitar":143,"logar":144,"sem":145,"colocar":146,"um":147,"periodo":148,"infelizmente":149,"recordo":150,"qual":151,"pode":152,"utilizar":153,"/lembrar":154,"/premium":155,"so":156,"ser":157,"utilizado":158,"java":159,"original":160,"portanto":161,"console":162,"celular":163,"bedrock":164,"geral":165,"possivel":166,"ajudar":167,"logotenho":168,"ficar":169,"colocando":170,"toda":171,"cansativo":172,"quando":173,"mandoele":174,"diz":175,"parece":176,"oficial":177,"obtido":178,"legalmente":179,"ajudatenho":180,"mandar":181,"espero":182,"tenha":183,"feito":184,"certopois":185,"achei":186,"boa":187,"noite":188,"m_eeow03":189,"nickname":190,"=":191,"as":192,"coisas":193,"estao":194,"<@&332650495522897920>":195,"🤡":196,"":197,"cnt":198,"tou":199,"usando":200,"ag":201,"registrei":202,"esse":203,"discord":204,"foxy_zn8833":205,"ai":206,"tem":207,"passar":208,"nick":209,"p":210,"acho":211,"tinha":212,"transferir":213,"tudo":214,"li":215,"errado":216,"consegui":217,"microsoft":218,"usa":219,"/changepass":220,"<#830658622383980545>":221,"ola":222,"staff":223,"jogo":224,"mais":225,"tempo":226,"tentei":227,"retornar":228,"conectada":229,"fazer":230,"vinculada":231,"alguma":232,"outra":233,"resolucao":234,"entendi":235,"obrigado":236,"atencao":237,"irei":238,"notificalo":239,"valor":240,"ja":241,"debitado":242,"/transactions":243,"mostra":244,"digitou":245,"chequei":246,"transacoes":247,"usuario":248,"tambem":249,"consta":250,"recebido":251,"sc0refl":252,"disse":253,"chegou":254,"economia":255,"liga":256,"nome":257,"escrito":258,"mandou":259,"caps":260,"lock":261,"ligado":262,"desculpe":263,"ops":264,"correto":265,"seria":266,"mandei":267,"tarde":268,"ao":269,"2kk":270,"alguns":271,"erros":272,"ortograficos":273,"passaram":274,"despercebidos":275,"acabei":276,"mandando":277,"poderiam":278,"ressarcir":279,"mim":280,"diretamente":281,"playerr":282,"sempre":283,"ando":284,"mochilas":285,"inv":286,"uso":287,"elas":288,"mt":289,"estranhei":290,"costumo":291,"guardar":292,"nenhum":293,"lugar":294,"aqui":295,"ver":296,"haviam":297,"3":298,"tenho":299,"uma":300,"print":301,"pouco":302,"antes":303,"off":304,"desloga":305,"seu":306,"inventario":307,"salvo":308,"ninguem":309,"mexer":310,"qualquer":311,"coisa":312,"nada":313,"sumir":314,"consegue":315,"provar":316,"tais":317,"loguei":318,"normalmente":319,"joguei":320,"fechei":321,"ir":322,"mercado":323,"fui":324,"deparo":325,"algo":326,"nunca":327,"ocorreu":328,"deixou":329,"bastante":330,"surpreso":331,"nem":332,"imaginava":333,"poderia":334,"acontecer":335,"entendo":336,"todos":337,"nos":338,"enganamos":339,"vezes":340,"fechar":341,"havia":342,"unidades":343,"mochila":344,"terra":345,"porem":346,"sumido":347,"ok":348,"duvidas":349,"encerrar":350,"tikcket":351,"obgg":352,"the":353,"boy":354,"farmar":355,"msm":356,"eta":357,"permitiu":358,"farm":359,"use":360,"apenas":361,"mesmo":362,"itens":363,"etc":364,"deixa":365,"caso":366,"voltar":367,"falar":368,"pegou":369,"permissao":370,"dele":371,"ban":372,"hm":373,"realmente":374,"usar":375,"problema":376,"podemos":377,"pessoa":378,"deixar":379,"kskks":380,"supostamente":381,"alt":382,"daily":383,"ahhh":384,"vimax99":385,"bom":386,"dia":387,"player":388,"amigo":389,"banido":390,"(nao":391,"motivo":392,"exato)":393,"trust":394,"(pois":395,"construi":396,"ele)":397,"autorizou":398,"forma":399,"posse":400,"(ele":401,"estando":402,"ciente":403,"acordo)":404,"algum":405,"canal":406,"comandos":407,"comando":408,"slash":409,"logada":410,"recebi":411,"os":412,"cargos":413,"membro":414,"vip":415,"agr":416,"puxar":417,"-bal":418,"ratoto_132":419,"outro":420,"cara":421,"botei":422,"m":423,"maiusculo":424,"pay":425,"ratoto":426,"pronto":427,"-mcuser":428,"setar":429,"xp":430,"criei":431,"id":432,"973754017236779068":433,"roubaram":434,"qr":435,"abrir":436,"denuncia":437,"dx":438,"ladrao":439,"n":440,"pagar":441,"pagou":442,"cria":443,"-money":444,"cebotarov":445,"trabalhando":446,"cobtratou":447,"deu":448,"terreno":449,"trabalhei":450,"devia":451,"desprotegido":452,"tirar":453,"perm":454,"tbm":455,"estranho":456,"depois":457,"dois":458,"sumirem":459,"aq":460,"ficou":461,"on":462,"uns":463,"10min":464,"dps":465,"terminei":466,"si":467,"cebo":468,"v":469,"final":470,"vou":471,"coordenada":472,"saiu":473,"game":474,"amg":475,"entrou":476,"sv":477,"tirou":478,"area":479,"sairam":480,"2":481,"ate":482,"sinal":483,"deles":484,"oioi":485,"andares":486,"pro":487,"cobrei":488,"520k":489,"simplesmente":490,"carente":491,"enchendo":492,"saco":493,"abertamente":494,"<#320541695697616896>":495,"irritar":496,"provocar":497,"indiretas":498,"falando":499,"merda":500,"sentiu":501,"incomodado":502,"fato":503,"estou":504,"catalogando":505,"/lojas":506,"decidi":507,"suporte":508,"voces":509,"resolva":510,"255141045715599360":511,"''":512,"respeite":513,"membros":514,"irrite":515,"provoque":516,"nesse":517,"serao":518,"toleradas":519,"pessoas":520,"toxicas":521,"causam":522,"desordem":523,"conversar":524,"divertir":525,"ter":526,"aturar":527,"gente":528,"temos":529,"sentimentos":530,"limite":531,"paciencia":532,":nb::nde:":533,"regra":534,"inclui":535,"tentam":536,"provocar/iniciar":537,"brigas":538,"discussoes":539,"(qualquer":540,"motivo)":541,"contam":542,"spoilers":543,"usam":544,"contas":545,"fakes":546,"evasao":547,"denuncie":548,"mesmo''":549,"pressionei":550,"dizer":551,"quieto":552,"''era":553,"irmao":554,"vender''":555,"desconectou":556,"kkkkkkkkkk":557,"dai":558,"pulga":559,"cocou":560,"scam":561,"desse":562,"tu":563,"investe":564,"50m":565,"pagando":566,"levantar":567,"andar":568,"tal":569,"vender":570,"6m":571,"dinheiro":572,"primeiro":573,"/claim":574,"abobora":575,"35":576,"cavado":577,"baixo":578,"desvincilhando":579,"pergunta":580,"kkkkkkkk":581,"historico":582,"quem/onde":583,"dei":584,"tpa":585,"confirmar":586,"marcim":587,"acaso":588,"grana":589,"negocio":590,"souza1tzzzz":591,"das":592,"duas":593,"verificar":594,"criar":595,"contra":596,"carinha":597,"quer":598,"envie":599,"''claim/posse''":600,"for":601,"mom1ntzada7":602,"estava":603,"hackead":604,"perguntar":605,"porq":606,"sai":607,"daquela":608,"avisar":609,"desativei":610,"aquela":611,"vim":612,"sido":613,"hackeda":614,"tbom":615,"https://bitly/sparklypower-unban":616,"faca":617,"formulario":618,"unban":619,"alguem":620,"responde":621,"abri":622,"querer":623,"banida":624,"pedir":625,"passou":626,"mes":627,"comprir":628,"aquele":629,"mod":630,"construir":631,"constroe":632,"sozinho":633,"schematic":634,"podem":635,"ticket":636,":)":637,"-unban":638,"guisenpaii22":639,"legal":640,"fosse":641,"call":642,"^^":643,"gosto":644,"conhecer":645,"jogar":646,"regras":647,"juntos":648,"claro":649,"te":650,"desbanir":651,"peco":652,"pelo":653,"vi":654,"respeitou":655,"evadiu":656,"baniu":657,"-checkban":658,"(de":659,"acordo":660,"data":661,"falaram)":662,"deveria":663,"durar":664,"meses":665,"viro":666,"eterno":667,"ping":668,"assim":669,"dar":670,"colher":671,"ia":672,"resolver":673,"grande":674,"parte":675,"dos":676,"problemas":677,"ain":678,"quebrei":679,"elevador":680,"testei":681,"quebrar":682,"plantacao":683,"crescendo":684,"crescida":685,"descobri":686,"recentemente":687,"/containertrust":688,"(nick)":689,"acesso":690,"aos":691,"jogadores":692,"principal":693,"farms":694,"pedi":695,"testar":696,"funcionava":697,"conseguiu":698,"(podia":699,"cheio":700,"sla)":701,"muitos":702,"amigos":703,"teste":704,"enfim":705,"funciona":706,"esteja":707,"otimo":708,"quem":709,"aluga":710,"(colher)":711,"blocos":712,"resposta":713,"esclarecer":714,"perguntei":715,"zum":716,"podia":717,"falou":718,"compra":719,"pensando":720,"montar":721,"lojinha":722,"competir":723,"lojas":724,"10%":725,"resto":726,"precisa":727,"herbalismo":728,"duvida":729,"ruim":730,"chamada":731,"alison00007":732,"cheguei":733,"conectar":734,"(nem":735,"nela)":736,"xxalisonkkjxx":737,"achar":738,"curto":739,"gostei":740,"numero":741,"xbox":742,"nojentinho":743,"dittom":744,"averiguar":745,"dia/boa":746,"klapa":747,"este":748,"meio":749,"desbanido":750,"gostava":751,"muito":752,"permanentemente":753,"aprendi":754,"(e":755,"cometi)":756,"nocao":757,"durante":758,"desda":759,"cresci":760,"prometo":761,"farei":762,"bug/xray":763,"3º":764,"oportunidade":765,"players":766,"frequentam":767,"quiserem":768,"cometi":769,"demasiados":770,"<:lori_hug:543220309336260619>":771,"abusei":772,"bug":773,"apanhei":774,"kamiao":775,"dupou":776,"outras":777,"palavras":778,"aproveitei-me":779,"deem":780,"meus":781,"comprimentos-":782,"(alex)":783,"aguardo":784,"provavelmente":785,"corretamente":786,"parado":787,"in-game":788,"morreu":789,"ghast":790,"tela":791,"morte":792,"apareceu":793,"sentido":794,"morrido":795,"minerando":796,"pc":797,"desligou":798,"liguei":799,"morri":800,"bau":801,"seja":802,"picaretas":803,"monstras":804,"(eram":805,"5)":806,"minerios":807,"pa":808,"queimou":809,"lava":810,"desligado":811,"voltei":812,"cai":813,"nether":814,"man":815,"donada":816,"estiver":817,"entrando":818,"sla":819,"presiso":820,"nivel":821,"estarei":822,"fechando":823,"explicado":824,"resumo":825,"ler":826,"acontece":827,"identifica":828,"camadas":829,"superiores":830,"protegida":831,"dropares":832,"item":833,"comsegue":834,"tipo":835,"+250":836,"altura":837,"voa":838,"alto":839,"jetpack":840,"drop":841,"/spawn":842,"encontrei":843,"teria":844,"retirar":845,"pesadelos":846,"1":847,"tumulo":848,"fiquei":849,"onde":850,"comprar":851,"link":852},"weights":[0.10397200764600306,0.3651518046477015,0.19293854538261906,0.6166283209794545,0.9322234680639898,0.014311328726443088,0.3307764911132937,0.2905998399281788,0.17243767757519463,0.043883985637294884,0.06981234599363005,0.056815598489135574,0.26345343475864447,0.04443815443369027,0.09287245825020883,0.1839356382727511,0.1884660851291433,0.15737492110927434,0.014668373669862792,0.014928792089867828,0.05993894037409613,1.8182914567150696E-26,0.10984468120115061,-0.16025018181306483,1.0160067575436602E-26,1.0160067575436602E-26,0.03993519543636065,0.03993519543636065,0.03993519543636065,-0.010391906833168162,0.03993519543636065,0.025318079178826034,0.03993519543636065,0.07864290191208295,0.03993519543636065,-0.24150547406103012,-0.004061626959703173,0.03993519543636065,0.03993519543636065,-0.029017965645517618,-0.048133941529743166,0.16927515208968524,0.03993519543636065,-0.02261777702522666,-0.053762577578067,0.23428899833011277,0.1210994350449549,0.02808983650221335,0.02808983650221335,0.02808983650221335,0.06370802182167655,0.0557750630954101,-0.040565395528349854,0.23876742910874066,-0.0015291193387362897,0.024451715175464128,0.18979871172838625,0.11726518890609688,1.6272876285512154E-28,-0.0015291193387362897,-0.17337145334005422,-0.17337145334005422,-0.17337145334005422,-0.17337145334005422,-0.1582461795458062,-0.28419988789907025,-0.14209994394953512,-0.14209994394953512,-0.14209994394953512,-0.1734408227315139,-0.7136428349959877,-0.17347551783508092,-0.17351021987905674,-0.1735449288648297,-0.13108056957577033,-3.209731513001499E-27,-0.023697701956721925,-9.654321322866708E-27,-3.209731513001499E-27,-1.6668742162691582E-26,-0.014617116257534748,-1.0200793315622101E-26,-1.0200793315622101E-26,-1.2966400192652604E-26,-6.470564760855947E-27,-9.795175066308092E-27,-6.4381284791574095E-27,-3.2116581225017184E-27,-3.2116581225017184E-27,-3.2116581225017184E-27,-0.018412386068053174,-0.0689531610818786,-0.046406736865316364,-0.019671345685497468,-3.2123005826182422E-27,-0.03251343698997789,-0.13537217490084666,-0.08103247930926392,-6.4400531541727616E-27,-3.213585888430179E-27,-3.2142287341770144E-27,-3.2142287341770144E-27,-0.014617116257534748,-3.2142287341770144E-27,-3.2142287341770144E-27,-3.2142287341770144E-27,-0.0494753984569169,-6.616292055861839E-27,-0.0494753984569169,-6.616292055861839E-27,-0.09551908022888893,-0.09551908022888893,-0.09551908022888893,-0.09551908022888893,-0.09551908022888893,-3.2161580430896322E-27,-6.434890299591954E-27,-3.2161580430896322E-27,-3.2161580430896322E-27,-1.403112305031972E-26,-2.378937929408316E-26,-0.035305899526019514,-1.4033929836286978E-26,-1.4033929836286978E-26,-3.218732256502087E-27,-6.459428682370881E-27,-0.010079078230561261,-6.438108388230487E-27,-7.174485189980491E-27,-0.019941505406789423,-1.6763145813742268E-26,-1.0231444714919182E-26,-6.62821329962684E-27,-6.62821329962684E-27,-6.62821329962684E-27,-6.62821329962684E-27,-6.62821329962684E-27,-0.04011608708120615,-0.04011608708120615,-0.05852847314925939,-0.0494753984569169,-1.0237586038113626E-26,-0.0494753984569169,-0.0494753984569169,-0.0494753984569169,-0.0494753984569169,-0.0494753984569169,-0.09741125466096914,-0.0494753984569169,-0.0494753984569169,-0.0494753984569169,-0.061083596026214354,-0.028838094650549394,-6.447128954983978E-27,-3.2232420888053874E-27,-9.67424099809929E-27,-0.061314316139585295,-6.447773732357246E-27,-3.223886866178623E-27,-3.223886866178623E-27,-3.223886866178623E-27,-3.223886866178623E-27,-6.4503541319211715E-27,-3.223886866178623E-27,-3.223886866178623E-27,-3.223886866178623E-27,-3.223886866178623E-27,-0.004583374482525945,-0.0689531610818786,-0.07644154591191554,-0.0689531610818786,-0.0689531610818786,-0.0689531610818786,-6.485370942268056E-27,-3.2258219722891666E-27,-3.2258219722891666E-27,-3.2258219722891666E-27,-3.2258219722891666E-27,-3.2258219722891666E-27,-3.2258219722891666E-27,-3.226467265742315E-27,-3.226467265742315E-27,-3.227112688279971E-27,-9.740390085312374E-27,-3.227112688279971E-27,-3.227112688279971E-27,-3.227112688279971E-27,-0.046406736865316364,-0.046406736865316364,-1.7317246133997483E-26,-6.501664316931978E-27,-3.2290497306582305E-27,-0.022359374188286672,-0.022359374188286672,-3.229695669792189E-27,-0.006403839387530363,-1.026834799238358E-26,-9.951023410924047E-27,-0.050327102269529085,-6.653450955188338E-27,-6.653450955188338E-27,-6.653450955188338E-27,-6.510773933211022E-27,-6.48726049238125E-27,-0.050327102269529085,-1.0276566779760195E-26,-9.799747606457767E-27,-0.13104368445558828,-0.0015291193387362897,-9.788092010840906E-27,-9.761794909065398E-27,-0.014617116257534748,-0.051856221608265196,-3.2387523968707645E-27,-0.018412386068053174,-3.2394002769261495E-27,-6.483339344546233E-27,-0.046406736865316364,-0.046406736865316364,-3.2413446948076015E-27,-0.019671345685497468,-3.2413446948076015E-27,-0.046406736865316364,-0.046406736865316364,-0.046406736865316364,-0.046406736865316364,-0.053895121695353265,-0.046406736865316364,-0.046406736865316364,-0.046406736865316364,-0.046406736865316364,-0.046406736865316364,-0.06255297246158743,-0.26867188743491277,-0.046406736865316364,-6.534943092046532E-27,-3.243290279806598E-27,-3.243290279806598E-27,-3.243290279806598E-27,-3.243290279806598E-27,-3.243290279806598E-27,-1.0474288503404898E-26,-3.243290279806598E-27,-3.243939067620122E-27,-3.243939067620122E-27,-3.243939067620122E-27,-3.244587985217166E-27,-3.244587985217166E-27,-3.244587985217166E-27,-3.244587985217166E-27,-3.244587985217166E-27,-3.244587985217166E-27,-1.2998495019405197E-26,-3.245886209865663E-27,-3.245886209865663E-27,-0.023697701956721925,-0.023697701956721925,-0.038314818214256675,-0.023697701956721925,-6.498918825859347E-27,-3.248484217707564E-27,-3.248484217707564E-27,-3.248484217707564E-27,-3.249134044516467E-27,-6.500218089451054E-27,-3.253035736098752E-27,-3.253035736098752E-27,-6.57111715843899E-27,-3.254988338529309E-27,0.0,0.0,0.0,0.0,0.0,0.0,0.0,-0.018412386068053174,0.0,0.0,0.0,-0.0015291193387362897,0.0,0.0,-3.2562907245675065E-27,-3.2562907245675065E-27,-9.774737015520995E-27,-3.2562907245675065E-27,-3.2562907245675065E-27,-6.513884356283807E-27,-3.2562907245675065E-27,-3.2569421129901045E-27,-3.257593631716448E-27,-3.257593631716448E-27,-0.029455198312505478,-3.257593631716448E-27,-6.565737594903821E-27,-0.014617116257534748,-6.51844629095303E-27,-0.006403839387530363,-0.00901750416877319,-0.00901750416877319,-0.007488384830036907,-0.007488384830036907,-0.007488384830036907,-0.007488384830036907,-3.259548969978635E-27,-3.259548969978635E-27,-3.259548969978635E-27,-3.259548969978635E-27,-3.259548969978635E-27,-3.259548969978635E-27,-3.259548969978635E-27,-0.014617116257534748,-3.259548969978635E-27,-3.259548969978635E-27,-3.260201010180671E-27,-3.260201010180671E-27,-3.260201010180671E-27,0.0,0.0,0.0,0.0,0.0,0.0,0.0,0.0,0.0,0.0,0.0,0.0,0.0,0.0,0.0,0.0,-3.272614586273767E-27,0.0,0.0,0.0,0.0,0.0,0.0,0.0,0.0,0.0,-0.018412386068053174,0.0,0.0,0.0,-3.262810475591034E-27,-3.263463168224679E-27,-3.263463168224679E-27,-3.263463168224679E-27,-3.264115991422964E-27,-3.264115991422964E-27,-3.264115991422964E-27,-6.535420355421567E-27,-6.553131421037514E-27,-6.53084405923586E-27,0.0,-0.006116477354945159,-3.266728590384941E-27,-3.266728590384941E-27,-3.266728590384941E-27,-0.022857333782389164,-3.266728590384941E-27,-3.266728590384941E-27,-3.26868941181545E-27,0.0,0.0,0.0,-3.26868941181545E-27,-0.029455198312505478,-3.2706514102095714E-27,-3.268035673933087E-27,-3.26868941181545E-27,-0.021200465024233613,-3.26868941181545E-27,0.0,0.0,-0.006403839387530363,0.0,-3.2706514102095714E-27,-3.2706514102095714E-27,-3.2706514102095714E-27,-3.27130567134384E-27,-3.2719600633565116E-27,-3.273269240121791E-27,-3.273269240121791E-27,-0.0015291193387362897,-0.0015291193387362897,-0.0015291193387362897,-0.0015291193387362897,-0.0015291193387362897,-0.0015291193387362897,-0.0015291193387362897,-0.0015291193387362897,-0.0015291193387362897,-0.0015291193387362897,-0.0015291193387362897,-0.0015291193387362897,-0.0015291193387362897,-0.0015291193387362897,-0.0015291193387362897,-0.0015291193387362897,-0.0015291193387362897,0.0,0.0,0.0,-0.019671345685497468,-0.019671345685497468,-3.275889165345491E-27,0.0,-0.04786758438055852,-3.283761529663064E-27,0.0,-0.006403839387530363,-0.029455198312505478,-3.279167020961952E-27,-3.2798229855590634E-27,-3.2798229855590634E-27,-3.2804790813753386E-27,-0.014617116257534748,0.0,0.0,0.0,0.0,0.0,-3.28244815640166E-27,-3.2831047773571315E-27,-3.283761529663064E-27,-3.283761529663064E-27,-3.284418413345733E-27,0.0,-3.285732574946409E-27,-0.1719380483000694,0.0,0.0,-3.289678215524378E-27,-3.288362475825297E-27,-3.288362475825297E-27,-0.06327434367875374,-3.288362475825297E-27,0.0,-3.289678215524378E-27,-3.290336282780934E-27,-6.587260482661836E-27,-3.29099448167727E-27,0.0,-3.955109058252182E-27,0.0,0.0,0.0,0.0,-0.04865722742121884,-0.07811242573372412,-3.298243365297461E-27,0.0,0.0,0.0,0.0,0.0,0.0,0.0,0.0,0.0,0.0,0.0,-0.014617116257534748,-0.014617116257534748,-0.014617116257534748,-0.014617116257534748,-0.014617116257534748,-3.298243365297461E-27,-0.029455198312505478,-0.029455198312505478,-0.029455198312505478,-0.029455198312505478,-0.029455198312505478,-0.029455198312505478,-0.029455198312505478,-0.029455198312505478,-0.029455198312505478,-0.029455198312505478,-0.029455198312505478,-0.029455198312505478,0.0,0.0,0.0,0.0,0.0,0.0,0.0,0.0,0.0,0.0,0.0,0.0,0.0,0.0,0.0,0.0,0.0,0.0,0.0,0.0,0.0,0.0,0.0,0.0,0.0,0.0,-3.301543588532655E-27,0.0,0.0,0.0,0.0,0.0,0.0,0.0,0.0,0.0,0.0,0.0,0.0,0.0,0.0,0.0,0.0,0.0,0.0,0.0,0.0,0.0,0.0,0.0,0.0,0.0,0.0,0.0,0.0,0.0,0.0,0.0,0.0,0.0,0.0,0.0,0.0,0.0,0.0,0.0,0.0,0.0,0.0,0.0,0.0,0.0,0.0,0.0,0.0,0.0,0.0,0.0,0.0,0.0,0.0,0.0,0.0,0.0,0.0,0.0,0.0,0.0,0.0,0.0,0.0,0.0,0.0,0.0,0.0,0.0,0.0,0.0,0.0,0.0,0.0,-3.3074923141311264E-27,0.0,0.0,0.0,0.0,0.0,-0.018412386068053174,0.0,0.0,0.0,0.0,0.0,0.0,0.0,0.0,0.0,-0.050327102269529085,0.0,0.0,0.0,0.0,0.0,0.0,-0.050327102269529085,0.0,0.0,-0.050327102269529085,-0.050327102269529085,-0.050327102269529085,-3.318094303906373E-27,-3.3187580555174765E-27,0.0,0.0,0.0,0.0,0.0,0.0,0.0,0.0,0.0,0.0,-0.006403839387530363,0.0,-0.004583374482525945,-0.00916674896505189,-0.004583374482525945,-0.004583374482525945,-0.004583374482525945,0.0,0.0,0.0,0.0,0.0,0.0,0.0,0.0,0.0,0.0,0.0,0.0,0.0,0.0,0.0,0.0,0.0,0.0,0.0,0.0,0.0,0.0,0.0,0.0,0.0,0.0,0.0,0.0,0.0,0.0,0.0,-0.006403839387530363,0.0,0.0,0.0,0.0,0.0,0.0,0.0,0.0,0.0,0.0,0.0,0.0,0.0,0.0,0.0,0.0,0.0,0.0,0.0,0.0,0.0,0.0,0.0,0.0,0.0,0.0,0.0,0.0,0.0,0.0,0.0,0.0,0.0,0.0,0.0,0.0,0.0,0.0,0.0,0.0,0.0,0.0,0.0,0.0,0.0,0.0,0.0,-3.955109058252182E-27,0.0,0.0,0.0,0.0,0.0,-0.02608538134656906,0.0,0.0,0.0,0.0,0.0,0.0,-0.018412386068053174,0.0,0.0,0.0,0.0,0.0,0.0,0.0,0.0,0.0,0.0,0.0,-0.018412386068053174,0.0,0.0,0.0,0.0,0.0,0.0,0.0,0.0,0.0,0.0,0.0,0.0,0.0,0.0,0.0,0.0,0.0,0.0,0.0,0.0,0.0,0.0,0.0,0.0,0.0,0.0,0.0,0.0,0.0,0.0,0.0,0.0,0.0,0.0,0.0,0.0,0.0,0.0,0.0,0.0,0.0,0.0,-0.004444947714336037,0.0,0.0,0.0,0.0,0.0,0.0,0.0,-0.06980231249967112,0.0,0.0,-0.010079078230561261,0.0,0.0,0.0,0.0,0.0,0.0,0.0,0.0,-0.018412386068053174,-0.018412386068053174,-0.018412386068053174,-0.018412386068053174,-0.018412386068053174,-0.018412386068053174,-0.018412386068053174,-0.018412386068053174,-0.018412386068053174,-0.018412386068053174,0.0,0.0,0.0,0.0,-0.004444947714336037,-0.004444947714336037,0.0,0.0,0.0,0.0,0.0,0.0,0.0,0.0,0.0,0.0,0.0,0.0,0.0,0.0,0.0,0.0,0.0,0.0,0.0,0.0,0.0,0.0,0.0,0.0,0.0,0.0,0.0,-0.006403839387530363,-0.006403839387530363,-0.052760152668407875,-0.006403839387530363,0.0,0.0,0.0,-0.02027093193430867,0.0],"bias":-1.2300000000000009}