{"vocabulary":{"eu":0,"esqueci":1,"a":2,"minha":3,"senha":4,"nao":5,"lembro":6,"como":7,"troca":8,"trocar":9,"alterar":10,"altera":11,"mudar":12,"muda":13,"quero":14,"queria":15,"recuperar":16,"redefinir":17,"redefine":18,"recupera":19,"ou":20,"troco":21,"da":22,"conta":23,"hey":24,"posso":25,"oieee":26,"td":27,"bem":28,"sou":29,"nova":30,"em":31,"servidores":32,"de":33,"minecraft":34,"e":35,"entrei":36,"pela":37,"primeira":38,"vez":39,"no":40,"sparklypower":41,"ontem":42,"mas":43,"que":44,"faco":45,"pra":46,"oi":47,"registrar":48,"novamente":49,"rapaz":50,"para":51,"antiga":52,"perdi":53,"sei":54,"login":55,"do":56,"mine":57,"gostaria":58,"saber":59,"faz":60,"algumas":61,"perguntas":62,"sobre":63,"se":64,"ta":65,"indo":66,"ela":67,"incorreta":68,"resetei":69,"sua":70,"troquei":71,"mudei":72,"redefini":73,"ola":74,"boa":75,"tarde":76,"atualmente":77,"jogo":78,"pelo":79,"original":80,"pc":81,"eventualmente":82,"comprei":83,"o":84,"iphone":85,"consiguirei":86,"jogar":87,"ambos":88,"atraves":89,"normalmente":90,"enviei":91,"pesadelos":92,"errado":93,"pessoa":94,"errada":95,"mandei":96,"dei":97,"estava":98,"acontecendo":99,"uma":100,"rifa":101,"meus":102,"sairam":103,"devolvi":104,"os":105,"dono":106,"plugin":107,"ainda":108,"atualizou":109,"pois":110,"era":111,"estar":112,"funcionando":113,"entao":114,"porque":115,"la":116,"<#760262410098442270>":117,"mypet":118,"esta":119,"disponivel":120,"fez":121,"isso":122,"hoje":123,"voce":124,"matou":125,"ele":126,"meu":127,"bichinho":128,"consigo":129,"chamar":130,"matei":131,"sniffer":132,"com":133,"laco":134,"kit":135,"noob":136,"por":137,"favor":138,"me":139,"ajudem":140,"tava":141,"querendo":142,"completar":143,"loja":144,";--;":145,"pior":146,"to":147,"triste":148,"agora":149,"https://discordcom/channels/320248230917046282/332866197701918731/1253826917350506538":150,"essa":151,"foi":152,"ultima":153,"atualizacao":154,"conseguindo":155,"entrar":156,"causa":157,"versao":158,"power":159,"na":160,"ah":161,"certoobrigada":162,"/warp":163,"reparar":164,"clica":165,"placa":166,"[reparar]":167,"repara":168,"pic":169,"monstra":170,"certo":171,"obg":172,"vai":173,"possibilitar":174,"logar":175,"sem":176,"colocar":177,"um":178,"periodo":179,"infelizmente":180,"recordo":181,"qual":182,"pode":183,"utilizar":184,"/lembrar":185,"/premium":186,"so":187,"ser":188,"utilizado":189,"java":190,"portanto":191,"console":192,"celular":193,"bedrock":194,"geral":195,"possivel":196,"ajudar":197,"logotenho":198,"ficar":199,"colocando":200,"toda":201,"cansativo":202,"quando":203,"mandoele":204,"diz":205,"parece":206,"oficial":207,"obtido":208,"legalmente":209,"ajudatenho":210,"mandar":211,"espero":212,"tenha":213,"feito":214,"certopois":215,"achei":216,"noite":217,"m_eeow03":218,"nickname":219,"=":220,"as":221,"coisas":222,"estao":223,"<@&332650495522897920>":224,"🤡":225,"":226,"cnt":227,"tou":228,"usando":229,"ag":230,"registrei":231,"esse":232,"discord":233,"foxy_zn8833":234,"ai":235,"tem":236,"passar":237,"nick":238,"p":239,"acho":240,"tinha":241,"transferir":242,"tudo":243,"li":244,"consegui":245,"microsoft":246,"usa":247,"/changepass":248,"<#830658622383980545>":249,"staff":250,"mais":251,"tempo":252,"tentei":253,"retornar":254,"conectada":255,"fazer":256,"vinculada":257,"alguma":258,"outra":259,"resolucao":260,"entendi":261,"obrigado":262,"atencao":263,"irei":264,"notificalo":265,"valor":266,"ja":267,"debitado":268,"/transactions":269,"mostra":270,"digitou":271,"chequei":272,"transacoes":273,"usuario":274,"tambem":275,"consta":276,"recebido":277,"sc0refl":278,"disse":279,"chegou":280,"economia":281,"liga":282,"nome":283,"escrito":284,"mandou":285,"caps":286,"lock":287,"ligado":288,"desculpe":289,"ops":290,"correto":291,"seria":292,"ao":293,"2kk":294,"alguns":295,"erros":296,"ortograficos":297,"passaram":298,"despercebidos":299,"acabei":300,"mandando":301,"poderiam":302,"ressarcir":303,"mim":304,"diretamente":305,"playerr":306,"sempre":307,"ando":308,"mochilas":309,"inv":310,"uso":311,"elas":312,"mt":313,"estranhei":314,"costumo":315,"guardar":316,"nenhum":317,"lugar":318,"aqui":319,"ver":320,"haviam":321,"3":322,"tenho":323,"print":324,"pouco":325,"antes":326,"off":327,"desloga":328,"seu":329,"inventario":330,"salvo":331,"ninguem":332,"mexer":333,"qualquer":334,"coisa":335,"nada":336,"sumir":337,"consegue":338,"provar":339,"tais":340,"loguei":341,"joguei":342,"fechei":343,"ir":344,"mercado":345,"fui":346,"deparo":347,"algo":348,"nunca":349,"ocorreu":350,"deixou":351,"bastante":352,"surpreso":353,"nem":354,"imaginava":355,"poderia":356,"acontecer":357,"entendo":358,"todos":359,"nos":360,"enganamos":361,"vezes":362,"fechar":363,"havia":364,"unidades":365,"mochila":366,"terra":367,"porem":368,"sumido":369,"ok":370,"duvidas":371,"encerrar":372,"tikcket":373,"obgg":374,"the":375,"boy":376,"farmar":377,"msm":378,"eta":379,"permitiu":380,"farm":381,"use":382,"apenas":383,"mesmo":384,"itens":385,"etc":386,"deixa":387,"caso":388,"voltar":389,"falar":390,"pegou":391,"permissao":392,"dele":393,"ban":394,"hm":395,"realmente":396,"usar":397,"problema":398,"podemos":399,"deixar":400,"kskks":401,"supostamente":402,"alt":403,"daily":404,"ahhh":405,"vimax99":406,"bom":407,"dia":408,"player":409,"amigo":410,"banido":411,"(nao":412,"motivo":413,"exato)":414,"trust":415,"(pois":416,"construi":417,"ele)":418,"autorizou":419,"forma":420,"posse":421,"(ele":422,"estando":423,"ciente":424,"acordo)":425,"algum":426,"canal":427,"comandos":428,"comando":429,"slash":430,"logada":431,"recebi":432,"cargos":433,"membro":434,"vip":435,"agr":436,"puxar":437,"-bal":438,"ratoto_132":439,"outro":440,"cara":441,"botei":442,"m":443,"maiusculo":444,"pay":445,"ratoto":446,"pronto":447,"-mcuser":448,"setar":449,"xp":450,"criei":451,"id":452,"973754017236779068":453,"roubaram":454,"qr":455,"abrir":456,"denuncia":457,"dx":458,"ladrao":459,"n":460,"pagar":461,"pagou":462,"cria":463,"-money":464,"cebotarov":465,"trabalhando":466,"cobtratou":467,"deu":468,"terreno":469,"trabalhei":470,"devia":471,"desprotegido":472,"tirar":473,"perm":474,"tbm":475,"estranho":476,"depois":477,"dois":478,"sumirem":479,"aq":480,"ficou":481,"on":482,"uns":483,"10min":484,"dps":485,"terminei":486,"si":487,"cebo":488,"v":489,"final":490,"vou":491,"coordenada":492,"saiu":493,"game":494,"amg":495,"entrou":496,"sv":497,"tirou":498,"area":499,"2":500,"ate":501,"sinal":502,"deles":503,"oioi":504,"andares":505,"pro":506,"cobrei":507,"520k":508,"simplesmente":509,"carente":510,"enchendo":511,"saco":512,"abertamente":513,"<#320541695697616896>":514,"irritar":515,"provocar":516,"indiretas":517,"falando":518,"merda":519,"sentiu":520,"incomodado":521,"fato":522,"estou":523,"catalogando":524,"/lojas":525,"decidi":526,"suporte":527,"voces":528,"resolva":529,"255141045715599360":530,"''":531,"respeite":532,"membros":533,"irrite":534,"provoque":535,"nesse":536,"serao":537,"toleradas":538,"pessoas":539,"toxicas":540,"causam":541,"desordem":542,"conversar":543,"divertir":544,"ter":545,"aturar":546,"gente":547,"temos":548,"sentimentos":549,"limite":550,"paciencia":551,":nb::nde:":552,"regra":553,"inclui":554,"tentam":555,"provocar/iniciar":556,"brigas":557,"discussoes":558,"(qualquer":559,"motivo)":560,"contam":561,"spoilers":562,"usam":563,"contas":564,"fakes":565,"evasao":566,"denuncie":567,"mesmo''":568,"pressionei":569,"dizer":570,"quieto":571,"''era":572,"irmao":573,"vender''":574,"desconectou":575,"kkkkkkkkkk":576,"dai":577,"pulga":578,"cocou":579,"scam":580,"desse":581,"tu":582,"investe":583,"50m":584,"pagando":585,"levantar":586,"andar":587,"tal":588,"vender":589,"6m":590,"dinheiro":591,"primeiro":592,"/claim":593,"abobora":594,"35":595,"cavado":596,"baixo":597,"desvincilhando":598,"pergunta":599,"kkkkkkkk":600,"historico":601,"quem/onde":602,"tpa":603,"confirmar":604,"marcim":605,"acaso":606,"grana":607,"negocio":608,"souza1tzzzz":609,"das":610,"duas":611,"verificar":612,"criar":613,"contra":614,"carinha":615,"quer":616,"envie":617,"''claim/posse''":618,"for":619,"mom1ntzada7":620,"hackead":621,"perguntar":622,"porq":623,"sai":624,"daquela":625,"avisar":626,"desativei":627,"aquela":628,"vim":629,"sido":630,"hackeda":631,"tbom":632,"https://bitly/sparklypower-unban":633,"faca":634,"formulario":635,"unban":636,"alguem":637,"responde":638,"abri":639,"querer":640,"banida":641,"pedir":642,"passou":643,"mes":644,"comprir":645,"aquele":646,"mod":647,"construir":648,"constroe":649,"sozinho":650,"schematic":651,"podem":652,"ticket":653,":)":654,"-unban":655,"guisenpaii22":656,"legal":657,"fosse":658,"call":659,"^^":660,"gosto":661,"conhecer":662,"regras":663,"juntos":664,"claro":665,"te":666,"desbanir":667,"peco":668,"vi":669,"respeitou":670,"evadiu":671,"baniu":672,"-checkban":673,"(de":674,"acordo":675,"data":676,"falaram)":677,"deveria":678,"durar":679,"meses":680,"viro":681,"eterno":682,"ping":683,"assim":684,"dar":685,"colher":686,"ia":687,"resolver":688,"grande":689,"parte":690,"dos":691,"problemas":692,"ain":693,"quebrei":694,"elevador":695,"testei":696,"quebrar":697,"plantacao":698,"crescendo":699,"crescida":700,"descobri":701,"recentemente":702,"/containertrust":703,"(nick)":704,"acesso":705,"aos":706,"jogadores":707,"principal":708,"farms":709,"pedi":710,"testar":711,"funcionava":712,"conseguiu":713,"(podia":714,"cheio":715,"sla)":716,"muitos":717,"amigos":718,"teste":719,"enfim":720,"funciona":721,"esteja":722,"otimo":723,"quem":724,"aluga":725,"(colher)":726,"blocos":727,"resposta":728,"esclarecer":729,"perguntei":730,"zum":731,"podia":732,"falou":733,"compra":734,"pensando":735,"montar":736,"lojinha":737,"competir":738,"lojas":739,"10%":740,"resto":741,"precisa":742,"herbalismo":743,"duvida":744,"ruim":745,"chamada":746,"alison00007":747,"cheguei":748,"conectar":749,"(nem":750,"nela)":751,"xxalisonkkjxx":752,"achar":753,"curto":754,"gostei":755,"numero":756,"xbox":757,"nojentinho":758,"dittom":759,"averiguar":760,"dia/boa":761,"klapa":762,"este":763,"meio":764,"desbanido":765,"gostava":766,"muito":767,"permanentemente":768,"aprendi":769,"(e":770,"cometi)":771,"nocao":772,"durante":773,"desda":774,"cresci":775,"prometo":776,"farei":777,"bug/xray":778,"3º":779,"oportunidade":780,"players":781,"frequentam":782,"quiserem":783,"cometi":784,"demasiados":785,"<:lori_hug:543220309336260619>":786,"abusei":787,"bug":788,"apanhei":789,"kamiao":790,"dupou":791,"outras":792,"palavras":793,"aproveitei-me":794,"deem":795,"comprimentos-":796,"(alex)":797,"aguardo":798,"provavelmente":799,"corretamente":800,"parado":801,"in-game":802,"morreu":803,"ghast":804,"tela":805,"morte":806,"apareceu":807,"sentido":808,"morrido":809,"minerando":810,"desligou":811,"liguei":812,"morri":813,"bau":814,"seja":815,"picaretas":816,"monstras":817,"(eram":818,"5)":819,"minerios":820,"pa":821,"queimou":822,"lava":823,"desligado":824,"voltei":825,"cai":826,"nether":827,"man":828,"donada":829,"estiver":830,"entrando":831,"sla":832,"presiso":833,"nivel":834,"estarei":835,"fechando":836,"explicado":837,"resumo":838,"ler":839,"acontece":840,"identifica":841,"camadas":842,"superiores":843,"protegida":844,"dropares":845,"item":846,"comsegue":847,"tipo":848,"+250":849,"altura":850,"voa":851,"alto":852,"jetpack":853,"drop":854,"/spawn":855,"encontrei":856,"teria":857,"retirar":858,"1":859,"tumulo":860,"fiquei":861,"onde":862,"comprar":863,"pega":864,"pego":865,"link":866,"ganha":867,"ganhar":868},"weights":[0.09189062003181177,0.34606424336109753,0.17086564253004302,0.5961921065770984,0.9169168161767056,0.008363879530288209,0.3200677897913125,0.28640233855437447,0.1640497720275709,0.058712549756281505,0.07564295780019242,0.056439305672210824,0.2441456209934491,0.05483147705538787,0.08661586572865891,0.17714419362925835,0.19696246171734208,0.14862660258382293,0.015127483378905033,0.012440737264724066,0.06179388996467547,1.3749902448440296E-27,0.09017725827680437,-0.152259458881828,6.194602099811589E-28,6.194602099811589E-28,0.03789762776867069,0.03789762776867069,0.03789762776867069,-0.013283202353601838,0.03789762776867069,-0.00848285510529329,0.03789762776867069,0.0954722430068169,0.03789762776867069,-0.23235128321209397,0.03699956453744962,0.03789762776867069,0.03789762776867069,-0.029394580205193196,-0.07155839925922422,0.12619333136130972,0.03789762776867069,-0.010537439450606043,-0.0722072243980777,0.23882735111589362,0.11849461401804708,0.028517591045435955,0.028517591045435955,0.028517591045435955,0.08129759585110267,0.045787160591753966,-0.02615836781950161,0.24325012635191917,8.526552192325347E-28,0.05484800460835218,0.19461961661660493,0.04995621181831701,1.0156435035707543E-29,2.0661729284510105E-28,-0.164938126031778,-0.164938126031778,-0.164938126031778,-0.164938126031778,-0.15909869536284696,-0.30114779656047636,-0.15057389828023818,-0.15057389828023818,-0.15057389828023818,-0.16500412108004517,-0.6790081042918796,-0.1650371285057463,-0.16507014253425317,-0.16510316316688656,-0.07326547518769433,-0.07326547518769433,-0.03785568579135581,-0.03785568579135581,-0.07326547518769433,-0.11356705737406804,-0.03785568579135581,-0.03785568579135581,-0.03785568579135581,-0.03785568579135581,-0.14844019799908148,-0.03785568579135581,-0.03785568579135581,-0.03785568579135581,-0.03785568579135581,-0.03785568579135581,-0.03785568579135581,-0.018745137752374377,-0.07816077557448538,-7.97013830287339E-28,-0.023614277502384862,-0.023614277502384862,-0.0020610946106362693,-0.0028080451393742664,-1.953245696229446E-28,-1.953245696229446E-28,-9.640207149873647E-4,-1.953245696229446E-28,-0.0053662054319113086,-0.024321795131353637,-4.027237806378967E-28,-0.04728346237690986,-1.9544181125824572E-28,-0.020241592241795413,-5.878554135033334E-28,-1.9544181125824572E-28,-1.0167752105281903E-27,-0.00852479708260813,-6.229392673421571E-28,-6.229392673421571E-28,-7.895291954751413E-28,-3.939952272029387E-28,-6.8293428786779725E-28,-3.9202016928300196E-28,-1.955591232666754E-28,-1.955591232666754E-28,-1.955591232666754E-28,-0.018461186505225866,-0.06729220797386419,-0.035409789396338376,-0.01879354900494718,-1.9559824291525843E-28,-0.024321795131353637,-0.11938287467872032,-0.07207692752541865,-0.002192876022719072,-1.956765056904744E-28,-1.9571564882023844E-28,-1.9571564882023844E-28,-0.00852479708260813,-1.9571564882023844E-28,-1.9571564882023844E-28,-1.9571564882023844E-28,-0.05563197078336555,-4.0344940887776455E-28,-0.05563197078336555,-4.0344940887776455E-28,-0.09411526904560603,-0.09411526904560603,-0.09411526904560603,-0.09411526904560603,-0.09411526904560603,-1.9583312519694827E-28,-3.9182299525866596E-28,-1.9583312519694827E-28,-1.9583312519694827E-28,-8.581302616036987E-28,-1.2183245250359593E-27,-0.023674973944958815,-6.243113797162588E-28,-6.243113797162588E-28,-1.9598987006170018E-28,-3.9331714701441614E-28,-0.0034333817031632873,-3.9201894593857584E-28,-4.69418231594659E-28,-0.018461186505225866,-1.2567067497942119E-27,-8.58988906983832E-28,-4.168672323390935E-28,-4.168672323390935E-28,-4.168672323390935E-28,-4.168672323390935E-28,-4.168672323390935E-28,-0.0455681521066268,-0.0455681521066268,-0.06402933861185248,-0.05563197078336555,-6.2518611529635395E-28,-0.05563197078336555,-0.05563197078336555,-0.05563197078336555,-0.05563197078336555,-0.05563197078336555,-0.09104176017970354,-0.05563197078336555,-0.05563197078336555,-0.05563197078336555,-0.059065352486528756,-0.01879354900494718,-3.925682117876778E-28,-1.9626447552021212E-28,-5.890683303443107E-28,-0.06307698787923625,-3.9260747253493122E-28,-1.9630373626746561E-28,-1.9630373626746561E-28,-1.9630373626746561E-28,-3.9276459407687687E-28,-1.9630373626746561E-28,-1.9630373626746561E-28,-1.9630373626746561E-28,-1.9630373626746561E-28,-1.963430048684393E-28,-0.06729220797386419,-0.06825622868885178,-0.06729220797386419,-0.06729220797386419,-0.06729220797386419,-3.9489678139876524E-28,-1.964215656378318E-28,-1.964215656378318E-28,-1.964215656378318E-28,-1.964215656378318E-28,-1.964215656378318E-28,-1.964215656378318E-28,-1.9646085780939368E-28,-1.9646085780939368E-28,-1.9650015784096187E-28,-5.93096174220229E-28,-1.9650015784096187E-28,-1.9650015784096187E-28,-1.9650015784096187E-28,-0.035409789396338376,-1.0582371822186072E-27,-3.958888913752246E-28,-1.9661810511142906E-28,-0.01232417528612921,-0.01232417528612921,-1.9665743659874881E-28,-0.011896157756963753,-6.270646779396722E-28,-6.065056546282535E-28,-0.051180830122272515,-1.9685421208489564E-28,-1.9685421208489564E-28,-1.9685421208489564E-28,-3.964435794848786E-28,-3.9501183684657283E-28,-0.051180830122272515,-6.4108820998553915E-28,-5.967104769734289E-28,-0.13045090617893615,-3.963219707284506E-28,-2.9525097797928135E-5,-3.9524827463442095E-28,-0.00852479708260813,-0.051180830122272515,-1.9720890426423374E-28,-0.018461186505225866,-1.9724835393502075E-28,-0.035409789396338376,-0.035409789396338376,-1.9736675030277132E-28,-0.01879354900494718,-1.9736675030277132E-28,-0.035409789396338376,-0.035409789396338376,-0.03637381011132572,-0.035409789396338376,-0.035409789396338376,-0.035409789396338376,-0.035409789396338376,-0.035409789396338376,-0.04393458647894649,-0.25055314532274525,-0.035409789396338376,-3.979152490498463E-28,-1.9748521773676714E-28,-1.9748521773676714E-28,-1.9748521773676714E-28,-1.9748521773676714E-28,-1.9748521773676714E-28,-4.70874373454564E-28,-1.9748521773676714E-28,-1.975247226813034E-28,-1.975247226813034E-28,-1.975247226813034E-28,-1.9756423552840908E-28,-1.9756423552840908E-28,-1.9756423552840908E-28,-1.9756423552840908E-28,-1.9756423552840908E-28,-1.9756423552840908E-28,-7.914834620694494E-28,-1.9764328493665234E-28,-1.9764328493665234E-28,-0.020241592241795413,-0.020241592241795413,-0.028766389324403573,-0.020241592241795413,-3.9572171734654156E-28,-1.9780147865354963E-28,-1.9780147865354963E-28,-1.9780147865354963E-28,-1.978410468629222E-28,-3.9580083001644526E-28,-1.9807862239430977E-28,-1.9807862239430977E-28,0.0,0.0,0.0,0.0,0.0,0.0,0.0,-0.018461186505225866,0.0,0.0,0.0,0.0,0.0,0.0,-1.9827681991936175E-28,-1.9827681991936175E-28,-5.951875722776527E-28,-1.9827681991936175E-28,-1.9827681991936175E-28,-3.966329743662456E-28,-1.9827681991936175E-28,-1.9831648321600496E-28,-1.9835615444689433E-28,-1.9835615444689433E-28,-0.024321795131353637,-1.9835615444689433E-28,-3.9979033841194547E-28,-0.00852479708260813,-3.969107523582634E-28,-0.011896157756963753,-9.640207149873647E-4,-9.640207149873647E-4,-9.640207149873647E-4,-9.640207149873647E-4,-9.640207149873647E-4,-1.984752157609128E-28,-1.984752157609128E-28,-1.984752157609128E-28,-1.984752157609128E-28,-1.984752157609128E-28,-1.984752157609128E-28,-1.984752157609128E-28,-0.00852479708260813,-1.984752157609128E-28,-1.984752157609128E-28,-0.007127286726219702,-1.9851491874466174E-28,-1.9851491874466174E-28,0.0,0.0,0.0,0.0,0.0,0.0,0.0,0.0,0.0,0.0,0.0,0.0,0.0,-0.004500480740330333,0.0,-1.9927078626379823E-28,0.0,0.0,0.0,0.0,0.0,0.0,0.0,0.0,0.0,-0.018461186505225866,0.0,0.0,0.0,-1.9867381011739846E-28,0.0,0.0,0.0,-1.9875330348866178E-28,-1.9875330348866178E-28,-1.9875330348866178E-28,-1.98793062101082E-28,-3.9902274353882824E-28,-3.9766565733363075E-28,0.0,-1.9891238566458579E-28,-1.9891238566458579E-28,-1.9891238566458579E-28,-1.9891238566458579E-28,-0.023827391937137257,-1.9891238566458579E-28,-1.9891238566458579E-28,-1.9903178085087487E-28,0.0,0.0,0.0,-1.9903178085087487E-28,-0.024351320229151534,0.0,-1.989919744947047E-28,-1.9903178085087487E-28,-0.01879354900494718,-1.9903178085087487E-28,0.0,-0.011896157756963753,0.0,0.0,0.0,0.0,-1.9919108592012415E-28,0.0,-1.9931064839347693E-28,-1.9931064839347693E-28,0.0,-2.9525097797928135E-5,0.0,0.0,0.0,0.0,0.0,0.0,0.0,0.0,0.0,0.0,0.0,0.0,0.0,0.0,0.0,0.0,0.0,0.0,-0.01879354900494718,-0.01879354900494718,0.0,-0.004500480740330333,-0.004500480740330333,-0.004500480740330333,-0.016396638497294072,-0.024321795131353637,-1.996697665830003E-28,-1.9970970852470523E-28,-1.9970970852470523E-28,-1.9974965845639652E-28,-0.00852479708260813,0.0,0.0,0.0,0.0,0.0,-1.9986955620737316E-28,-1.9990953811499615E-28,0.0,0.0,-1.9998952592578543E-28,0.0,-2.0006954574130012E-28,-0.16396252580413387,0.0,0.0,-2.0030979734427962E-28,-2.0022968143773379E-28,-2.0022968143773379E-28,-0.054405732606410594,-2.0022968143773379E-28,0.0,-2.0030979734427962E-28,-2.0034986731774317E-28,-4.0110087549266674E-28,0.0,0.0,-2.7338915571777797E-28,0.0,0.0,0.0,0.0,-0.04588093552380259,-0.07020273065515584,-2.9525097797928135E-5,0.0,0.0,0.0,0.0,0.0,0.0,0.0,0.0,0.0,0.0,0.0,-0.00852479708260813,-0.00852479708260813,-0.00852479708260813,-0.00852479708260813,-0.00852479708260813,-2.9525097797928135E-5,-0.024321795131353637,-0.024321795131353637,-0.024321795131353637,-0.024321795131353637,-0.024321795131353637,-0.024321795131353637,-0.024321795131353637,-0.024321795131353637,-0.024321795131353637,-0.024321795131353637,-0.024321795131353637,0.0,0.0,0.0,0.0,0.0,0.0,0.0,0.0,0.0,0.0,0.0,0.0,0.0,0.0,0.0,0.0,0.0,0.0,0.0,0.0,0.0,0.0,0.0,0.0,0.0,0.0,-2.0103228456247806E-28,0.0,0.0,0.0,0.0,0.0,0.0,0.0,0.0,0.0,0.0,0.0,0.0,0.0,0.0,0.0,0.0,0.0,0.0,0.0,0.0,0.0,0.0,0.0,0.0,0.0,0.0,0.0,0.0,0.0,0.0,0.0,0.0,0.0,0.0,0.0,0.0,0.0,0.0,0.0,0.0,0.0,0.0,0.0,0.0,0.0,0.0,0.0,0.0,0.0,0.0,0.0,0.0,0.0,0.0,0.0,0.0,0.0,0.0,0.0,0.0,0.0,0.0,0.0,0.0,0.0,0.0,0.0,0.0,0.0,0.0,0.0,0.0,0.0,-2.0139450479832465E-28,0.0,0.0,0.0,0.0,0.0,-0.018461186505225866,0.0,0.0,0.0,0.0,0.0,0.0,0.0,0.0,0.0,-0.051180830122272515,0.0,0.0,0.0,0.0,0.0,-0.051180830122272515,0.0,0.0,-0.051180830122272515,-0.051180830122272515,-0.051180830122272515,-2.020400641157387E-28,0.0,0.0,0.0,-2.8850189076119586E-28,0.0,0.0,0.0,0.0,-2.8850189076119586E-28,-2.8850189076119586E-28,0.0,-0.011896157756963753,0.0,0.0,0.0,0.0,0.0,0.0,0.0,0.0,0.0,0.0,0.0,0.0,0.0,0.0,0.0,0.0,0.0,0.0,0.0,0.0,0.0,0.0,0.0,0.0,0.0,0.0,0.0,0.0,0.0,0.0,0.0,0.0,0.0,0.0,0.0,-0.011896157756963753,0.0,0.0,0.0,0.0,0.0,0.0,0.0,0.0,0.0,0.0,0.0,0.0,0.0,0.0,0.0,0.0,0.0,0.0,0.0,0.0,0.0,0.0,0.0,0.0,0.0,0.0,0.0,0.0,0.0,0.0,0.0,0.0,0.0,0.0,0.0,0.0,0.0,0.0,0.0,0.0,0.0,0.0,0.0,0.0,0.0,0.0,0.0,-2.7338915571777797E-28,0.0,0.0,0.0,0.0,0.0,-0.006820600792875028,0.0,0.0,0.0,0.0,0.0,0.0,-0.018461186505225866,0.0,0.0,0.0,0.0,0.0,0.0,0.0,0.0,0.0,0.0,0.0,-0.018461186505225866,0.0,0.0,0.0,0.0,0.0,0.0,0.0,0.0,0.0,0.0,0.0,0.0,0.0,0.0,0.0,0.0,0.0,0.0,0.0,0.0,0.0,0.0,0.0,0.0,0.0,0.0,0.0,0.0,0.0,0.0,0.0,0.0,0.0,0.0,0.0,0.0,0.0,0.0,0.0,0.0,0.0,0.0,0.0,0.0,0.0,0.0,0.0,0.0,0.0,-0.07929405967455408,0.0,0.0,-0.0034333817031632873,0.0,0.0,0.0,0.0,0.0,0.0,0.0,-0.018461186505225866,-0.018461186505225866,-0.018461186505225866,-0.018461186505225866,-0.018461186505225866,-0.018461186505225866,-0.018461186505225866,-0.018461186505225866,-0.018461186505225866,-0.018461186505225866,0.0,0.0,0.0,0.0,-0.0053662054319113086,-0.0053662054319113086,0.0,0.0,0.0,0.0,0.0,0.0,0.0,0.0,0.0,0.0,0.0,0.0,0.0,0.0,0.0,0.0,0.0,0.0,0.0,0.0,0.0,0.0,0.0,0.0,0.0,0.0,0.0,-0.011896157756963753,-0.011896157756963753,-0.011896157756963753,0.0,0.0,0.0,-0.004753553276762296,-0.004642202444421576,-0.008716364527382597,0.0,-0.0010240338658415455,-0.00737342265891513],"bias":-1.2300000000000009}