{"vocabulary":{"como":0,"compra":1,"pesadelos":2,"onde":3,"comprar":4,"quero":5,"consegue":6,"consigo":7,"pega":8,"pego":9,"qual":10,"e":11,"a":12,"loja":13,"de":14,"o":15,"link":16,"para":17,"faz":18,"algumas":19,"perguntas":20,"sobre":21,"trocar":22,"senha":23,"se":24,"nao":25,"ta":26,"indo":27,"ela":28,"incorreta":29,"resetei":30,"sua":31,"troquei":32,"mudei":33,"redefini":34,"ola":35,"boa":36,"tarde":37,"atualmente":38,"eu":39,"jogo":40,"no":41,"sparklypower":42,"pelo":43,"mine":44,"original":45,"pc":46,"eventualmente":47,"comprei":48,"iphone":49,"consiguirei":50,"jogar":51,"em":52,"ambos":53,"atraves":54,"da":55,"minha":56,"conta":57,"normalmente":58,"enviei":59,"errado":60,"pessoa":61,"errada":62,"mandei":63,"dei":64,"mas":65,"dono":66,"do":67,"plugin":68,"ainda":69,"atualizou":70,"pois":71,"era":72,"pra":73,"estar":74,"funcionando":75,"entao":76,"porque":77,"la":78,"<#760262410098442270>":79,"mypet":80,"esta":81,"disponivel":82,"fez":83,"isso":84,"hoje":85,"voce":86,"matou":87,"ele":88,"perdi":89,"meu":90,"bichinho":91,"chamar":92,"matei":93,"sniffer":94,"com":95,"laco":96,"kit":97,"noob":98,"por":99,"favor":100,"me":101,"ajudem":102,"tava":103,"querendo":104,"completar":105,";--;":106,"pior":107,"que":108,"to":109,"triste":110,"agora":111,"https://discordcom/channels/320248230917046282/332866197701918731/1253826917350506538":112,"essa":113,"foi":114,"ultima":115,"atualizacao":116,"conseguindo":117,"entrar":118,"causa":119,"versao":120,"power":121,"na":122,"nova":123,"ah":124,"certoobrigada":125,"/warp":126,"reparar":127,"clica":128,"placa":129,"[reparar]":130,"repara":131,"pic":132,"monstra":133,"certo":134,"obg":135,"vai":136,"possibilitar":137,"logar":138,"sem":139,"colocar":140,"um":141,"periodo":142,"infelizmente":143,"recordo":144,"pode":145,"utilizar":146,"/lembrar":147,"/premium":148,"so":149,"ser":150,"utilizado":151,"minecraft":152,"java":153,"portanto":154,"console":155,"celular":156,"bedrock":157,"geral":158,"possivel":159,"ajudar":160,"logotenho":161,"ficar":162,"colocando":163,"toda":164,"vez":165,"cansativo":166,"quando":167,"mandoele":168,"diz":169,"parece":170,"oficial":171,"ou":172,"obtido":173,"legalmente":174,"gostaria":175,"ajudatenho":176,"mandar":177,"espero":178,"tenha":179,"feito":180,"certopois":181,"achei":182,"noite":183,"m_eeow03":184,"nickname":185,"=":186,"as":187,"coisas":188,"antiga":189,"estao":190,"<@&332650495522897920>":191,"🤡":192,"":193,"cnt":194,"tou":195,"usando":196,"ag":197,"registrei":198,"esse":199,"discord":200,"foxy_zn8833":201,"ai":202,"tem":203,"passar":204,"nick":205,"p":206,"acho":207,"tinha":208,"transferir":209,"tudo":210,"li":211,"consegui":212,"microsoft":213,"usa":214,"/changepass":215,"<#830658622383980545>":216,"staff":217,"mais":218,"tempo":219,"tentei":220,"retornar":221,"login":222,"conectada":223,"fazer":224,"vinculada":225,"alguma":226,"outra":227,"resolucao":228,"entendi":229,"obrigado":230,"pela":231,"atencao":232,"irei":233,"notificalo":234,"valor":235,"ja":236,"debitado":237,"/transactions":238,"mostra":239,"digitou":240,"chequei":241,"transacoes":242,"usuario":243,"tambem":244,"consta":245,"recebido":246,"sc0refl":247,"disse":248,"chegou":249,"economia":250,"liga":251,"nome":252,"escrito":253,"mandou":254,"caps":255,"lock":256,"ligado":257,"desculpe":258,"ops":259,"correto":260,"seria":261,"ao":262,"2kk":263,"alguns":264,"erros":265,"ortograficos":266,"passaram":267,"despercebidos":268,"acabei":269,"mandando":270,"poderiam":271,"ressarcir":272,"mim":273,"diretamente":274,"playerr":275,"sempre":276,"ando":277,"mochilas":278,"inv":279,"uso":280,"elas":281,"mt":282,"estranhei":283,"costumo":284,"guardar":285,"nenhum":286,"lugar":287,"aqui":288,"ver":289,"haviam":290,"3":291,"tenho":292,"uma":293,"print":294,"pouco":295,"antes":296,"off":297,"desloga":298,"seu":299,"inventario":300,"salvo":301,"ninguem":302,"mexer":303,"alterar":304,"qualquer":305,"coisa":306,"nada":307,"sumir":308,"provar":309,"tais":310,"loguei":311,"joguei":312,"fechei":313,"ir":314,"mercado":315,"fui":316,"deparo":317,"algo":318,"nunca":319,"ocorreu":320,"deixou":321,"bastante":322,"surpreso":323,"nem":324,"imaginava":325,"poderia":326,"acontecer":327,"entendo":328,"todos":329,"nos":330,"enganamos":331,"vezes":332,"fechar":333,"havia":334,"unidades":335,"mochila":336,"terra":337,"porem":338,"sumido":339,"ok":340,"duvidas":341,"encerrar":342,"tikcket":343,"obgg":344,"the":345,"boy":346,"farmar":347,"msm":348,"eta":349,"permitiu":350,"farm":351,"use":352,"apenas":353,"mesmo":354,"itens":355,"etc":356,"deixa":357,"caso":358,"voltar":359,"falar":360,"pegou":361,"permissao":362,"dele":363,"ban":364,"hm":365,"realmente":366,"usar":367,"problema":368,"podemos":369,"deixar":370,"kskks":371,"supostamente":372,"alt":373,"daily":374,"ahhh":375,"vimax99":376,"bom":377,"dia":378,"player":379,"amigo":380,"banido":381,"(nao":382,"sei":383,"motivo":384,"exato)":385,"trust":386,"(pois":387,"construi":388,"ele)":389,"autorizou":390,"queria":391,"saber":392,"forma":393,"posse":394,"(ele":395,"estando":396,"ciente":397,"acordo)":398,"algum":399,"canal":400,"comandos":401,"comando":402,"slash":403,"logada":404,"recebi":405,"os":406,"cargos":407,"membro":408,"vip":409,"faco":410,"agr":411,"puxar":412,"-bal":413,"ratoto_132":414,"outro":415,"cara":416,"botei":417,"m":418,"maiusculo":419,"pay":420,"ratoto":421,"pronto":422,"-mcuser":423,"setar":424,"xp":425,"criei":426,"id":427,"973754017236779068":428,"roubaram":429,"qr":430,"abrir":431,"denuncia":432,"dx":433,"ladrao":434,"n":435,"pagar":436,"pagou":437,"cria":438,"-money":439,"cebotarov":440,"trabalhando":441,"cobtratou":442,"deu":443,"terreno":444,"trabalhei":445,"devia":446,"desprotegido":447,"tirar":448,"perm":449,"tbm":450,"estranho":451,"depois":452,"dois":453,"sumirem":454,"aq":455,"ficou":456,"on":457,"uns":458,"10min":459,"dps":460,"terminei":461,"si":462,"lembro":463,"cebo":464,"v":465,"final":466,"vou":467,"coordenada":468,"saiu":469,"game":470,"amg":471,"entrou":472,"sv":473,"tirou":474,"area":475,"sairam":476,"2":477,"ate":478,"sinal":479,"deles":480,"oioi":481,"andares":482,"pro":483,"cobrei":484,"520k":485,"simplesmente":486,"carente":487,"enchendo":488,"saco":489,"abertamente":490,"<#320541695697616896>":491,"irritar":492,"provocar":493,"indiretas":494,"falando":495,"merda":496,"sentiu":497,"incomodado":498,"fato":499,"estou":500,"catalogando":501,"/lojas":502,"decidi":503,"suporte":504,"voces":505,"resolva":506,"255141045715599360":507,"''":508,"respeite":509,"membros":510,"irrite":511,"provoque":512,"nesse":513,"serao":514,"toleradas":515,"pessoas":516,"toxicas":517,"causam":518,"desordem":519,"conversar":520,"divertir":521,"ter":522,"aturar":523,"gente":524,"temos":525,"sentimentos":526,"limite":527,"paciencia":528,":nb::nde:":529,"regra":530,"inclui":531,"tentam":532,"provocar/iniciar":533,"brigas":534,"discussoes":535,"(qualquer":536,"motivo)":537,"contam":538,"spoilers":539,"usam":540,"contas":541,"fakes":542,"evasao":543,"denuncie":544,"mesmo''":545,"pressionei":546,"dizer":547,"quieto":548,"''era":549,"irmao":550,"vender''":551,"desconectou":552,"kkkkkkkkkk":553,"dai":554,"pulga":555,"cocou":556,"scam":557,"desse":558,"tu":559,"investe":560,"50m":561,"pagando":562,"levantar":563,"andar":564,"tal":565,"vender":566,"6m":567,"dinheiro":568,"primeiro":569,"/claim":570,"abobora":571,"35":572,"cavado":573,"baixo":574,"desvincilhando":575,"pergunta":576,"kkkkkkkk":577,"historico":578,"quem/onde":579,"tpa":580,"confirmar":581,"marcim":582,"acaso":583,"grana":584,"negocio":585,"souza1tzzzz":586,"das":587,"duas":588,"verificar":589,"criar":590,"contra":591,"oi":592,"carinha":593,"quer":594,"envie":595,"''claim/posse''":596,"for":597,"mom1ntzada7":598,"estava":599,"hackead":600,"perguntar":601,"porq":602,"sai":603,"daquela":604,"registrar":605,"avisar":606,"desativei":607,"aquela":608,"vim":609,"sou":610,"sido":611,"hackeda":612,"tbom":613,"https://bitly/sparklypower-unban":614,"faca":615,"formulario":616,"unban":617,"alguem":618,"responde":619,"abri":620,"querer":621,"banida":622,"pedir":623,"passou":624,"mes":625,"comprir":626,"aquele":627,"mod":628,"construir":629,"constroe":630,"sozinho":631,"schematic":632,"podem":633,"ticket":634,":)":635,"-unban":636,"guisenpaii22":637,"legal":638,"fosse":639,"call":640,"^^":641,"gosto":642,"conhecer":643,"regras":644,"juntos":645,"claro":646,"te":647,"desbanir":648,"peco":649,"vi":650,"respeitou":651,"evadiu":652,"novamente":653,"baniu":654,"-checkban":655,"bem":656,"(de":657,"acordo":658,"data":659,"falaram)":660,"deveria":661,"durar":662,"meses":663,"viro":664,"eterno":665,"ping":666,"assim":667,"dar":668,"colher":669,"ia":670,"resolver":671,"grande":672,"parte":673,"dos":674,"problemas":675,"ain":676,"quebrei":677,"elevador":678,"testei":679,"quebrar":680,"plantacao":681,"crescendo":682,"crescida":683,"descobri":684,"recentemente":685,"/containertrust":686,"(nick)":687,"acesso":688,"aos":689,"jogadores":690,"principal":691,"farms":692,"pedi":693,"testar":694,"funcionava":695,"conseguiu":696,"(podia":697,"cheio":698,"sla)":699,"muitos":700,"amigos":701,"teste":702,"enfim":703,"funciona":704,"esteja":705,"otimo":706,"quem":707,"aluga":708,"(colher)":709,"blocos":710,"resposta":711,"esclarecer":712,"perguntei":713,"zum":714,"podia":715,"falou":716,"pensando":717,"montar":718,"lojinha":719,"competir":720,"lojas":721,"10%":722,"resto":723,"precisa":724,"herbalismo":725,"duvida":726,"ruim":727,"primeira":728,"chamada":729,"alison00007":730,"cheguei":731,"conectar":732,"(nem":733,"nela)":734,"xxalisonkkjxx":735,"troca":736,"achar":737,"curto":738,"gostei":739,"numero":740,"xbox":741,"nojentinho":742,"dittom":743,"averiguar":744,"dia/boa":745,"klapa":746,"este":747,"meio":748,"desbanido":749,"gostava":750,"muito":751,"permanentemente":752,"aprendi":753,"(e":754,"cometi)":755,"nocao":756,"durante":757,"desda":758,"cresci":759,"prometo":760,"farei":761,"bug/xray":762,"3º":763,"oportunidade":764,"players":765,"frequentam":766,"quiserem":767,"cometi":768,"demasiados":769,"<:lori_hug:543220309336260619>":770,"abusei":771,"bug":772,"apanhei":773,"kamiao":774,"dupou":775,"outras":776,"palavras":777,"aproveitei-me":778,"deem":779,"meus":780,"comprimentos-":781,"(alex)":782,"aguardo":783,"provavelmente":784,"corretamente":785,"parado":786,"in-game":787,"morreu":788,"ghast":789,"tela":790,"morte":791,"entrei":792,"apareceu":793,"sentido":794,"morrido":795,"minerando":796,"desligou":797,"liguei":798,"morri":799,"bau":800,"seja":801,"picaretas":802,"monstras":803,"(eram":804,"5)":805,"minerios":806,"pa":807,"queimou":808,"lava":809,"desligado":810,"voltei":811,"cai":812,"nether":813,"man":814,"donada":815,"estiver":816,"entrando":817,"sla":818,"presiso":819,"nivel":820,"estarei":821,"fechando":822,"explicado":823,"resumo":824,"ler":825,"acontece":826,"identifica":827,"camadas":828,"superiores":829,"protegida":830,"dropares":831,"item":832,"comsegue":833,"tipo":834,"+250":835,"altura":836,"voa":837,"alto":838,"jetpack":839,"drop":840,"/spawn":841,"encontrei":842,"teria":843,"retirar":844,"1":845,"tumulo":846,"fiquei":847,"esqueci":848,"altera":849,"mudar":850,"muda":851,"recuperar":852,"redefinir":853,"redefine":854,"recupera":855,"troco":856,"hey":857,"posso":858,"oieee":859,"td":860,"servidores":861,"ontem":862,"rapaz":863},"weights":[0.3261115473991257,0.3338053887793889,1.0969800192860335,0.16691938632832531,0.48430685269793955,0.16698617411852576,0.13660633537443256,0.13983781929260505,0.16708640591304158,0.16711982987901738,0.2985938247785127,0.053516867400553426,-0.20682877274754569,0.13040428226415096,0.015425829674706163,-0.03344336109336435,0.15036790169570804,-0.238741945988058,-0.020689639134820675,-0.020689639134820675,-0.020689639134820675,-0.020689639134820675,-0.1061241224091871,-0.07431358354646277,-3.1980814072753488E-27,-0.07771222746668625,-0.009824418932589398,-5.279291387299572E-28,-5.279291387299572E-28,-5.279291387299572E-28,-5.28034745679093E-28,-2.112772835688461E-27,-5.281403737538438E-28,-5.282460229584354E-28,-5.283516932970948E-28,-2.681984637940402E-27,-0.00969624749585296,-1.0649021849247559E-27,-5.284573847740497E-28,-0.12792133607132394,-1.1179862826138262E-4,-0.033217913613029455,-1.144220800434426E-22,-1.585372154322085E-27,-1.0569147695480993E-27,-1.0597764451725286E-27,-5.284573847740497E-28,-5.284573847740497E-28,-5.284573847740497E-28,-5.284573847740497E-28,-5.284573847740497E-28,-0.008024763048250182,-0.008922715715545738,-5.284573847740497E-28,-5.284573847740497E-28,-0.018927337448322347,-0.059683230392487734,-0.0070666973445825615,-5.284573847740497E-28,-0.19537290847504485,-0.16745443749672334,-0.3036753644093984,-0.3036753644093984,-0.16249259497103835,-0.11326432097534501,-0.009622590892326968,-2.2515303139740227E-8,-0.08554630441793064,-0.03827154345593726,-0.009824418932589398,-5.289861593812818E-28,-1.6323244108694014E-4,-0.009072868365704912,-0.03843477589702428,-1.6323244108694014E-4,-1.6323244108694014E-4,-0.009824418932589398,-0.009824418932589398,-0.01873405485720744,-0.009824418932589398,-5.293036780759205E-28,-5.293036780759205E-28,-5.293036780759205E-28,-5.294095599879181E-28,-2.1279653857485566E-27,-5.294095599879181E-28,-0.03862821359700313,-5.294095599879181E-28,-0.021024945628925033,-9.818501826803746E-4,-0.09309705194217835,-5.295154630805342E-28,-0.01955260067144511,-5.297273328245707E-28,-5.297273328245707E-28,-0.01693439897286816,-5.297273328245707E-28,-5.297273328245707E-28,-5.297273328245707E-28,-0.012755408442886702,-0.01264360981462536,-0.019428094420118478,-0.01264360981462536,-0.036748978266975645,-0.036748978266975645,-0.036748978266975645,-0.036748978266975645,-0.0033630430945084024,-0.030635793574438925,-0.0033630430945084024,-0.0033630430945084024,-0.0033630430945084024,-0.0306097544282554,-0.007240280291243725,-0.0571988809042596,-5.302573781421779E-28,-5.302573781421779E-28,-5.304695447412927E-28,-1.0645589379185656E-27,-0.018927337448322347,-1.1442155359821773E-22,-1.1442102312866452E-22,-0.023135659844133856,-0.007240280291243725,-0.014894757548313223,-0.014894757548313223,-0.013774518067007793,-0.013774518067007793,-0.013774518067007793,-0.013774518067007793,-0.013774518067007793,-0.13307773969625966,-0.13307773969625966,-0.13307773969625966,-0.014995490661298395,-0.014995490661298395,-1.0624256144256855E-27,-5.311065540271572E-28,-5.311065540271572E-28,-5.311065540271572E-28,-5.311065540271572E-28,-1.1179862826138262E-4,-5.311065540271572E-28,-5.311065540271572E-28,-5.311065540271572E-28,-0.021328276377041273,-0.007991373680777899,-0.007991373680777899,-0.007662568667812103,-0.08866897844821746,-1.0626381207971082E-27,-5.313190603985541E-28,-0.007662568667812103,-5.313190603985541E-28,-5.313190603985541E-28,-0.007662568667812103,-5.313190603985541E-28,-5.313190603985541E-28,-5.313190603985541E-28,-5.313190603985541E-28,-0.005018425042135153,-5.315316517980073E-28,-1.068620636562997E-27,-5.315316517980073E-28,-5.315316517980073E-28,-5.315316517980073E-28,-5.315316517980073E-28,-5.31637979393886E-28,-5.31637979393886E-28,-5.31637979393886E-28,-5.31637979393886E-28,-5.31637979393886E-28,-1.1179862826138262E-4,-5.31637979393886E-28,-5.31637979393886E-28,-0.007662568667812103,-0.007662568667812103,-0.007662568667812103,-5.318506983992178E-28,-1.6052842803934758E-27,-0.008909635924617992,-5.318506983992178E-28,-5.318506983992178E-28,-0.00969624749585296,-0.028503329336567004,-0.0070666973445825615,-0.0070666973445825615,-0.008024763048250182,-1.0646592601403496E-27,-3.1970688192626884E-27,-5.322763917833423E-28,-0.08543448327436645,-0.023059652379692624,-0.02569098352473774,-5.328089876900577E-28,-5.328089876900577E-28,-5.328089876900577E-28,-5.328089876900577E-28,-1.073020993680675E-27,-0.016038756398051853,-5.329155708042185E-28,-0.016525037348250907,-1.0737717323110775E-27,-0.1690023047940925,-5.333421165123866E-28,-1.0695723602007379E-27,-0.007240280291243725,-1.072687382093156E-27,-5.337690036278078E-28,-5.337690036278078E-28,-5.337690036278078E-28,-5.338757787835645E-28,-5.340893931772597E-28,-5.340893931772597E-28,-1.3079790927739469E-5,-1.3079790927739469E-5,-1.3079790927739469E-5,-1.613313787596756E-27,0.0,-5.370889847649437E-28,0.0,0.0,0.0,0.0,0.0,0.0,0.0,0.0,0.0,-5.345168784130429E-28,-5.345168784130429E-28,-5.345168784130429E-28,-5.345168784130429E-28,-5.345168784130429E-28,-5.345168784130429E-28,-5.345168784130429E-28,-0.00936114177712601,-5.345168784130429E-28,-5.346238031736777E-28,-5.346238031736777E-28,-5.346238031736777E-28,-5.347307493235424E-28,-5.347307493235424E-28,-5.347307493235424E-28,-5.347307493235424E-28,-5.347307493235424E-28,-5.347307493235424E-28,-1.376680101019248E-4,-5.349447058080774E-28,-5.349447058080774E-28,-0.03827154345593726,-0.03827154345593726,-0.03827154345593726,-0.03827154345593726,-1.0710671892326695E-27,-2.153256327306557E-27,-2.153256327306557E-27,-2.153256327306557E-27,-5.111816922008131E-27,-6.0879479799488775E-27,-5.361229976396893E-28,-5.361229976396893E-28,0.0,0.0,0.0,0.0,0.0,0.0,0.0,0.0,0.0,0.0,0.0,0.0,0.0,0.0,-5.366594424613022E-28,-5.366594424613022E-28,-0.019281376799152598,-5.366594424613022E-28,-5.366594424613022E-28,-0.008024763048250182,-0.011460322997953177,-5.3676679582046625E-28,-5.368741706545972E-28,-5.368741706545972E-28,-5.368741706545972E-28,-5.368741706545972E-28,-5.450978218421833E-28,-2.2515303139740227E-8,-0.019281376799152598,-0.08543448327436645,-0.0032344951738508924,-0.012144131098468855,-5.370889847649437E-28,-5.370889847649437E-28,-5.370889847649437E-28,-5.370889847649437E-28,0.0,0.0,0.0,0.0,0.0,0.0,0.0,0.0,0.0,0.0,0.0,-0.019281376799152598,-0.019281376799152598,0.0,0.0,0.0,0.0,0.0,0.0,0.0,-1.1179862826138262E-4,0.0,0.0,0.0,0.0,0.0,0.0,0.0,0.0,0.0,0.0,0.0,0.0,0.0,0.0,0.0,0.0,0.0,0.0,0.0,0.0,0.0,-1.30023114012638E-27,0.0,0.0,0.0,-5.379491010645947E-28,-5.379491010645947E-28,-5.379491010645947E-28,-5.380567124070762E-28,-5.380567124070762E-28,-1.0763286905522628E-27,0.0,-0.008909635924617992,0.0,0.0,0.0,0.0,0.0,0.0,-5.38702832670761E-28,0.0,0.0,0.0,-5.38702832670761E-28,-0.009622590892326968,0.0,-1.348085410809792E-27,-5.38702832670761E-28,-0.01113186586055003,-5.38702832670761E-28,0.0,-0.08543448327436645,0.0,0.0,0.0,0.0,-1.3979981379770193E-27,-0.048205514631423904,-5.394576203458621E-28,-5.394576203458621E-28,0.0,-5.45970763821576E-28,0.0,0.0,-9.818501826803746E-4,0.0,0.0,0.0,0.0,-7.712402804474093E-28,0.0,0.0,0.0,0.0,0.0,0.0,0.0,0.0,0.0,0.0,0.0,0.0,0.0,0.0,0.0,0.0,0.0,-2.9371460587800254E-4,-2.9371460587800254E-4,0.0,-0.08543448327436645,0.0,0.0,-2.2515303139740227E-8,-5.405377233433814E-28,-5.405377233433814E-28,0.0,-0.011460322997953177,0.0,0.0,0.0,-0.0014723449574799861,0.0,-1.5671812456552713E-27,-5.410785855407699E-28,-2.9371460587800254E-4,-2.9371460587800254E-4,0.0,-0.016038756398051853,-5.415116649272395E-28,0.0,0.0,0.0,-5.421619340376573E-28,0.0,0.0,-0.0014723674727831289,0.0,0.0,-5.421619340376573E-28,-5.422703881152804E-28,-1.0856265109566356E-27,0.0,-0.0014723449574799861,-0.0014723449574799861,-0.018532249332248035,0.0,0.0,0.0,0.0,0.0,0.0,0.0,0.0,0.0,0.0,0.0,-1.1179862826138262E-4,0.0,0.0,0.0,0.0,0.0,0.0,0.0,0.0,0.0,0.0,-5.450978218421833E-28,0.0,-1.1179862826138262E-4,0.0,0.0,0.0,0.0,0.0,0.0,0.0,0.0,-0.008909635924617992,0.0,0.0,-7.712402804474093E-28,-7.712402804474093E-28,-7.712402804474093E-28,-7.712402804474093E-28,-7.712402804474093E-28,0.0,0.0,0.0,0.0,0.0,0.0,0.0,0.0,0.0,0.0,0.0,0.0,0.0,0.0,0.0,0.0,0.0,0.0,0.0,0.0,0.0,-5.441174303375349E-28,0.0,0.0,0.0,0.0,0.0,0.0,0.0,0.0,-0.008024763048250182,0.0,0.0,0.0,0.0,0.0,0.0,0.0,0.0,0.0,0.0,0.0,0.0,0.0,0.0,0.0,0.0,0.0,0.0,0.0,0.0,0.0,0.0,0.0,0.0,0.0,0.0,0.0,0.0,0.0,0.0,0.0,0.0,0.0,0.0,0.0,0.0,0.0,-0.011460345513256328,-0.011460322997953177,-0.011460322997953177,-0.011460322997953177,0.0,-0.011501468288189357,0.0,0.0,0.0,0.0,-0.008909635924617992,0.0,0.0,0.0,0.0,0.0,0.0,-0.008909635924617992,-0.008909635924617992,-0.008909635924617992,-0.008909635924617992,0.0,0.0,0.0,-2.2515303139740227E-8,-2.2515303139740227E-8,-2.2515303139740227E-8,-5.450978218421833E-28,0.0,0.0,0.0,0.0,-0.0032344951738508924,0.0,0.0,0.0,0.0,0.0,-5.45970763821576E-28,0.0,0.0,0.0,0.0,0.0,0.0,-0.00936114177712601,0.0,0.0,0.0,0.0,0.0,0.0,0.0,0.0,0.0,0.0,0.0,0.0,0.0,0.0,0.0,-0.009755952895420727,-0.009755952895420727,-0.009755952895420727,0.0,0.0,0.0,0.0,0.0,0.0,0.0,-0.08543448327436645,0.0,0.0,0.0,0.0,0.0,0.0,0.0,0.0,0.0,0.0,0.0,0.0,0.0,0.0,0.0,0.0,-0.008024763048250182,-0.008024763048250182,0.0,0.0,0.0,0.0,0.0,0.0,0.0,0.0,0.0,0.0,0.0,0.0,0.0,0.0,0.0,0.0,0.0,0.0,0.0,-0.08543448327436645,0.0,0.0,0.0,-1.1179862826138262E-4,0.0,0.0,0.0,0.0,0.0,0.0,0.0,0.0,0.0,0.0,0.0,0.0,0.0,0.0,0.0,0.0,0.0,0.0,0.0,0.0,0.0,0.0,0.0,0.0,0.0,0.0,0.0,0.0,0.0,0.0,0.0,0.0,0.0,0.0,0.0,0.0,0.0,0.0,0.0,0.0,0.0,0.0,-0.009516899702007243,0.0,0.0,0.0,0.0,0.0,0.0,0.0,0.0,0.0,0.0,0.0,0.0,0.0,0.0,0.0,0.0,0.0,0.0,0.0,0.0,0.0,0.0,0.0,0.0,0.0,-0.030689692286130322,0.0,0.0,0.0,0.0,0.0,0.0,0.0,0.0,0.0,0.0,0.0,0.0,0.0,0.0,0.0,0.0,0.0,0.0,0.0,0.0,0.0,0.0,0.0,0.0,0.0,0.0,0.0,0.0,0.0,0.0,0.0,0.0,0.0,0.0,0.0,0.0,0.0,0.0,0.0,0.0,0.0,0.0,0.0,0.0,0.0,0.0,0.0,-1.1179862826138262E-4,-1.1179862826138262E-4,-1.1179862826138262E-4,-1.1179862826138262E-4,-0.17590637962658323,-1.1179862826138262E-4,-0.00936114177712601,-0.02828847922544832,0.0,0.0,0.0,0.0,0.0,0.0,0.0,0.0,0.0,0.0,0.0,0.0,0.0,0.0,0.0,0.0,0.0,0.0,0.0,0.0,0.0,0.0,0.0,0.0,0.0,0.0,0.0,0.0,0.0,0.0,0.0,0.0,0.0,0.0,0.0,0.0,0.0,0.0,0.0,-0.011501445772886266,-0.027232371785514145,-0.011501445772886266,-0.009516899702007243,-0.009516899702007243,-0.009516899702007243,-0.025898908629620382,-0.025898908629620382,0.0,-0.015730926012627867,-0.015730926012627867,0.0,-0.08543448327436645,-0.08543448327436645,-0.08543448327436645,0.0,0.0,-0.021952401942831608,0.0,0.0,0.0,-0.022934252125511922,0.0,0.0,0.0,0.0,-0.021952401942831608,-0.021952401942831608,0.0,0.0,0.0,0.0,0.0],"bias":-1.0300000000000007}