{"vocabulary":{"eu":0,"esqueci":1,"a":2,"minha":3,"senha":4,"nao":5,"lembro":6,"como":7,"troca":8,"trocar":9,"alterar":10,"altera":11,"mudar":12,"muda":13,"quero":14,"queria":15,"recuperar":16,"redefinir":17,"redefine":18,"recupera":19,"ou":20,"troco":21,"da":22,"conta":23,"hey":24,"posso":25,"oieee":26,"td":27,"bem":28,"sou":29,"nova":30,"em":31,"servidores":32,"de":33,"minecraft":34,"e":35,"entrei":36,"pela":37,"primeira":38,"vez":39,"no":40,"sparklypower":41,"ontem":42,"mas":43,"que":44,"faco":45,"pra":46,"oi":47,"registrar":48,"novamente":49,"rapaz":50,"para":51,"antiga":52,"perdi":53,"sei":54,"login":55,"do":56,"mine":57,"gostaria":58,"saber":59,"faz":60,"algumas":61,"perguntas":62,"sobre":63,"se":64,"ta":65,"indo":66,"ela":67,"incorreta":68,"resetei":69,"sua":70,"troquei":71,"mudei":72,"redefini":73,"enviei":74,"pesadelos":75,"errado":76,"pessoa":77,"errada":78,"mandei":79,"dei":80,"o":81,"dono":82,"plugin":83,"ainda":84,"atualizou":85,"pois":86,"era":87,"estar":88,"funcionando":89,"entao":90,"porque":91,"la":92,"<#760262410098442270>":93,"mypet":94,"esta":95,"disponivel":96,"fez":97,"isso":98,"hoje":99,"voce":100,"matou":101,"ele":102,"meu":103,"bichinho":104,"consigo":105,"chamar":106,"matei":107,"sniffer":108,"com":109,"laco":110,"kit":111,"noob":112,"por":113,"favor":114,"me":115,"ajudem":116,"tava":117,"querendo":118,"completar":119,"loja":120,";--;":121,"pior":122,"to":123,"triste":124,"agora":125,"https://discordcom/channels/320248230917046282/332866197701918731/1253826917350506538":126,"essa":127,"foi":128,"ultima":129,"atualizacao":130,"conseguindo":131,"entrar":132,"causa":133,"versao":134,"power":135,"na":136,"ah":137,"certoobrigada":138,"/warp":139,"reparar":140,"clica":141,"placa":142,"[reparar]":143,"repara":144,"pic":145,"monstra":146,"certo":147,"obg":148,"vai":149,"possibilitar":150,"logar":151,"sem":152,"colocar":153,"um":154,"periodo":155,"infelizmente":156,"recordo":157,"qual":158,"pode":159,"utilizar":160,"/lembrar":161,"/premium":162,"so":163,"ser":164,"utilizado":165,"java":166,"original":167,"portanto":168,"console":169,"celular":170,"bedrock":171,"geral":172,"possivel":173,"ajudar":174,"logotenho":175,"ficar":176,"colocando":177,"toda":178,"cansativo":179,"quando":180,"mandoele":181,"diz":182,"parece":183,"oficial":184,"obtido":185,"legalmente":186,"ajudatenho":187,"mandar":188,"espero":189,"tenha":190,"feito":191,"certopois":192,"achei":193,"boa":194,"noite":195,"m_eeow03":196,"nickname":197,"=":198,"as":199,"coisas":200,"estao":201,"<@&332650495522897920>":202,"🤡":203,"":204,"cnt":205,"tou":206,"usando":207,"ag":208,"registrei":209,"esse":210,"discord":211,"foxy_zn8833":212,"ai":213,"tem":214,"passar":215,"nick":216,"p":217,"acho":218,"tinha":219,"transferir":220,"tudo":221,"li":222,"consegui":223,"microsoft":224,"usa":225,"/changepass":226,"<#830658622383980545>":227,"ola":228,"staff":229,"jogo":230,"mais":231,"tempo":232,"tentei":233,"retornar":234,"conectada":235,"fazer":236,"vinculada":237,"alguma":238,"outra":239,"resolucao":240,"entendi":241,"obrigado":242,"atencao":243,"irei":244,"notificalo":245,"valor":246,"ja":247,"debitado":248,"/transactions":249,"mostra":250,"digitou":251,"chequei":252,"transacoes":253,"usuario":254,"tambem":255,"consta":256,"recebido":257,"sc0refl":258,"disse":259,"chegou":260,"economia":261,"liga":262,"nome":263,"escrito":264,"mandou":265,"caps":266,"lock":267,"ligado":268,"desculpe":269,"ops":270,"correto":271,"seria":272,"tarde":273,"ao":274,"2kk":275,"alguns":276,"erros":277,"ortograficos":278,"passaram":279,"despercebidos":280,"acabei":281,"mandando":282,"poderiam":283,"ressarcir":284,"mim":285,"diretamente":286,"playerr":287,"sempre":288,"ando":289,"mochilas":290,"inv":291,"uso":292,"elas":293,"mt":294,"estranhei":295,"costumo":296,"guardar":297,"nenhum":298,"lugar":299,"aqui":300,"ver":301,"haviam":302,"3":303,"tenho":304,"uma":305,"print":306,"pouco":307,"antes":308,"off":309,"desloga":310,"seu":311,"inventario":312,"salvo":313,"ninguem":314,"mexer":315,"qualquer":316,"coisa":317,"nada":318,"sumir":319,"consegue":320,"provar":321,"tais":322,"loguei":323,"normalmente":324,"joguei":325,"fechei":326,"ir":327,"mercado":328,"fui":329,"deparo":330,"algo":331,"nunca":332,"ocorreu":333,"deixou":334,"bastante":335,"surpreso":336,"nem":337,"imaginava":338,"poderia":339,"acontecer":340,"entendo":341,"todos":342,"nos":343,"enganamos":344,"vezes":345,"fechar":346,"havia":347,"unidades":348,"mochila":349,"terra":350,"porem":351,"sumido":352,"ok":353,"duvidas":354,"encerrar":355,"tikcket":356,"obgg":357,"the":358,"boy":359,"farmar":360,"msm":361,"eta":362,"permitiu":363,"farm":364,"use":365,"apenas":366,"mesmo":367,"itens":368,"etc":369,"deixa":370,"caso":371,"voltar":372,"falar":373,"pegou":374,"permissao":375,"dele":376,"ban":377,"hm":378,"realmente":379,"usar":380,"problema":381,"podemos":382,"deixar":383,"kskks":384,"supostamente":385,"alt":386,"daily":387,"ahhh":388,"vimax99":389,"bom":390,"dia":391,"player":392,"amigo":393,"banido":394,"(nao":395,"motivo":396,"exato)":397,"trust":398,"(pois":399,"construi":400,"ele)":401,"autorizou":402,"forma":403,"posse":404,"(ele":405,"estando":406,"ciente":407,"acordo)":408,"algum":409,"canal":410,"comandos":411,"comando":412,"slash":413,"logada":414,"recebi":415,"os":416,"cargos":417,"membro":418,"vip":419,"agr":420,"puxar":421,"-bal":422,"ratoto_132":423,"outro":424,"cara":425,"botei":426,"m":427,"maiusculo":428,"pay":429,"ratoto":430,"pronto":431,"-mcuser":432,"setar":433,"xp":434,"criei":435,"id":436,"973754017236779068":437,"roubaram":438,"qr":439,"abrir":440,"denuncia":441,"dx":442,"ladrao":443,"n":444,"pagar":445,"pagou":446,"cria":447,"-money":448,"cebotarov":449,"trabalhando":450,"cobtratou":451,"deu":452,"terreno":453,"trabalhei":454,"devia":455,"desprotegido":456,"tirar":457,"perm":458,"tbm":459,"estranho":460,"depois":461,"dois":462,"sumirem":463,"aq":464,"ficou":465,"on":466,"uns":467,"10min":468,"dps":469,"terminei":470,"si":471,"cebo":472,"v":473,"final":474,"vou":475,"coordenada":476,"saiu":477,"game":478,"amg":479,"entrou":480,"sv":481,"tirou":482,"area":483,"sairam":484,"2":485,"ate":486,"sinal":487,"deles":488,"oioi":489,"andares":490,"pro":491,"cobrei":492,"520k":493,"simplesmente":494,"carente":495,"enchendo":496,"saco":497,"abertamente":498,"<#320541695697616896>":499,"irritar":500,"provocar":501,"indiretas":502,"falando":503,"merda":504,"sentiu":505,"incomodado":506,"fato":507,"estou":508,"catalogando":509,"/lojas":510,"decidi":511,"suporte":512,"voces":513,"resolva":514,"255141045715599360":515,"''":516,"respeite":517,"membros":518,"irrite":519,"provoque":520,"nesse":521,"serao":522,"toleradas":523,"pessoas":524,"toxicas":525,"causam":526,"desordem":527,"conversar":528,"divertir":529,"ter":530,"aturar":531,"gente":532,"temos":533,"sentimentos":534,"limite":535,"paciencia":536,":nb::nde:":537,"regra":538,"inclui":539,"tentam":540,"provocar/iniciar":541,"brigas":542,"discussoes":543,"(qualquer":544,"motivo)":545,"contam":546,"spoilers":547,"usam":548,"contas":549,"fakes":550,"evasao":551,"denuncie":552,"mesmo''":553,"pressionei":554,"dizer":555,"quieto":556,"''era":557,"irmao":558,"vender''":559,"desconectou":560,"kkkkkkkkkk":561,"dai":562,"pulga":563,"cocou":564,"scam":565,"desse":566,"tu":567,"investe":568,"50m":569,"pagando":570,"levantar":571,"andar":572,"tal":573,"vender":574,"6m":575,"dinheiro":576,"primeiro":577,"/claim":578,"abobora":579,"35":580,"cavado":581,"baixo":582,"desvincilhando":583,"pergunta":584,"kkkkkkkk":585,"historico":586,"quem/onde":587,"tpa":588,"confirmar":589,"marcim":590,"acaso":591,"grana":592,"negocio":593,"souza1tzzzz":594,"das":595,"duas":596,"verificar":597,"criar":598,"contra":599,"carinha":600,"quer":601,"envie":602,"''claim/posse''":603,"for":604,"mom1ntzada7":605,"estava":606,"hackead":607,"perguntar":608,"porq":609,"sai":610,"daquela":611,"avisar":612,"desativei":613,"aquela":614,"vim":615,"sido":616,"hackeda":617,"tbom":618,"https://bitly/sparklypower-unban":619,"faca":620,"formulario":621,"unban":622,"alguem":623,"responde":624,"abri":625,"querer":626,"banida":627,"pedir":628,"passou":629,"mes":630,"comprir":631,"aquele":632,"mod":633,"construir":634,"constroe":635,"sozinho":636,"schematic":637,"podem":638,"ticket":639,":)":640,"-unban":641,"guisenpaii22":642,"legal":643,"fosse":644,"call":645,"^^":646,"gosto":647,"conhecer":648,"jogar":649,"regras":650,"juntos":651,"claro":652,"te":653,"desbanir":654,"peco":655,"pelo":656,"vi":657,"respeitou":658,"evadiu":659,"baniu":660,"-checkban":661,"(de":662,"acordo":663,"data":664,"falaram)":665,"deveria":666,"durar":667,"meses":668,"viro":669,"eterno":670,"ping":671,"assim":672,"dar":673,"colher":674,"ia":675,"resolver":676,"grande":677,"parte":678,"dos":679,"problemas":680,"ain":681,"quebrei":682,"elevador":683,"testei":684,"quebrar":685,"plantacao":686,"crescendo":687,"crescida":688,"descobri":689,"recentemente":690,"/containertrust":691,"(nick)":692,"acesso":693,"aos":694,"jogadores":695,"principal":696,"farms":697,"pedi":698,"testar":699,"funcionava":700,"conseguiu":701,"(podia":702,"cheio":703,"sla)":704,"muitos":705,"amigos":706,"teste":707,"enfim":708,"funciona":709,"esteja":710,"otimo":711,"quem":712,"aluga":713,"(colher)":714,"blocos":715,"resposta":716,"esclarecer":717,"perguntei":718,"zum":719,"podia":720,"falou":721,"compra":722,"pensando":723,"montar":724,"lojinha":725,"competir":726,"lojas":727,"10%":728,"resto":729,"precisa":730,"herbalismo":731,"duvida":732,"ruim":733,"chamada":734,"alison00007":735,"cheguei":736,"conectar":737,"(nem":738,"nela)":739,"xxalisonkkjxx":740,"achar":741,"curto":742,"gostei":743,"numero":744,"xbox":745,"nojentinho":746,"dittom":747,"averiguar":748,"dia/boa":749,"klapa":750,"este":751,"meio":752,"desbanido":753,"gostava":754,"muito":755,"permanentemente":756,"aprendi":757,"(e":758,"cometi)":759,"nocao":760,"durante":761,"desda":762,"cresci":763,"prometo":764,"farei":765,"bug/xray":766,"3º":767,"oportunidade":768,"players":769,"frequentam":770,"quiserem":771,"cometi":772,"demasiados":773,"<:lori_hug:543220309336260619>":774,"abusei":775,"bug":776,"apanhei":777,"kamiao":778,"dupou":779,"outras":780,"palavras":781,"aproveitei-me":782,"deem":783,"meus":784,"comprimentos-":785,"(alex)":786,"aguardo":787,"provavelmente":788,"corretamente":789,"parado":790,"in-game":791,"morreu":792,"ghast":793,"tela":794,"morte":795,"apareceu":796,"sentido":797,"morrido":798,"minerando":799,"pc":800,"desligou":801,"liguei":802,"morri":803,"bau":804,"seja":805,"picaretas":806,"monstras":807,"(eram":808,"5)":809,"minerios":810,"pa":811,"queimou":812,"lava":813,"desligado":814,"voltei":815,"cai":816,"nether":817,"man":818,"donada":819,"estiver":820,"entrando":821,"sla":822,"presiso":823,"nivel":824,"estarei":825,"fechando":826,"explicado":827,"resumo":828,"ler":829,"acontece":830,"identifica":831,"camadas":832,"superiores":833,"protegida":834,"dropares":835,"item":836,"comsegue":837,"tipo":838,"+250":839,"altura":840,"voa":841,"alto":842,"jetpack":843,"drop":844,"/spawn":845,"encontrei":846,"teria":847,"retirar":848,"1":849,"tumulo":850,"fiquei":851,"onde":852,"comprar":853,"pega":854,"pego":855,"link":856},"weights":[0.11398323331426478,0.35418275709842834,0.1864732654596615,0.6123143787749215,0.9054015873247596,0.016758088148762895,0.3234567720512702,0.2944233238045239,0.16754539373832752,0.045243860781251914,0.06526331925963064,0.06156865896991412,0.24667311119475724,0.06446357032732021,0.09292220743276199,0.17835677383617154,0.20295503579851892,0.1515610658569909,0.003977010409610583,0.004041160022030997,0.05682360310657126,3.7359480451424576E-27,0.12333733868890884,-0.13385412788436454,2.054363821710339E-27,2.054363821710339E-27,0.0397327230863059,0.0397327230863059,0.0397327230863059,-0.005597385849573182,0.0397327230863059,0.027595158937981836,0.0397327230863059,0.06880410406796161,0.0397327230863059,-0.23321119019969394,-0.0034323635520446473,0.0397327230863059,0.0397327230863059,-0.029863500992135854,-0.038839536445042344,0.16498662296845737,0.0397327230863059,-0.01451947736618683,-0.0653380187932798,0.2380997085948035,0.10861131624572164,0.028365420763757653,0.028365420763757653,0.028365420763757653,0.08434880483280613,0.05839920989359014,-0.0200261317087907,0.23725153370235094,-0.00156971278457719,0.029307981977699467,0.19668845270634128,0.11039782901688232,3.342344403623731E-29,-0.00156971278457719,-0.16845267705591035,-0.16845267705591035,-0.16845267705591035,-0.16845267705591035,-0.15769385667330593,-0.28797315948080987,-0.14398657974040494,-0.14398657974040494,-0.14398657974040494,-0.1685200783464458,-0.6966268010862621,-0.16855378910426666,-0.16858750660558777,-0.16862123085175812,-0.012094907092861977,-0.07158246404225115,-2.6443566865352132E-27,-0.022988801152472763,-0.022988801152472763,-0.006049427541214479,-0.004844466518396298,-0.12301014330232624,-6.484485284798281E-28,-0.021225678553504084,-1.9504218436732036E-27,-6.484485284798281E-28,-2.6425827652741293E-27,-0.012137564148324159,-1.3358903222533101E-27,-1.3358903222533101E-27,-2.619547177247712E-27,-1.307220925057011E-27,-1.3086713935053792E-27,-1.3006679597851422E-27,-6.488377532764542E-28,-6.488377532764542E-28,-6.488377532764542E-28,-0.02123770433954994,-0.06959622407844178,-0.04054492351959155,-0.022344196178193894,-6.489675467858114E-28,-0.02640903431382788,-0.12679030421538795,-0.08328458690905313,-0.012283186709442184,-6.492272117014036E-28,-6.493570831180272E-28,-6.493570831180272E-28,-0.012137564148324159,-6.493570831180272E-28,-6.493570831180272E-28,-6.493570831180272E-28,-0.051296438378189355,-1.337762065799793E-27,-0.051296438378189355,-1.337762065799793E-27,-0.09823271015240377,-0.09823271015240377,-0.09823271015240377,-0.09823271015240377,-0.09823271015240377,-6.497468532655621E-28,-1.3000137640165265E-27,-6.497468532655621E-28,-6.497468532655621E-28,-2.8417855030196622E-27,-4.039648600888309E-27,-0.02772584996927264,-2.0687962663728816E-27,-2.0687962663728816E-27,-6.502669107509117E-28,-1.3049711500594887E-27,-0.004930458631191367,-1.3006639008998477E-27,-6.503969901489415E-28,-0.02280741712412717,-4.164201036115422E-27,-2.8446289943900024E-27,-1.3813510842531096E-27,-1.3813510842531096E-27,-1.3813510842531096E-27,-1.3813510842531096E-27,-1.3813510842531096E-27,-0.042233582082546316,-0.042233582082546316,-0.06347128642209644,-0.051296438378189355,-2.071694899588548E-27,-0.051296438378189355,-0.051296438378189355,-0.051296438378189355,-0.051296438378189355,-0.051296438378189355,-0.09341107468235793,-0.051296438378189355,-0.051296438378189355,-0.051296438378189355,-0.057796609793958176,-0.022344196178193894,-1.3024862879791597E-27,-6.511780131621009E-28,-1.9544461316985602E-27,-0.046721189938045714,-1.3026165496341286E-27,-6.513082748170643E-28,-6.513082748170643E-28,-6.513082748170643E-28,-6.513082748170643E-28,-1.303137856881591E-27,-6.513082748170643E-28,-6.513082748170643E-28,-6.513082748170643E-28,-6.513082748170643E-28,-6.514385625295702E-28,-0.06959622407844178,-0.07683919169517571,-0.06959622407844178,-0.06959622407844178,-0.06959622407844178,-1.310212155479313E-27,-6.516992161480608E-28,-6.516992161480608E-28,-6.516992161480608E-28,-6.516992161480608E-28,-6.516992161480608E-28,-6.516992161480608E-28,-6.518295820644737E-28,-6.518295820644737E-28,-6.519599740592856E-28,-1.967809952968277E-27,-6.519599740592856E-28,-6.519599740592856E-28,-6.519599740592856E-28,-0.04054492351959155,-0.04054492351959155,-2.7732430356975584E-27,-1.3135038372857076E-27,-6.523513065662873E-28,-0.015244506813302028,-0.015244506813302028,-6.524818029268727E-28,-0.0013910810021663328,-2.077919939703003E-27,-2.0114697447009977E-27,-0.045330108935879306,-1.4304147596430666E-27,-1.4304147596430666E-27,-1.4304147596430666E-27,-1.3153442146653212E-27,-1.3105938933241788E-27,-0.045330108935879306,-1.3458135737391199E-27,-1.9798017027719864E-27,-0.13347249121950114,-0.00156971278457719,-1.9774469719180896E-27,-1.3113783607552778E-27,-0.012137564148324159,-0.046899821720456356,-6.543114953242452E-28,-0.02123770433954994,-6.544423838010055E-28,-0.04054492351959155,-0.04054492351959155,-6.548352063498292E-28,-0.022344196178193894,-6.548352063498292E-28,-0.04054492351959155,-0.04054492351959155,-0.04054492351959155,-0.04054492351959155,-0.047787891136325346,-0.04054492351959155,-0.04054492351959155,-0.04054492351959155,-0.04054492351959155,-0.04054492351959155,-0.05425220045249269,-0.2512015086304131,-0.04054492351959155,-1.3202270079513084E-27,-6.552282646864912E-28,-6.552282646864912E-28,-6.552282646864912E-28,-6.552282646864912E-28,-6.552282646864912E-28,-1.3170423448133801E-27,-6.552282646864912E-28,-6.553593365538019E-28,-6.553593365538019E-28,-6.553593365538019E-28,-6.5549043464073005E-28,-6.5549043464073005E-28,-6.5549043464073005E-28,-6.5549043464073005E-28,-6.5549043464073005E-28,-6.5549043464073005E-28,-2.626031159816128E-27,-6.557527094944194E-28,-6.557527094944194E-28,-0.021225678553504084,-0.021225678553504084,-0.03336324270182824,-0.021225678553504084,-1.3129491772966168E-27,-6.562775740680559E-28,-6.562775740680559E-28,-6.562775740680559E-28,-6.564088558392238E-28,-1.3132116620436255E-27,-6.5719709814387325E-28,-6.5719709814387325E-28,-6.575915741826547E-28,0.0,0.0,0.0,0.0,0.0,0.0,0.0,-0.02123770433954994,0.0,0.0,0.0,-0.00156971278457719,0.0,0.0,-6.578546897443648E-28,-6.578546897443648E-28,-1.9747489185052483E-27,-6.578546897443648E-28,-6.578546897443648E-28,-1.3159726003282163E-27,-6.578546897443648E-28,-6.579862870017651E-28,-6.581179105838819E-28,-6.581179105838819E-28,-0.023269608744673497,-6.581179105838819E-28,-1.3264482915640274E-27,-0.012137564148324159,-1.3168942287607868E-27,-0.0013910810021663328,-0.00881268040131112,-0.00881268040131112,-0.007242967616733941,-0.007242967616733941,-0.007242967616733941,-0.007242967616733941,-6.585129393311961E-28,-6.585129393311961E-28,-6.585129393311961E-28,-6.585129393311961E-28,-6.585129393311961E-28,-6.585129393311961E-28,-6.585129393311961E-28,-0.012137564148324159,-6.585129393311961E-28,-6.585129393311961E-28,-0.00449716623268275,-6.586446682648491E-28,-6.586446682648491E-28,0.0,0.0,0.0,0.0,0.0,0.0,0.0,0.0,0.0,0.0,0.0,0.0,0.0,0.0,0.0,0.0,-6.611525307194296E-28,0.0,0.0,0.0,0.0,0.0,0.0,0.0,0.0,0.0,-0.02123770433954994,0.0,0.0,0.0,-6.5917184756274835E-28,0.0,0.0,0.0,-6.594355954234939E-28,-6.594355954234939E-28,-6.594355954234939E-28,-6.595675089252789E-28,-1.3239015193931248E-27,-1.319398897630084E-27,0.0,-0.00627885113830876,-6.599634077796176E-28,-6.599634077796176E-28,-6.599634077796176E-28,-0.02222768909799863,-6.599634077796176E-28,-6.599634077796176E-28,-6.603595442683162E-28,0.0,0.0,0.0,-6.603595442683162E-28,-0.023269608744673497,0.0,-6.6022747235946245E-28,-6.603595442683162E-28,-0.023913908962771024,-6.603595442683162E-28,0.0,-0.0013910810021663328,0.0,0.0,0.0,0.0,-6.608880961532431E-28,-6.610203002132857E-28,-6.61284787676965E-28,-6.61284787676965E-28,-0.00156971278457719,-0.00156971278457719,-0.00156971278457719,-0.00156971278457719,-0.00156971278457719,-0.00156971278457719,-0.00156971278457719,-0.00156971278457719,-0.00156971278457719,-0.00156971278457719,-0.00156971278457719,-0.00156971278457719,-0.00156971278457719,-0.00156971278457719,-0.00156971278457719,-0.00156971278457719,-0.00156971278457719,0.0,0.0,0.0,-0.022344196178193894,-0.022344196178193894,-6.618140801268643E-28,0.0,-0.04450731308422354,-6.634045007077476E-28,0.0,-0.0013910810021663328,-0.023269608744673497,-6.624762914808213E-28,-6.6260881324347E-28,-6.6260881324347E-28,-6.6274136151577315E-28,-0.012137564148324159,0.0,0.0,0.0,0.0,0.0,-6.631391654436445E-28,-6.632718198076061E-28,-6.634045007077476E-28,-6.634045007077476E-28,-6.635372081493775E-28,0.0,-6.638027026783407E-28,-0.16532647617494164,0.0,0.0,-6.645998238133424E-28,-6.643340104678101E-28,-6.643340104678101E-28,-0.059904093781899384,-6.643340104678101E-28,0.0,-6.645998238133424E-28,-6.647327703674159E-28,-1.3307964698583203E-27,-6.648657435161191E-28,0.0,0.0,0.0,0.0,0.0,0.0,-0.0477665296335751,-0.07103613837824892,-6.663302049196959E-28,0.0,0.0,0.0,0.0,0.0,0.0,0.0,0.0,0.0,0.0,0.0,-0.012137564148324159,-0.012137564148324159,-0.012137564148324159,-0.012137564148324159,-0.012137564148324159,-6.663302049196959E-28,-0.023269608744673497,-0.023269608744673497,-0.023269608744673497,-0.023269608744673497,-0.023269608744673497,-0.023269608744673497,-0.023269608744673497,-0.023269608744673497,-0.023269608744673497,-0.023269608744673497,-0.023269608744673497,-0.023269608744673497,0.0,0.0,0.0,0.0,0.0,0.0,0.0,0.0,0.0,0.0,0.0,0.0,0.0,0.0,0.0,0.0,0.0,0.0,0.0,0.0,0.0,0.0,0.0,0.0,0.0,0.0,-6.669969351093858E-28,0.0,0.0,0.0,0.0,0.0,0.0,0.0,0.0,0.0,0.0,0.0,0.0,0.0,0.0,0.0,0.0,0.0,0.0,0.0,0.0,0.0,0.0,0.0,0.0,0.0,0.0,0.0,0.0,0.0,0.0,0.0,0.0,0.0,0.0,0.0,0.0,0.0,0.0,0.0,0.0,0.0,0.0,0.0,0.0,0.0,0.0,0.0,0.0,0.0,0.0,0.0,0.0,0.0,0.0,0.0,0.0,0.0,0.0,0.0,0.0,0.0,0.0,0.0,0.0,0.0,0.0,0.0,0.0,0.0,0.0,0.0,0.0,0.0,-6.681987310680304E-28,0.0,0.0,0.0,0.0,0.0,-0.02123770433954994,0.0,0.0,0.0,0.0,0.0,0.0,0.0,0.0,0.0,-0.045330108935879306,0.0,0.0,0.0,0.0,0.0,0.0,-0.045330108935879306,0.0,0.0,-0.045330108935879306,-0.045330108935879306,-0.045330108935879306,-6.703406063746937E-28,0.0,0.0,0.0,0.0,0.0,0.0,0.0,0.0,0.0,0.0,0.0,-0.0013910810021663328,0.0,0.0,0.0,0.0,0.0,0.0,0.0,0.0,0.0,0.0,0.0,0.0,0.0,0.0,0.0,0.0,0.0,0.0,0.0,0.0,0.0,0.0,0.0,0.0,0.0,0.0,0.0,0.0,0.0,0.0,0.0,0.0,0.0,0.0,0.0,0.0,0.0,-0.0013910810021663328,0.0,0.0,0.0,0.0,0.0,0.0,0.0,0.0,0.0,0.0,0.0,0.0,0.0,0.0,0.0,0.0,0.0,0.0,0.0,0.0,0.0,0.0,0.0,0.0,0.0,0.0,0.0,0.0,0.0,0.0,0.0,0.0,0.0,0.0,0.0,0.0,0.0,0.0,0.0,0.0,0.0,0.0,0.0,0.0,0.0,0.0,0.0,0.0,0.0,0.0,0.0,0.0,0.0,-0.013228182896088358,0.0,0.0,0.0,0.0,0.0,0.0,-0.02123770433954994,0.0,0.0,0.0,0.0,0.0,0.0,0.0,0.0,0.0,0.0,0.0,-0.02123770433954994,0.0,0.0,0.0,0.0,0.0,0.0,0.0,0.0,0.0,0.0,0.0,0.0,0.0,0.0,0.0,0.0,0.0,0.0,0.0,0.0,0.0,0.0,0.0,0.0,0.0,0.0,0.0,0.0,0.0,0.0,0.0,0.0,0.0,0.0,0.0,0.0,0.0,0.0,0.0,0.0,0.0,0.0,-9.89984758448599E-4,0.0,0.0,0.0,0.0,0.0,0.0,0.0,-0.06570602802068343,0.0,0.0,-0.004930458631191367,0.0,0.0,0.0,0.0,0.0,0.0,0.0,0.0,-0.02123770433954994,-0.02123770433954994,-0.02123770433954994,-0.02123770433954994,-0.02123770433954994,-0.02123770433954994,-0.02123770433954994,-0.02123770433954994,-0.02123770433954994,-0.02123770433954994,0.0,0.0,0.0,0.0,-9.89984758448599E-4,-9.89984758448599E-4,0.0,0.0,0.0,0.0,0.0,0.0,0.0,0.0,0.0,0.0,0.0,0.0,0.0,0.0,0.0,0.0,0.0,0.0,0.0,0.0,0.0,0.0,0.0,0.0,0.0,0.0,0.0,-0.0013910810021663328,-0.0013910810021663328,-0.0013910810021663328,0.0,0.0,0.0,-0.016323070003732513,-3.8015236623942353E-4,-4.908236794268696E-4,0.0],"bias":-1.2500000000000009}