{"vocabulary":{"eu":0,"esqueci":1,"a":2,"minha":3,"senha":4,"nao":5,"lembro":6,"como":7,"troca":8,"trocar":9,"alterar":10,"altera":11,"mudar":12,"muda":13,"quero":14,"queria":15,"recuperar":16,"redefinir":17,"redefine":18,"recupera":19,"ou":20,"troco":21,"da":22,"conta":23,"hey":24,"posso":25,"oieee":26,"td":27,"bem":28,"sou":29,"nova":30,"em":31,"servidores":32,"de":33,"minecraft":34,"e":35,"entrei":36,"pela":37,"primeira":38,"vez":39,"no":40,"sparklypower":41,"ontem":42,"mas":43,"que":44,"faco":45,"pra":46,"oi":47,"registrar":48,"novamente":49,"rapaz":50,"para":51,"antiga":52,"perdi":53,"sei":54,"login":55,"do":56,"mine":57,"gostaria":58,"saber":59,"faz":60,"algumas":61,"perguntas":62,"sobre":63,"se":64,"ta":65,"indo":66,"ela":67,"incorreta":68,"resetei":69,"sua":70,"troquei":71,"mudei":72,"redefini":73,"o":74,"dono":75,"plugin":76,"ainda":77,"atualizou":78,"pois":79,"era":80,"estar":81,"funcionando":82,"entao":83,"porque":84,"la":85,"<#760262410098442270>":86,"mypet":87,"esta":88,"disponivel":89,"fez":90,"isso":91,"hoje":92,"voce":93,"matou":94,"ele":95,"meu":96,"bichinho":97,"consigo":98,"chamar":99,"matei":100,"sniffer":101,"com":102,"laco":103,"kit":104,"noob":105,"por":106,"favor":107,"me":108,"ajudem":109,"tava":110,"querendo":111,"completar":112,"loja":113,";--;":114,"pior":115,"to":116,"triste":117,"agora":118,"https://discordcom/channels/320248230917046282/332866197701918731/1253826917350506538":119,"essa":120,"foi":121,"ultima":122,"atualizacao":123,"conseguindo":124,"entrar":125,"causa":126,"versao":127,"power":128,"na":129,"ah":130,"certoobrigada":131,"/warp":132,"reparar":133,"clica":134,"placa":135,"[reparar]":136,"repara":137,"pic":138,"monstra":139,"certo":140,"obg":141,"vai":142,"possibilitar":143,"logar":144,"sem":145,"colocar":146,"um":147,"periodo":148,"infelizmente":149,"recordo":150,"qual":151,"pode":152,"utilizar":153,"/lembrar":154,"/premium":155,"so":156,"ser":157,"utilizado":158,"java":159,"original":160,"portanto":161,"console":162,"celular":163,"bedrock":164,"geral":165,"possivel":166,"ajudar":167,"logotenho":168,"ficar":169,"colocando":170,"toda":171,"cansativo":172,"quando":173,"mandoele":174,"diz":175,"parece":176,"oficial":177,"obtido":178,"legalmente":179,"ajudatenho":180,"mandar":181,"espero":182,"tenha":183,"feito":184,"certopois":185,"achei":186,"boa":187,"noite":188,"m_eeow03":189,"nickname":190,"=":191,"as":192,"coisas":193,"estao":194,"<@&332650495522897920>":195,"🤡":196,"":197,"cnt":198,"tou":199,"usando":200,"ag":201,"registrei":202,"esse":203,"discord":204,"foxy_zn8833":205,"ai":206,"tem":207,"passar":208,"nick":209,"p":210,"acho":211,"tinha":212,"transferir":213,"tudo":214,"li":215,"errado":216,"consegui":217,"microsoft":218,"usa":219,"/changepass":220,"<#830658622383980545>":221,"ola":222,"staff":223,"jogo":224,"mais":225,"tempo":226,"tentei":227,"retornar":228,"conectada":229,"fazer":230,"vinculada":231,"alguma":232,"outra":233,"resolucao":234,"entendi":235,"obrigado":236,"atencao":237,"irei":238,"notificalo":239,"valor":240,"ja":241,"debitado":242,"/transactions":243,"mostra":244,"digitou":245,"chequei":246,"transacoes":247,"usuario":248,"tambem":249,"consta":250,"recebido":251,"sc0refl":252,"disse":253,"chegou":254,"economia":255,"liga":256,"nome":257,"escrito":258,"mandou":259,"caps":260,"lock":261,"ligado":262,"desculpe":263,"ops":264,"correto":265,"seria":266,"mandei":267,"tarde":268,"ao":269,"2kk":270,"alguns":271,"erros":272,"ortograficos":273,"passaram":274,"despercebidos":275,"acabei":276,"mandando":277,"poderiam":278,"ressarcir":279,"mim":280,"diretamente":281,"playerr":282,"sempre":283,"ando":284,"mochilas":285,"inv":286,"uso":287,"elas":288,"mt":289,"estranhei":290,"costumo":291,"guardar":292,"nenhum":293,"lugar":294,"aqui":295,"ver":296,"haviam":297,"3":298,"tenho":299,"uma":300,"print":301,"pouco":302,"antes":303,"off":304,"desloga":305,"seu":306,"inventario":307,"salvo":308,"ninguem":309,"mexer":310,"qualquer":311,"coisa":312,"nada":313,"sumir":314,"consegue":315,"provar":316,"tais":317,"loguei":318,"normalmente":319,"joguei":320,"fechei":321,"ir":322,"mercado":323,"fui":324,"deparo":325,"algo":326,"nunca":327,"ocorreu":328,"deixou":329,"bastante":330,"surpreso":331,"nem":332,"imaginava":333,"poderia":334,"acontecer":335,"entendo":336,"todos":337,"nos":338,"enganamos":339,"vezes":340,"fechar":341,"havia":342,"unidades":343,"mochila":344,"terra":345,"porem":346,"sumido":347,"ok":348,"duvidas":349,"encerrar":350,"tikcket":351,"obgg":352,"the":353,"boy":354,"farmar":355,"msm":356,"eta":357,"permitiu":358,"farm":359,"use":360,"apenas":361,"mesmo":362,"itens":363,"etc":364,"deixa":365,"caso":366,"voltar":367,"falar":368,"pegou":369,"permissao":370,"dele":371,"ban":372,"hm":373,"realmente":374,"usar":375,"problema":376,"podemos":377,"pessoa":378,"deixar":379,"kskks":380,"supostamente":381,"alt":382,"daily":383,"ahhh":384,"vimax99":385,"bom":386,"dia":387,"player":388,"amigo":389,"banido":390,"(nao":391,"motivo":392,"exato)":393,"trust":394,"(pois":395,"construi":396,"ele)":397,"autorizou":398,"forma":399,"posse":400,"(ele":401,"estando":402,"ciente":403,"acordo)":404,"algum":405,"canal":406,"comandos":407,"comando":408,"slash":409,"logada":410,"recebi":411,"os":412,"cargos":413,"membro":414,"vip":415,"agr":416,"puxar":417,"-bal":418,"ratoto_132":419,"outro":420,"cara":421,"botei":422,"m":423,"maiusculo":424,"pay":425,"ratoto":426,"pronto":427,"-mcuser":428,"setar":429,"xp":430,"criei":431,"id":432,"973754017236779068":433,"roubaram":434,"qr":435,"abrir":436,"denuncia":437,"dx":438,"ladrao":439,"n":440,"pagar":441,"pagou":442,"cria":443,"-money":444,"cebotarov":445,"trabalhando":446,"cobtratou":447,"deu":448,"terreno":449,"trabalhei":450,"devia":451,"desprotegido":452,"tirar":453,"perm":454,"tbm":455,"estranho":456,"depois":457,"dois":458,"sumirem":459,"aq":460,"ficou":461,"on":462,"uns":463,"10min":464,"dps":465,"terminei":466,"si":467,"cebo":468,"v":469,"final":470,"vou":471,"coordenada":472,"saiu":473,"game":474,"amg":475,"entrou":476,"sv":477,"tirou":478,"area":479,"sairam":480,"2":481,"ate":482,"sinal":483,"deles":484,"oioi":485,"andares":486,"pro":487,"cobrei":488,"520k":489,"simplesmente":490,"carente":491,"enchendo":492,"saco":493,"abertamente":494,"<#320541695697616896>":495,"irritar":496,"provocar":497,"indiretas":498,"falando":499,"merda":500,"sentiu":501,"incomodado":502,"fato":503,"estou":504,"catalogando":505,"/lojas":506,"decidi":507,"suporte":508,"voces":509,"resolva":510,"255141045715599360":511,"''":512,"respeite":513,"membros":514,"irrite":515,"provoque":516,"nesse":517,"serao":518,"toleradas":519,"pessoas":520,"toxicas":521,"causam":522,"desordem":523,"conversar":524,"divertir":525,"ter":526,"aturar":527,"gente":528,"temos":529,"sentimentos":530,"limite":531,"paciencia":532,":nb::nde:":533,"regra":534,"inclui":535,"tentam":536,"provocar/iniciar":537,"brigas":538,"discussoes":539,"(qualquer":540,"motivo)":541,"contam":542,"spoilers":543,"usam":544,"contas":545,"fakes":546,"evasao":547,"denuncie":548,"mesmo''":549,"pressionei":550,"dizer":551,"quieto":552,"''era":553,"irmao":554,"vender''":555,"desconectou":556,"kkkkkkkkkk":557,"dai":558,"pulga":559,"cocou":560,"scam":561,"desse":562,"tu":563,"investe":564,"50m":565,"pagando":566,"levantar":567,"andar":568,"tal":569,"vender":570,"6m":571,"dinheiro":572,"primeiro":573,"/claim":574,"abobora":575,"35":576,"cavado":577,"baixo":578,"desvincilhando":579,"pergunta":580,"kkkkkkkk":581,"historico":582,"quem/onde":583,"dei":584,"tpa":585,"confirmar":586,"marcim":587,"acaso":588,"grana":589,"negocio":590,"souza1tzzzz":591,"das":592,"duas":593,"verificar":594,"criar":595,"contra":596,"carinha":597,"quer":598,"envie":599,"''claim/posse''":600,"for":601,"mom1ntzada7":602,"estava":603,"hackead":604,"perguntar":605,"porq":606,"sai":607,"daquela":608,"avisar":609,"desativei":610,"aquela":611,"vim":612,"sido":613,"hackeda":614,"tbom":615,"https://bitly/sparklypower-unban":616,"faca":617,"formulario":618,"unban":619,"alguem":620,"responde":621,"abri":622,"querer":623,"banida":624,"pedir":625,"passou":626,"mes":627,"comprir":628,"aquele":629,"mod":630,"construir":631,"constroe":632,"sozinho":633,"schematic":634,"podem":635,"ticket":636,":)":637,"-unban":638,"guisenpaii22":639,"legal":640,"fosse":641,"call":642,"^^":643,"gosto":644,"conhecer":645,"jogar":646,"regras":647,"juntos":648,"claro":649,"te":650,"desbanir":651,"peco":652,"pelo":653,"vi":654,"respeitou":655,"evadiu":656,"baniu":657,"-checkban":658,"(de":659,"acordo":660,"data":661,"falaram)":662,"deveria":663,"durar":664,"meses":665,"viro":666,"eterno":667,"ping":668,"assim":669,"dar":670,"colher":671,"ia":672,"resolver":673,"grande":674,"parte":675,"dos":676,"problemas":677,"ain":678,"quebrei":679,"elevador":680,"testei":681,"quebrar":682,"plantacao":683,"crescendo":684,"crescida":685,"descobri":686,"recentemente":687,"/containertrust":688,"(nick)":689,"acesso":690,"aos":691,"jogadores":692,"principal":693,"farms":694,"pedi":695,"testar":696,"funcionava":697,"conseguiu":698,"(podia":699,"cheio":700,"sla)":701,"muitos":702,"amigos":703,"teste":704,"enfim":705,"funciona":706,"esteja":707,"otimo":708,"quem":709,"aluga":710,"(colher)":711,"blocos":712,"resposta":713,"esclarecer":714,"perguntei":715,"zum":716,"podia":717,"falou":718,"compra":719,"pensando":720,"montar":721,"lojinha":722,"competir":723,"lojas":724,"10%":725,"resto":726,"precisa":727,"herbalismo":728,"duvida":729,"ruim":730,"chamada":731,"alison00007":732,"cheguei":733,"conectar":734,"(nem":735,"nela)":736,"xxalisonkkjxx":737,"achar":738,"curto":739,"gostei":740,"numero":741,"xbox":742,"nojentinho":743,"dittom":744,"averiguar":745,"dia/boa":746,"klapa":747,"este":748,"meio":749,"desbanido":750,"gostava":751,"muito":752,"permanentemente":753,"aprendi":754,"(e":755,"cometi)":756,"nocao":757,"durante":758,"desda":759,"cresci":760,"prometo":761,"farei":762,"bug/xray":763,"3º":764,"oportunidade":765,"players":766,"frequentam":767,"quiserem":768,"cometi":769,"demasiados":770,"<:lori_hug:543220309336260619>":771,"abusei":772,"bug":773,"apanhei":774,"kamiao":775,"dupou":776,"outras":777,"palavras":778,"aproveitei-me":779,"deem":780,"meus":781,"comprimentos-":782,"(alex)":783,"aguardo":784,"provavelmente":785,"corretamente":786,"parado":787,"in-game":788,"morreu":789,"ghast":790,"tela":791,"morte":792,"apareceu":793,"sentido":794,"morrido":795,"minerando":796,"pc":797,"desligou":798,"liguei":799,"morri":800,"bau":801,"seja":802,"picaretas":803,"monstras":804,"(eram":805,"5)":806,"minerios":807,"pa":808,"queimou":809,"lava":810,"desligado":811,"voltei":812,"cai":813,"nether":814,"man":815,"donada":816,"estiver":817,"entrando":818,"sla":819,"presiso":820,"nivel":821,"estarei":822,"fechando":823,"explicado":824,"resumo":825,"ler":826,"acontece":827,"identifica":828,"camadas":829,"superiores":830,"protegida":831,"dropares":832,"item":833,"comsegue":834,"tipo":835,"+250":836,"altura":837,"voa":838,"alto":839,"jetpack":840,"drop":841,"/spawn":842,"encontrei":843,"teria":844,"retirar":845,"pesadelos":846,"1":847,"tumulo":848,"fiquei":849},"weights":[0.11150849994720194,0.3569435410513839,0.17650667356102562,0.6105594477148915,0.920273141799786,0.024616300289572603,0.3394244072142559,0.3000319525935453,0.17629306069057846,0.03319898678636004,0.06920971438824815,0.05146526646071785,0.2522190877767709,0.0360946967863292,0.08688869197846362,0.18042851544551589,0.19238011132870214,0.15427751771807327,0.014335214595614437,0.01336707480493326,0.04625037816911041,4.621542007264424E-26,0.1093769130452449,-0.16415436999780872,3.3694693547869276E-26,3.3694693547869276E-26,0.039598774272012555,0.039598774272012555,0.039598774272012555,-0.0022623070592859987,0.039598774272012555,0.025907220736859134,0.039598774272012555,0.07660880338325654,0.039598774272012555,-0.2588375751747818,-0.011054045639727492,0.039598774272012555,0.039598774272012555,-0.030714916450433567,-0.05581318703715765,0.16615821874800796,0.039598774272012555,-0.020409724681133685,-0.04073742023333,0.24304025551625427,0.11903253538089249,0.026451984424479096,0.026451984424479096,0.026451984424479096,0.07770985971794715,0.06231504503837136,-0.038811980239586936,0.23916842773520394,-3.009866970370157E-4,0.024387187701318,0.19191731881942153,0.11641910514322937,5.268454626727302E-28,-3.009866970370157E-4,-0.17724771393052366,-0.17724771393052366,-0.17724771393052366,-0.17724771393052366,-0.1562677097862462,-0.28455033910811195,-0.14227516955405597,-0.14227516955405597,-0.14227516955405597,-0.1773186342914949,-0.730369380478214,-0.1773541051125174,-0.17738958302912322,-0.17742506804273175,-0.13808678579248024,-1.0657962963110848E-26,-0.024870376487483904,-3.205732276244649E-26,-1.0657962963110848E-26,-5.530667961550623E-26,-0.013691553535153575,-3.382975577308304E-26,-3.382975577308304E-26,-4.305513170132262E-26,-2.1485610024473402E-26,-3.25250297886367E-26,-2.1377904851126788E-26,-1.0664360299652719E-26,-1.0664360299652719E-26,-1.0664360299652719E-26,-0.02240391472068912,-0.0703136907224459,-0.046015958720955596,-0.020881990002355917,-1.0666493598372393E-26,-0.03166956125635075,-0.1429607438304394,-0.08154997042990828,-2.138429576418188E-26,-1.0670761476132388E-26,-1.0672896055343457E-26,-1.0672896055343457E-26,-0.013691553535153575,-1.0672896055343457E-26,-1.0672896055343457E-26,-1.0672896055343457E-26,-0.04667377502515894,-2.1955953166197683E-26,-0.04667377502515894,-2.1955953166197683E-26,-0.0955018988402209,-0.0955018988402209,-0.0955018988402209,-0.0955018988402209,-0.0955018988402209,-1.0679302355325803E-26,-2.1367152425967096E-26,-1.0679302355325803E-26,-1.0679302355325803E-26,-5.982371308808259E-26,-7.890529734033265E-26,-0.03284698661810765,-4.6512177047083014E-26,-4.6512177047083014E-26,-1.0687850070640293E-26,-2.1448632504214356E-26,-0.007675623433586656,-2.137783813889412E-26,-2.4518511194844168E-26,-0.02270490141772609,-6.823801957807262E-26,-4.654940540103605E-26,-3.461603532959524E-26,-3.461603532959524E-26,-3.461603532959524E-26,-3.461603532959524E-26,-3.461603532959524E-26,-0.05071787489262877,-0.05071787489262877,-0.0731217896133182,-0.04667377502515894,-3.3951774598247246E-26,-0.04667377502515894,-0.04667377502515894,-0.04667377502515894,-0.04667377502515894,-0.04667377502515894,-0.0929907204431515,-0.04667377502515894,-0.04667377502515894,-0.04667377502515894,-0.05465038515578254,-0.021371004463431802,-2.140779106984038E-26,-1.0702825038317097E-26,-3.2123466351094574E-26,-0.0571994165443746,-2.1409932063046804E-26,-1.0704966031523402E-26,-1.0704966031523402E-26,-1.0704966031523402E-26,-1.0704966031523402E-26,-2.141850031957283E-26,-1.0704966031523402E-26,-1.0704966031523402E-26,-1.0704966031523402E-26,-1.0704966031523402E-26,-2.445072305379323E-4,-0.0703136907224459,-0.0748781390769709,-0.0703136907224459,-0.0703136907224459,-0.0703136907224459,-2.1534774178071948E-26,-1.0711391581190816E-26,-1.0711391581190816E-26,-1.0711391581190816E-26,-1.0711391581190816E-26,-1.0711391581190816E-26,-1.0711391581190816E-26,-1.0713534288048425E-26,-1.0713534288048425E-26,-1.0715677423533132E-26,-3.234311541479505E-26,-1.0715677423533132E-26,-1.0715677423533132E-26,-1.0715677423533132E-26,-0.046015958720955596,-0.046015958720955596,-5.741418069342698E-26,-2.1588876579786537E-26,-1.0722109402607344E-26,-0.02872027553232544,-0.02872027553232544,-1.0724254253458035E-26,-0.015093827982538104,-4.6717302083389445E-26,-4.501466394117671E-26,-0.04186108133129865,-3.474783971443635E-26,-3.474783971443635E-26,-3.474783971443635E-26,-2.1619125201054984E-26,-2.154104845834801E-26,-0.04186108133129865,-3.4081049736852135E-26,-3.254021297868372E-26,-0.130598032699481,-3.009866970370157E-4,-2.765454005460544E-13,-3.241419046199689E-26,-0.013691553535153575,-0.04216206802833571,-1.0754327255321108E-26,-0.02240391472068912,-1.0756478551031314E-26,-2.152802822652199E-26,-0.046015958720955596,-0.046015958720955596,-1.0762935020577563E-26,-0.020881990002355917,-1.0762935020577563E-26,-0.046015958720955596,-0.046015958720955596,-0.046015958720955596,-0.046015958720955596,-0.05058040707548044,-0.046015958720955596,-0.046015958720955596,-0.046015958720955596,-0.046015958720955596,-0.046015958720955596,-0.060008498953146264,-0.2624046449253413,-0.046015958720955596,-2.1699379265507075E-26,-1.0769395365555608E-26,-1.0769395365555608E-26,-1.0769395365555608E-26,-1.0769395365555608E-26,-1.0769395365555608E-26,-3.5475558959606276E-26,-1.0769395365555608E-26,-1.0771549675490705E-26,-1.0771549675490705E-26,-1.0771549675490705E-26,-1.0773704416373981E-26,-1.0773704416373981E-26,-1.0773704416373981E-26,-1.0773704416373981E-26,-1.0773704416373981E-26,-1.0773704416373981E-26,-4.316170306825848E-26,-1.0778015191329904E-26,-1.0778015191329904E-26,-0.024870376487483904,-0.024870376487483904,-0.0385619300226374,-0.024870376487483904,-2.1579760134361246E-26,-1.0786641916414131E-26,-1.0786641916414131E-26,-1.0786641916414131E-26,-1.0788799676349402E-26,-2.1584074359144098E-26,-1.0801755303388309E-26,-1.0801755303388309E-26,-2.1819495810543383E-26,-1.0808238949856015E-26,0.0,0.0,0.0,0.0,0.0,0.0,0.0,-0.02240391472068912,0.0,0.0,0.0,-3.009866970370157E-4,0.0,0.0,-1.081256354277058E-26,-1.081256354277058E-26,-3.245716492596969E-26,-1.081256354277058E-26,-1.081256354277058E-26,-2.1629453408811655E-26,-1.081256354277058E-26,-1.0814726488068194E-26,-1.0816889866041403E-26,-1.0816889866041403E-26,-0.031067587862276834,-1.0816889866041403E-26,-2.1801632886905302E-26,-0.013691553535153575,-2.1644601383197546E-26,-0.015093827982538104,-0.004865435051561833,-0.004865435051561833,-0.004564448354524826,-0.004564448354524826,-0.004564448354524826,-0.004564448354524826,-1.0823382596880206E-26,-1.0823382596880206E-26,-1.0823382596880206E-26,-1.0823382596880206E-26,-1.0823382596880206E-26,-1.0823382596880206E-26,-1.0823382596880206E-26,-0.013691553535153575,-1.0823382596880206E-26,-1.0823382596880206E-26,-1.0825547706421491E-26,-1.0825547706421491E-26,-1.0825547706421491E-26,0.0,0.0,0.0,0.0,0.0,0.0,0.0,0.0,0.0,0.0,0.0,0.0,0.0,0.0,0.0,0.0,-1.086676717717911E-26,0.0,0.0,0.0,0.0,0.0,0.0,0.0,0.0,0.0,-0.02240391472068912,0.0,0.0,0.0,-1.0834212476538405E-26,-1.0836379752488903E-26,-1.0836379752488903E-26,-1.0836379752488903E-26,-1.0838547461981299E-26,-1.0838547461981299E-26,-1.0838547461981299E-26,-2.1700964025900275E-26,-2.1759773892272944E-26,-2.1685768363877415E-26,0.0,-0.0012039467881480629,-1.0847222637104644E-26,-1.0847222637104644E-26,-1.0847222637104644E-26,-0.0273188919814577,-1.0847222637104644E-26,-1.0847222637104644E-26,-1.0853733574888379E-26,0.0,0.0,0.0,-1.0853733574888379E-26,-0.031067587862553273,-1.0860248420797929E-26,-1.08515628281734E-26,-1.0853733574888379E-26,-0.021182976699392973,-1.0853733574888379E-26,0.0,0.0,-0.015093827982538104,0.0,-1.0860248420797929E-26,-1.0860248420797929E-26,-1.0860248420797929E-26,-1.0862420904978925E-26,-1.0864593823743673E-26,-1.0868940965372183E-26,-1.0868940965372183E-26,-3.009866970370157E-4,-3.009866973135592E-4,-3.009866970370157E-4,-3.009866970370157E-4,-3.009866970370157E-4,-3.009866970370157E-4,-3.009866970370157E-4,-3.009866970370157E-4,-3.009866970370157E-4,-3.009866970370157E-4,-3.009866970370157E-4,-3.009866970370157E-4,-3.009866970370157E-4,-3.009866970370157E-4,-3.009866970370157E-4,-3.009866970370157E-4,-3.009866970370157E-4,0.0,0.0,0.0,-0.020881990002355917,-0.020881990002355917,-1.0877640467460507E-26,0.0,-0.053471502582965874,-1.090378077452013E-26,0.0,-0.015093827982538104,-0.031067587862276834,-1.0888524637559204E-26,-1.0890702778114827E-26,-1.0890702778114827E-26,-1.0892881354385704E-26,-0.013691553535153575,0.0,0.0,0.0,0.0,0.0,-1.0899419698361552E-26,-1.0901600018365225E-26,-1.090378077452013E-26,-1.090378077452013E-26,-1.0905961966913512E-26,0.0,-1.0910325660764792E-26,-0.17452760487308633,0.0,0.0,-1.0923427221121292E-26,-1.0919058287169932E-26,-1.0919058287169932E-26,-0.06477863569554153,-1.0919058287169932E-26,0.0,-1.0923427221121292E-26,-1.092561234359001E-26,-2.1873099967455477E-26,-1.0927797903170644E-26,0.0,-1.3828523126590183E-26,0.0,0.0,0.0,0.0,-0.051087082160388216,-0.08215467002266504,-2.7654540054603714E-13,0.0,0.0,0.0,0.0,0.0,0.0,0.0,0.0,0.0,0.0,0.0,-0.013691553535153575,-0.013691553535153575,-0.013691553535153575,-0.013691553535153575,-0.013691553535153575,-2.7654540054603714E-13,-0.031067587862276834,-0.031067587862276834,-0.031067587862276834,-0.031067587862276834,-0.031067587862276834,-0.031067587862276834,-0.031067587862276834,-0.031067587862276834,-0.031067587862276834,-0.031067587862276834,-0.031067587862276834,-0.031067587862276834,0.0,0.0,0.0,0.0,0.0,0.0,0.0,0.0,0.0,0.0,0.0,0.0,0.0,0.0,0.0,0.0,0.0,0.0,0.0,0.0,0.0,0.0,0.0,0.0,0.0,0.0,-1.0962826375085873E-26,0.0,0.0,0.0,0.0,0.0,0.0,0.0,0.0,0.0,0.0,0.0,0.0,0.0,0.0,0.0,0.0,0.0,0.0,0.0,0.0,0.0,0.0,0.0,0.0,0.0,0.0,0.0,0.0,0.0,0.0,0.0,0.0,0.0,0.0,0.0,0.0,0.0,0.0,0.0,0.0,0.0,0.0,0.0,0.0,0.0,0.0,0.0,0.0,0.0,0.0,0.0,0.0,0.0,0.0,0.0,0.0,0.0,0.0,0.0,0.0,0.0,0.0,0.0,0.0,0.0,0.0,0.0,0.0,0.0,0.0,0.0,0.0,0.0,0.0,-1.0982579210128121E-26,0.0,0.0,0.0,0.0,0.0,-0.02240391472068912,0.0,0.0,0.0,0.0,0.0,0.0,0.0,0.0,0.0,-0.04186108133129865,0.0,0.0,0.0,0.0,0.0,0.0,-0.04186108133129865,0.0,0.0,-0.04186108133129865,-0.04186108133129865,-0.04186108133129865,-1.1017783280593876E-26,-1.1019987278049486E-26,0.0,0.0,0.0,0.0,0.0,0.0,0.0,0.0,0.0,0.0,-0.015093827982538104,0.0,-2.445072305379323E-4,-4.890144610758646E-4,-2.445072305379323E-4,-2.445072305379323E-4,-2.445072305379323E-4,0.0,0.0,0.0,0.0,0.0,0.0,0.0,0.0,0.0,0.0,0.0,0.0,0.0,0.0,0.0,0.0,0.0,0.0,0.0,0.0,0.0,0.0,0.0,0.0,0.0,0.0,0.0,0.0,0.0,0.0,0.0,-0.015093827982538104,0.0,0.0,0.0,0.0,0.0,0.0,0.0,0.0,0.0,0.0,0.0,0.0,0.0,0.0,0.0,0.0,0.0,0.0,0.0,0.0,0.0,0.0,0.0,0.0,0.0,0.0,0.0,0.0,0.0,0.0,0.0,0.0,0.0,0.0,0.0,0.0,0.0,0.0,0.0,0.0,0.0,0.0,0.0,0.0,0.0,0.0,0.0,-1.3828523126590183E-26,0.0,0.0,0.0,0.0,0.0,0.0,0.0,0.0,0.0,0.0,0.0,0.0,-0.02240391472068912,0.0,0.0,0.0,0.0,0.0,0.0,0.0,0.0,0.0,0.0,0.0,-0.02240391472068912,0.0,0.0,0.0,0.0,0.0,0.0,0.0,0.0,0.0,0.0,0.0,0.0,0.0,0.0,0.0,0.0,0.0,0.0,0.0,0.0,0.0,0.0,0.0,0.0,0.0,0.0,0.0,0.0,0.0,0.0,0.0,0.0,0.0,0.0,0.0,0.0,0.0,0.0,0.0,0.0,0.0,0.0,-0.004914977260768614,0.0,0.0,0.0,0.0,0.0,0.0,0.0,-0.08156586363301357,0.0,0.0,-0.007675623433586656,0.0,0.0,0.0,0.0,0.0,0.0,0.0,0.0,-0.02240391472068912,-0.02240391472068912,-0.02240391472068912,-0.02240391472068912,-0.02240391472068912,-0.02240391472068912,-0.02240391472068912,-0.02240391472068912,-0.02240391472068912,-0.02240391472068912,0.0,0.0,0.0,0.0,-0.004914977260768614,-0.004914977260768614,0.0,0.0,0.0,0.0,0.0,0.0,0.0,0.0,0.0,0.0,0.0,0.0,0.0,0.0,0.0,0.0,-2.0486633673240412E-26,0.0,0.0,0.0,0.0,0.0,0.0,0.0,-2.0486633673240412E-26,-2.0486633673240412E-26,0.0,-0.015093827982538104,-0.015093827982538104,-0.015093827982538104,-0.015093827982538104,0.0,0.0],"bias":-1.2300000000000009}