{"vocabulary":{"como":0,"compra":1,"pesadelos":2,"onde":3,"comprar":4,"quero":5,"consegue":6,"pega":7,"qual":8,"e":9,"a":10,"loja":11,"de":12,"o":13,"link":14,"para":15,"faz":16,"algumas":17,"perguntas":18,"sobre":19,"trocar":20,"senha":21,"se":22,"nao":23,"ta":24,"indo":25,"ela":26,"incorreta":27,"resetei":28,"sua":29,"troquei":30,"mudei":31,"redefini":32,"mas":33,"dono":34,"do":35,"plugin":36,"ainda":37,"atualizou":38,"pois":39,"era":40,"pra":41,"estar":42,"funcionando":43,"entao":44,"porque":45,"la":46,"no":47,"<#760262410098442270>":48,"mypet":49,"esta":50,"disponivel":51,"fez":52,"isso":53,"hoje":54,"voce":55,"matou":56,"ele":57,"eu":58,"perdi":59,"meu":60,"bichinho":61,"consigo":62,"chamar":63,"matei":64,"sniffer":65,"com":66,"laco":67,"kit":68,"noob":69,"por":70,"favor":71,"me":72,"ajudem":73,"tava":74,"querendo":75,"completar":76,"minha":77,";--;":78,"pior":79,"que":80,"to":81,"triste":82,"agora":83,"https://discordcom/channels/320248230917046282/332866197701918731/1253826917350506538":84,"essa":85,"foi":86,"ultima":87,"atualizacao":88,"conseguindo":89,"entrar":90,"causa":91,"versao":92,"sparklypower":93,"power":94,"na":95,"nova":96,"ah":97,"certoobrigada":98,"/warp":99,"reparar":100,"clica":101,"placa":102,"[reparar]":103,"repara":104,"pic":105,"monstra":106,"certo":107,"obg":108,"vai":109,"possibilitar":110,"logar":111,"sem":112,"colocar":113,"um":114,"periodo":115,"infelizmente":116,"recordo":117,"pode":118,"utilizar":119,"/lembrar":120,"/premium":121,"so":122,"ser":123,"utilizado":124,"minecraft":125,"java":126,"original":127,"portanto":128,"console":129,"celular":130,"bedrock":131,"em":132,"geral":133,"possivel":134,"ajudar":135,"logotenho":136,"ficar":137,"colocando":138,"toda":139,"vez":140,"cansativo":141,"quando":142,"mandoele":143,"diz":144,"parece":145,"oficial":146,"ou":147,"obtido":148,"legalmente":149,"gostaria":150,"ajudatenho":151,"mandar":152,"espero":153,"tenha":154,"feito":155,"certopois":156,"achei":157,"boa":158,"noite":159,"m_eeow03":160,"nickname":161,"=":162,"conta":163,"as":164,"coisas":165,"da":166,"antiga":167,"estao":168,"<@&332650495522897920>":169,"🤡":170,"":171,"cnt":172,"tou":173,"usando":174,"ag":175,"registrei":176,"esse":177,"discord":178,"foxy_zn8833":179,"ai":180,"tem":181,"passar":182,"nick":183,"p":184,"acho":185,"tinha":186,"transferir":187,"tudo":188,"li":189,"errado":190,"consegui":191,"microsoft":192,"usa":193,"/changepass":194,"<#830658622383980545>":195,"ola":196,"staff":197,"jogo":198,"mais":199,"tempo":200,"tentei":201,"retornar":202,"login":203,"conectada":204,"fazer":205,"vinculada":206,"alguma":207,"outra":208,"resolucao":209,"entendi":210,"obrigado":211,"pela":212,"atencao":213,"irei":214,"notificalo":215,"valor":216,"ja":217,"debitado":218,"/transactions":219,"mostra":220,"digitou":221,"chequei":222,"transacoes":223,"usuario":224,"tambem":225,"consta":226,"recebido":227,"sc0refl":228,"disse":229,"chegou":230,"economia":231,"liga":232,"nome":233,"escrito":234,"mandou":235,"caps":236,"lock":237,"ligado":238,"desculpe":239,"ops":240,"correto":241,"seria":242,"mandei":243,"tarde":244,"ao":245,"2kk":246,"alguns":247,"erros":248,"ortograficos":249,"passaram":250,"despercebidos":251,"acabei":252,"mandando":253,"poderiam":254,"ressarcir":255,"mim":256,"diretamente":257,"playerr":258,"sempre":259,"ando":260,"mochilas":261,"inv":262,"uso":263,"elas":264,"mt":265,"estranhei":266,"costumo":267,"guardar":268,"nenhum":269,"lugar":270,"aqui":271,"ver":272,"haviam":273,"3":274,"tenho":275,"uma":276,"print":277,"pouco":278,"antes":279,"off":280,"desloga":281,"seu":282,"inventario":283,"salvo":284,"ninguem":285,"mexer":286,"alterar":287,"qualquer":288,"coisa":289,"nada":290,"sumir":291,"provar":292,"tais":293,"loguei":294,"normalmente":295,"joguei":296,"fechei":297,"ir":298,"mercado":299,"fui":300,"deparo":301,"algo":302,"nunca":303,"ocorreu":304,"deixou":305,"bastante":306,"surpreso":307,"nem":308,"imaginava":309,"poderia":310,"acontecer":311,"entendo":312,"todos":313,"nos":314,"enganamos":315,"vezes":316,"fechar":317,"havia":318,"unidades":319,"mochila":320,"terra":321,"porem":322,"sumido":323,"ok":324,"duvidas":325,"encerrar":326,"tikcket":327,"obgg":328,"the":329,"boy":330,"farmar":331,"msm":332,"eta":333,"permitiu":334,"farm":335,"use":336,"apenas":337,"mesmo":338,"itens":339,"etc":340,"deixa":341,"caso":342,"voltar":343,"falar":344,"pegou":345,"permissao":346,"dele":347,"ban":348,"hm":349,"realmente":350,"usar":351,"problema":352,"podemos":353,"pessoa":354,"deixar":355,"kskks":356,"supostamente":357,"alt":358,"daily":359,"ahhh":360,"vimax99":361,"bom":362,"dia":363,"player":364,"amigo":365,"banido":366,"(nao":367,"sei":368,"motivo":369,"exato)":370,"trust":371,"(pois":372,"construi":373,"ele)":374,"autorizou":375,"queria":376,"saber":377,"forma":378,"posse":379,"(ele":380,"estando":381,"ciente":382,"acordo)":383,"algum":384,"canal":385,"comandos":386,"comando":387,"slash":388,"logada":389,"recebi":390,"os":391,"cargos":392,"membro":393,"vip":394,"faco":395,"agr":396,"puxar":397,"-bal":398,"ratoto_132":399,"outro":400,"cara":401,"botei":402,"m":403,"maiusculo":404,"pay":405,"ratoto":406,"pronto":407,"-mcuser":408,"setar":409,"xp":410,"criei":411,"id":412,"973754017236779068":413,"roubaram":414,"qr":415,"abrir":416,"denuncia":417,"dx":418,"ladrao":419,"n":420,"pagar":421,"pagou":422,"cria":423,"-money":424,"cebotarov":425,"trabalhando":426,"cobtratou":427,"deu":428,"terreno":429,"trabalhei":430,"devia":431,"desprotegido":432,"tirar":433,"perm":434,"tbm":435,"estranho":436,"depois":437,"dois":438,"sumirem":439,"aq":440,"ficou":441,"on":442,"uns":443,"10min":444,"dps":445,"terminei":446,"si":447,"lembro":448,"cebo":449,"v":450,"final":451,"vou":452,"coordenada":453,"saiu":454,"game":455,"amg":456,"entrou":457,"sv":458,"tirou":459,"area":460,"sairam":461,"2":462,"ate":463,"sinal":464,"deles":465,"oioi":466,"andares":467,"pro":468,"cobrei":469,"520k":470,"simplesmente":471,"carente":472,"enchendo":473,"saco":474,"abertamente":475,"<#320541695697616896>":476,"irritar":477,"provocar":478,"indiretas":479,"falando":480,"merda":481,"sentiu":482,"incomodado":483,"fato":484,"estou":485,"catalogando":486,"/lojas":487,"decidi":488,"suporte":489,"voces":490,"resolva":491,"255141045715599360":492,"''":493,"respeite":494,"membros":495,"irrite":496,"provoque":497,"nesse":498,"serao":499,"toleradas":500,"pessoas":501,"toxicas":502,"causam":503,"desordem":504,"conversar":505,"divertir":506,"ter":507,"aturar":508,"gente":509,"temos":510,"sentimentos":511,"limite":512,"paciencia":513,":nb::nde:":514,"regra":515,"inclui":516,"tentam":517,"provocar/iniciar":518,"brigas":519,"discussoes":520,"(qualquer":521,"motivo)":522,"contam":523,"spoilers":524,"usam":525,"contas":526,"fakes":527,"evasao":528,"denuncie":529,"mesmo''":530,"pressionei":531,"dizer":532,"quieto":533,"''era":534,"irmao":535,"vender''":536,"desconectou":537,"kkkkkkkkkk":538,"dai":539,"pulga":540,"cocou":541,"scam":542,"desse":543,"tu":544,"investe":545,"50m":546,"pagando":547,"levantar":548,"andar":549,"tal":550,"vender":551,"6m":552,"dinheiro":553,"primeiro":554,"/claim":555,"abobora":556,"35":557,"cavado":558,"baixo":559,"desvincilhando":560,"pergunta":561,"kkkkkkkk":562,"historico":563,"quem/onde":564,"dei":565,"tpa":566,"confirmar":567,"marcim":568,"acaso":569,"grana":570,"negocio":571,"souza1tzzzz":572,"das":573,"duas":574,"verificar":575,"criar":576,"contra":577,"oi":578,"carinha":579,"quer":580,"envie":581,"''claim/posse''":582,"for":583,"mom1ntzada7":584,"estava":585,"hackead":586,"perguntar":587,"porq":588,"sai":589,"daquela":590,"registrar":591,"avisar":592,"desativei":593,"aquela":594,"vim":595,"sou":596,"sido":597,"hackeda":598,"tbom":599,"https://bitly/sparklypower-unban":600,"faca":601,"formulario":602,"unban":603,"alguem":604,"responde":605,"abri":606,"querer":607,"banida":608,"pedir":609,"passou":610,"mes":611,"comprir":612,"aquele":613,"mod":614,"construir":615,"constroe":616,"sozinho":617,"schematic":618,"podem":619,"ticket":620,":)":621,"-unban":622,"guisenpaii22":623,"legal":624,"fosse":625,"call":626,"^^":627,"gosto":628,"conhecer":629,"jogar":630,"regras":631,"juntos":632,"claro":633,"te":634,"desbanir":635,"peco":636,"pelo":637,"vi":638,"respeitou":639,"evadiu":640,"novamente":641,"baniu":642,"-checkban":643,"bem":644,"(de":645,"acordo":646,"data":647,"falaram)":648,"deveria":649,"durar":650,"meses":651,"viro":652,"eterno":653,"ping":654,"assim":655,"dar":656,"colher":657,"ia":658,"resolver":659,"grande":660,"parte":661,"dos":662,"problemas":663,"ain":664,"quebrei":665,"elevador":666,"testei":667,"quebrar":668,"plantacao":669,"crescendo":670,"crescida":671,"descobri":672,"recentemente":673,"/containertrust":674,"(nick)":675,"acesso":676,"aos":677,"jogadores":678,"principal":679,"farms":680,"pedi":681,"testar":682,"funcionava":683,"conseguiu":684,"(podia":685,"cheio":686,"sla)":687,"muitos":688,"amigos":689,"teste":690,"enfim":691,"funciona":692,"esteja":693,"otimo":694,"quem":695,"aluga":696,"(colher)":697,"blocos":698,"resposta":699,"esclarecer":700,"perguntei":701,"zum":702,"podia":703,"falou":704,"pensando":705,"montar":706,"lojinha":707,"competir":708,"lojas":709,"10%":710,"resto":711,"precisa":712,"herbalismo":713,"duvida":714,"ruim":715,"primeira":716,"chamada":717,"alison00007":718,"cheguei":719,"conectar":720,"(nem":721,"nela)":722,"xxalisonkkjxx":723,"troca":724,"achar":725,"curto":726,"gostei":727,"numero":728,"xbox":729,"nojentinho":730,"dittom":731,"averiguar":732,"dia/boa":733,"klapa":734,"este":735,"meio":736,"desbanido":737,"gostava":738,"muito":739,"permanentemente":740,"aprendi":741,"(e":742,"cometi)":743,"nocao":744,"durante":745,"desda":746,"cresci":747,"prometo":748,"farei":749,"bug/xray":750,"3º":751,"oportunidade":752,"players":753,"frequentam":754,"quiserem":755,"cometi":756,"demasiados":757,"<:lori_hug:543220309336260619>":758,"abusei":759,"bug":760,"apanhei":761,"kamiao":762,"dupou":763,"outras":764,"palavras":765,"aproveitei-me":766,"deem":767,"meus":768,"comprimentos-":769,"(alex)":770,"aguardo":771,"provavelmente":772,"corretamente":773,"parado":774,"in-game":775,"morreu":776,"ghast":777,"tela":778,"morte":779,"entrei":780,"apareceu":781,"sentido":782,"morrido":783,"minerando":784,"pc":785,"desligou":786,"liguei":787,"mine":788,"morri":789,"bau":790,"seja":791,"picaretas":792,"monstras":793,"(eram":794,"5)":795,"minerios":796,"pa":797,"queimou":798,"lava":799,"desligado":800,"voltei":801,"cai":802,"nether":803,"man":804,"donada":805,"estiver":806,"entrando":807,"sla":808,"presiso":809,"nivel":810,"estarei":811,"fechando":812,"explicado":813,"resumo":814,"ler":815,"acontece":816,"identifica":817,"camadas":818,"superiores":819,"protegida":820,"dropares":821,"item":822,"comsegue":823,"tipo":824,"+250":825,"altura":826,"voa":827,"alto":828,"jetpack":829,"drop":830,"/spawn":831,"encontrei":832,"teria":833,"retirar":834,"1":835,"tumulo":836,"fiquei":837,"esqueci":838,"altera":839,"mudar":840,"muda":841,"recuperar":842,"redefinir":843,"redefine":844,"recupera":845,"troco":846,"hey":847,"posso":848,"oieee":849,"td":850,"servidores":851,"ontem":852,"rapaz":853},"weights":[0.1368438082577675,0.3239306750901841,1.1806149822341385,0.171154522291772,0.42396405253724934,0.16158125669854853,0.13014852048546724,0.17129151439880863,0.20756120053757393,0.02973894610749282,-0.008628409182414089,0.12734078090509743,0.03438535313643578,-0.027931623744641282,0.08155228784875593,-0.03629028477181593,-0.012196875647297437,-0.012196875647297437,-0.012196875647297437,-0.012196875647297437,-0.11169530967896182,-0.07311824766401555,-0.01138012575513062,-0.06401311520923939,-0.01453396606671875,-2.1403016294248735E-27,-2.1403016294248735E-27,-2.1403016294248735E-27,-2.1407297753799493E-27,-8.565488833799208E-27,-2.1411580069813455E-27,-2.141586324246195E-27,-2.142014727191633E-27,-0.023308530421708662,-2.1424432158348E-27,-0.09949843403166382,-0.013333704552058763,-0.008683283792048883,-2.1424432158348E-27,-0.017097512578350463,-0.011408992856318873,-0.021259147835956692,-0.007925443283898034,-0.007925443283898034,-0.010492633377110778,-0.008683283792048883,-0.013976182949531612,-0.022897795499155077,-0.008683283792048883,-2.1437291961221193E-27,-0.009119999278789825,-2.1437291961221193E-27,-2.1441580277276646E-27,-8.653860723036632E-5,-2.1441580277276646E-27,-0.03198873633167361,-2.1441580277276646E-27,-0.02047995916754242,-0.11444090922830726,-4.30078714867605E-27,-0.09949843403166382,-2.144586945116688E-27,-4.2986300049971024E-27,-2.1450159483063494E-27,-2.1454450373138122E-27,-2.1454450373138122E-27,-0.02473008852814357,-2.1454450373138122E-27,-2.1454450373138122E-27,-2.1454450373138122E-27,-0.013683446409814693,-0.011181304936866006,-0.029929889507512703,-0.011181304936866006,-0.04398499864962378,-0.03481292935517142,-0.03481292935517142,-0.0444546773013595,-0.03481292935517142,-0.0026665589218636226,-0.06850616131506673,-0.0026665589218636226,-0.0026665589218636226,-0.0026665589218636226,-0.049426835146464655,-0.0028789301312377867,-0.05804394460718645,-2.1475917702191135E-27,-2.1475917702191135E-27,-2.148451064706954E-27,-4.3115628527362545E-27,-0.04471024005512768,-0.005850671917100683,-0.005850671917100683,-0.005850671917100683,-0.022236079450921174,-0.008729602048338484,-0.026813552773364564,-0.026813552773364564,-0.01458331562633498,-0.01458331562633498,-0.01458331562633498,-0.01458331562633498,-0.01458331562633498,-0.07833218265635769,-0.07833218265635769,-0.07833218265635769,-0.023035851390002353,-0.022429224579227393,-6.066268107748927E-4,-6.066268107748927E-4,-6.066268107748927E-4,-6.066268107748927E-4,-6.066268107748927E-4,-6.066268107748927E-4,-6.066268107748927E-4,-6.066268107748927E-4,-6.066268107748927E-4,-0.023468537187447198,-4.3033529861508585E-27,-2.1514613039072174E-27,-6.4573974211777166E-27,-0.1132305029655113,-4.3037833644873324E-27,-2.1518916822436662E-27,-8.610580755057401E-27,-2.1518916822436662E-27,-2.1518916822436662E-27,-2.1518916822436662E-27,-4.305505738934386E-27,-2.1518916822436662E-27,-2.1518916822436662E-27,-0.015273603388343165,-2.1518916822436662E-27,-2.1518916822436662E-27,-0.005964680571280558,-3.7353011847187405E-7,-0.005770779432309337,-3.7353011847187405E-7,-3.7353011847187405E-7,-3.7353011847187405E-7,-3.7353011847187405E-7,-4.3288788863344065E-27,-2.1531833338792193E-27,-2.1531833338792193E-27,-2.1531833338792193E-27,-2.1531833338792193E-27,-4.3288788863344065E-27,-2.1531833338792193E-27,-2.1531833338792193E-27,-2.1536140566905575E-27,-2.1536140566905575E-27,-1.7485723604316528E-26,-2.1540448656636902E-27,-6.501550853500408E-27,-0.0034835495724208315,-2.1540448656636902E-27,-2.1540448656636902E-27,-0.026411278824873343,-0.026411278824873343,-0.03128664128248455,-0.010702465718289257,-0.010702465718289257,-0.010702476075858402,-0.016686539316327936,-4.311969167078557E-27,-0.05388230934958022,-0.024065426698608974,-2.1557689635189352E-27,-0.09949843403166382,-0.03315342830125011,-0.03246735188110974,-0.003961237732145225,-2.1579260265476893E-27,-2.1579260265476893E-27,-2.1579260265476893E-27,-4.345834966737758E-27,-0.01489160064599642,-1.035756910797013E-8,-0.03598632267979155,-4.348875528115493E-27,-0.17086386140710874,-4.344501885277244E-27,-2.0966856287275595E-9,-0.0028789322279234135,-0.012205172886588449,-2.1618141805124944E-27,-2.1618141805124944E-27,-2.1618141805124944E-27,-0.011245822062296528,-0.011245822062296528,-2.163111788029202E-27,-2.163111788029202E-27,-0.002617984521469934,-0.002617984521469934,-0.002617984521469934,-0.008149622194124068,-0.008149622194022339,0.0,-0.018344138588904827,-0.005770405902190868,0.0,0.0,0.0,0.0,-0.004825538776915175,0.0,0.0,0.0,0.0,-2.1648431430505593E-27,-2.1648431430505593E-27,-2.1648431430505593E-27,-2.1648431430505593E-27,-2.1648431430505593E-27,-2.1648431430505593E-27,-2.1648431430505593E-27,-0.013780989927434857,-2.1648431430505593E-27,-2.1652761982902174E-27,-2.1652761982902174E-27,-2.1652761982902174E-27,-2.1657093401582492E-27,-2.1657093401582492E-27,-1.7497818887784492E-26,-2.1657093401582492E-27,-2.1657093401582492E-27,-2.1657093401582492E-27,-0.013351468124137083,-2.1665758838487534E-27,-2.1665758838487534E-27,-0.013333704552058763,-0.013333704552058763,-0.013333704552058763,-0.013333704552058763,-4.3379218767438746E-27,-0.012478340311216325,-0.012478340311216325,-0.012478340311216325,-0.009455017385365375,-0.010797794292817577,-0.002630029447530152,-0.002630029447530152,-2.0966856287275595E-9,-2.1726514056567582E-27,0.0,0.0,0.0,0.0,0.0,0.0,0.0,0.0,0.0,0.0,0.0,0.0,0.0,0.0,-2.173520727006732E-27,-2.173520727006732E-27,-0.01399216000802016,-2.173520727006732E-27,-2.173520727006732E-27,-0.0075144700218754785,-0.013862276939724473,-8.616507711189491E-5,-2.174390396189592E-27,-2.174390396189592E-27,-2.174390396189592E-27,-2.174390396189592E-27,-4.382522310720962E-27,-2.1748253612618444E-27,-0.01399216000802016,-0.09949843403166382,-0.005770405902190868,-0.018426024769064093,-0.005770405902190868,-0.005770405902190868,-0.01059594467910602,-0.005770405902190868,-2.1756955524550043E-27,-2.1756955524550043E-27,-2.1756955524550043E-27,-2.1756955524550043E-27,-2.1756955524550043E-27,-2.1756955524550043E-27,-2.5288147124695626E-14,-2.1756955524550043E-27,-2.1756955524550043E-27,-2.1756955524550043E-27,-2.1756955524550043E-27,-0.01399216000802016,-0.01399216000802016,0.0,0.0,0.0,0.0,0.0,0.0,-1.5332109547625763E-26,0.0,0.0,0.0,0.0,0.0,0.0,0.0,0.0,0.0,-2.1844166373428886E-27,0.0,0.0,0.0,0.0,0.0,0.0,0.0,0.0,0.0,0.0,0.0,0.0,0.0,-0.016735975322017028,0.0,0.0,0.0,-0.0059808206284702094,-0.0059808206284702094,-0.0059808206284702094,-2.179179800430345E-27,-2.179179800430345E-27,-0.009057540853447002,0.0,-0.00529289915748271,-0.001809349585061837,-0.001809349585061837,-0.001809349585061837,-0.001809349585061837,-0.0066348883619770345,-0.001809349585061837,-2.181796647678606E-27,0.0,0.0,0.0,-2.181796647678606E-27,-0.00496439183280391,-0.004825538776915175,-0.010031406659590247,-0.004559999639394912,-0.017996576323653677,-2.181796647678606E-27,0.0,0.0,-0.09949843403166382,0.0,0.0,0.0,0.0,-0.009784621779449172,-0.03313169580841603,-0.008149622194022339,-0.008149622194022339,-0.004559999639394912,-2.2112324457823398E-27,0.0,0.0,0.0,0.0,0.0,0.0,0.0,0.0,0.0,0.0,-0.0022080564606782255,0.0,0.0,0.0,0.0,0.0,0.0,0.0,0.0,0.0,0.0,0.0,0.0,-1.035756910797013E-8,0.0,-0.012197443054969434,-0.009989386594291187,0.0,-0.09949843403166382,-2.9297592257009738E-15,0.0,-2.18879028018125E-27,-1.0747389427795038E-26,-1.0747389427795038E-26,-0.004559999639394912,-0.016070333400402717,0.0,0.0,0.0,-0.002187890594300179,-1.5332109547625763E-26,-2.190980384348706E-27,-2.1914186680823224E-27,-0.009989386594291187,-0.009989386594291187,0.0,-0.014891598549310811,-2.193172679935005E-27,0.0,0.0,0.0,-2.195806330398962E-27,0.0,0.0,-0.002187890594300179,0.0,0.0,-2.195806330398962E-27,-2.196245579514865E-27,-4.3968884857968265E-27,0.0,-0.002187890594300179,-0.002187890594300179,-0.008447941405224693,0.0,0.0,0.0,0.0,0.0,0.0,0.0,0.0,0.0,0.0,0.0,0.0,0.0,0.0,0.0,0.0,0.0,0.0,0.0,0.0,0.0,0.0,-2.207696949459043E-27,0.0,0.0,0.0,0.0,0.0,0.0,0.0,0.0,0.0,0.0,-0.0034835495724208315,0.0,0.0,0.0,0.0,0.0,0.0,0.0,0.0,0.0,0.0,0.0,0.0,0.0,0.0,0.0,0.0,0.0,0.0,0.0,0.0,0.0,0.0,0.0,0.0,0.0,0.0,0.0,0.0,-2.203726272550497E-27,0.0,0.0,0.0,0.0,0.0,0.0,0.0,0.0,-0.012340008798790702,0.0,0.0,0.0,0.0,0.0,0.0,0.0,0.0,0.0,0.0,0.0,0.0,-0.004825538776915175,-0.004825538776915175,-0.004825538776915175,-0.004825538776915175,-0.004825538776915175,-0.004825538776915175,-0.004825538776915175,-0.004825538776915175,-0.004825538776915175,-0.004825538776915175,-0.004825538776915175,-0.004825538776915175,-0.004825538776915175,-0.004825538776915175,-0.004825538776915175,-0.004825538776915175,-0.004825538776915175,0.0,0.0,0.0,0.0,0.0,0.0,0.0,0.0,-0.013862276939724473,-0.013862276939724473,-0.013862276939724473,-0.013862276939724473,0.0,-0.006714323052220877,0.0,0.0,0.0,0.0,-0.0034835495724208315,0.0,0.0,0.0,0.0,0.0,0.0,-0.0034835495724208315,-0.0034835495724208315,-0.0034835495724208315,-0.0034835495724208315,0.0,0.0,0.0,0.0,0.0,0.0,0.0,-2.207696949459043E-27,0.0,0.0,0.0,0.0,0.0,0.0,0.0,0.0,0.0,0.0,-2.2112324457823398E-27,0.0,0.0,0.0,0.0,0.0,-0.001753181271467027,-0.0018020919074854262,-0.001753181271467027,-0.0022080564606782255,-0.004416112921356451,-0.0022080564606782255,-0.0022080564606782255,-0.0022080564606782255,0.0,0.0,0.0,0.0,0.0,0.0,0.0,0.0,0.0,-0.0073505068627505565,-0.0073505068627505565,-0.0073505068627505565,0.0,0.0,0.0,0.0,0.0,0.0,0.0,-0.09949843403166382,0.0,0.0,0.0,0.0,0.0,0.0,0.0,0.0,0.0,0.0,0.0,0.0,0.0,0.0,0.0,0.0,-0.0075144700218754785,-0.0075144700218754785,-0.0075144700218754785,0.0,0.0,0.0,0.0,0.0,0.0,0.0,0.0,0.0,0.0,0.0,0.0,0.0,0.0,0.0,0.0,0.0,0.0,0.0,0.0,-0.09949843403166382,0.0,0.0,0.0,0.0,0.0,0.0,0.0,0.0,0.0,0.0,0.0,0.0,0.0,0.0,0.0,-0.004559999639394912,-0.004559999639394912,-0.004559999639394912,-0.004559999639394912,-0.004559999639394912,0.0,0.0,0.0,0.0,0.0,0.0,0.0,0.0,0.0,0.0,0.0,0.0,0.0,0.0,0.0,0.0,0.0,0.0,0.0,0.0,0.0,0.0,0.0,0.0,0.0,0.0,-0.00798134426107214,0.0,-0.009172069294452414,-0.009172069294452414,-0.009172069294452414,-0.009172069294452414,-0.009172069294452414,-0.009172069294452414,-0.009172069294452414,-0.009172069294452414,-0.009172069294452414,-0.009172069294452414,-0.009172069294452414,0.0,0.0,0.0,0.0,0.0,0.0,0.0,0.0,0.0,0.0,0.0,0.0,0.0,-0.05067262372963332,0.0,0.0,0.0,0.0,0.0,0.0,0.0,0.0,0.0,0.0,0.0,0.0,0.0,0.0,0.0,0.0,0.0,0.0,0.0,0.0,0.0,0.0,0.0,0.0,0.0,0.0,0.0,0.0,0.0,0.0,0.0,0.0,0.0,0.0,0.0,0.0,0.0,0.0,0.0,0.0,0.0,0.0,0.0,0.0,0.0,0.0,0.0,0.0,0.0,0.0,0.0,-0.12311633164392376,0.0,-4.891063601839406E-5,-0.04475915069114616,0.0,0.0,0.0,0.0,0.0,0.0,0.0,0.0,0.0,0.0,0.0,0.0,0.0,0.0,0.0,0.0,0.0,0.0,0.0,0.0,0.0,0.0,0.0,0.0,0.0,0.0,0.0,0.0,0.0,-9.271019639270913E-27,-9.271019639270913E-27,0.0,0.0,0.0,0.0,0.0,0.0,0.0,0.0,0.0,0.0,-0.006714323052220877,-0.020928824401757945,-0.006714323052220877,-0.00798134426107214,-0.00798134426107214,-0.00798134426107214,-0.020942739163488086,-0.020942739163488086,0.0,-0.014214501349537107,-0.014214501349537107,0.0,-0.09949843403166382,-0.09949843403166382,-0.09949843403166382,0.0,0.0,0.0,0.0,-0.009641747946163065,0.0,-2.9297592257009738E-15,0.0,0.0,0.0,0.0,0.0,0.0,0.0,0.0,0.0,0.0,-2.9297592257009738E-15],"bias":-1.0400000000000007}