{"vocabulary":{"como":0,"compra":1,"pesadelos":2,"onde":3,"comprar":4,"quero":5,"consegue":6,"consigo":7,"pega":8,"pego":9,"qual":10,"e":11,"a":12,"loja":13,"de":14,"o":15,"link":16,"para":17,"faz":18,"algumas":19,"perguntas":20,"sobre":21,"trocar":22,"senha":23,"se":24,"nao":25,"ta":26,"indo":27,"ela":28,"incorreta":29,"resetei":30,"sua":31,"troquei":32,"mudei":33,"redefini":34,"enviei":35,"errado":36,"pessoa":37,"errada":38,"mandei":39,"dei":40,"mas":41,"dono":42,"do":43,"plugin":44,"ainda":45,"atualizou":46,"pois":47,"era":48,"pra":49,"estar":50,"funcionando":51,"entao":52,"porque":53,"la":54,"no":55,"<#760262410098442270>":56,"mypet":57,"esta":58,"disponivel":59,"fez":60,"isso":61,"hoje":62,"voce":63,"matou":64,"ele":65,"eu":66,"perdi":67,"meu":68,"bichinho":69,"chamar":70,"matei":71,"sniffer":72,"com":73,"laco":74,"kit":75,"noob":76,"por":77,"favor":78,"me":79,"ajudem":80,"tava":81,"querendo":82,"completar":83,"minha":84,";--;":85,"pior":86,"que":87,"to":88,"triste":89,"agora":90,"https://discordcom/channels/320248230917046282/332866197701918731/1253826917350506538":91,"essa":92,"foi":93,"ultima":94,"atualizacao":95,"conseguindo":96,"entrar":97,"causa":98,"versao":99,"sparklypower":100,"power":101,"na":102,"nova":103,"ah":104,"certoobrigada":105,"/warp":106,"reparar":107,"clica":108,"placa":109,"[reparar]":110,"repara":111,"pic":112,"monstra":113,"certo":114,"obg":115,"vai":116,"possibilitar":117,"logar":118,"sem":119,"colocar":120,"um":121,"periodo":122,"infelizmente":123,"recordo":124,"pode":125,"utilizar":126,"/lembrar":127,"/premium":128,"so":129,"ser":130,"utilizado":131,"minecraft":132,"java":133,"original":134,"portanto":135,"console":136,"celular":137,"bedrock":138,"em":139,"geral":140,"possivel":141,"ajudar":142,"logotenho":143,"ficar":144,"colocando":145,"toda":146,"vez":147,"cansativo":148,"quando":149,"mandoele":150,"diz":151,"parece":152,"oficial":153,"ou":154,"obtido":155,"legalmente":156,"gostaria":157,"ajudatenho":158,"mandar":159,"espero":160,"tenha":161,"feito":162,"certopois":163,"achei":164,"boa":165,"noite":166,"m_eeow03":167,"nickname":168,"=":169,"conta":170,"as":171,"coisas":172,"da":173,"antiga":174,"estao":175,"<@&332650495522897920>":176,"🤡":177,"":178,"cnt":179,"tou":180,"usando":181,"ag":182,"registrei":183,"esse":184,"discord":185,"foxy_zn8833":186,"ai":187,"tem":188,"passar":189,"nick":190,"p":191,"acho":192,"tinha":193,"transferir":194,"tudo":195,"li":196,"consegui":197,"microsoft":198,"usa":199,"/changepass":200,"<#830658622383980545>":201,"ola":202,"staff":203,"jogo":204,"mais":205,"tempo":206,"tentei":207,"retornar":208,"login":209,"conectada":210,"fazer":211,"vinculada":212,"alguma":213,"outra":214,"resolucao":215,"entendi":216,"obrigado":217,"pela":218,"atencao":219,"irei":220,"notificalo":221,"valor":222,"ja":223,"debitado":224,"/transactions":225,"mostra":226,"digitou":227,"chequei":228,"transacoes":229,"usuario":230,"tambem":231,"consta":232,"recebido":233,"sc0refl":234,"disse":235,"chegou":236,"economia":237,"liga":238,"nome":239,"escrito":240,"mandou":241,"caps":242,"lock":243,"ligado":244,"desculpe":245,"ops":246,"correto":247,"seria":248,"tarde":249,"ao":250,"2kk":251,"alguns":252,"erros":253,"ortograficos":254,"passaram":255,"despercebidos":256,"acabei":257,"mandando":258,"poderiam":259,"ressarcir":260,"mim":261,"diretamente":262,"playerr":263,"sempre":264,"ando":265,"mochilas":266,"inv":267,"uso":268,"elas":269,"mt":270,"estranhei":271,"costumo":272,"guardar":273,"nenhum":274,"lugar":275,"aqui":276,"ver":277,"haviam":278,"3":279,"tenho":280,"uma":281,"print":282,"pouco":283,"antes":284,"off":285,"desloga":286,"seu":287,"inventario":288,"salvo":289,"ninguem":290,"mexer":291,"alterar":292,"qualquer":293,"coisa":294,"nada":295,"sumir":296,"provar":297,"tais":298,"loguei":299,"normalmente":300,"joguei":301,"fechei":302,"ir":303,"mercado":304,"fui":305,"deparo":306,"algo":307,"nunca":308,"ocorreu":309,"deixou":310,"bastante":311,"surpreso":312,"nem":313,"imaginava":314,"poderia":315,"acontecer":316,"entendo":317,"todos":318,"nos":319,"enganamos":320,"vezes":321,"fechar":322,"havia":323,"unidades":324,"mochila":325,"terra":326,"porem":327,"sumido":328,"ok":329,"duvidas":330,"encerrar":331,"tikcket":332,"obgg":333,"the":334,"boy":335,"farmar":336,"msm":337,"eta":338,"permitiu":339,"farm":340,"use":341,"apenas":342,"mesmo":343,"itens":344,"etc":345,"deixa":346,"caso":347,"voltar":348,"falar":349,"pegou":350,"permissao":351,"dele":352,"ban":353,"hm":354,"realmente":355,"usar":356,"problema":357,"podemos":358,"deixar":359,"kskks":360,"supostamente":361,"alt":362,"daily":363,"ahhh":364,"vimax99":365,"bom":366,"dia":367,"player":368,"amigo":369,"banido":370,"(nao":371,"sei":372,"motivo":373,"exato)":374,"trust":375,"(pois":376,"construi":377,"ele)":378,"autorizou":379,"queria":380,"saber":381,"forma":382,"posse":383,"(ele":384,"estando":385,"ciente":386,"acordo)":387,"algum":388,"canal":389,"comandos":390,"comando":391,"slash":392,"logada":393,"recebi":394,"os":395,"cargos":396,"membro":397,"vip":398,"faco":399,"agr":400,"puxar":401,"-bal":402,"ratoto_132":403,"outro":404,"cara":405,"botei":406,"m":407,"maiusculo":408,"pay":409,"ratoto":410,"pronto":411,"-mcuser":412,"setar":413,"xp":414,"criei":415,"id":416,"973754017236779068":417,"roubaram":418,"qr":419,"abrir":420,"denuncia":421,"dx":422,"ladrao":423,"n":424,"pagar":425,"pagou":426,"cria":427,"-money":428,"cebotarov":429,"trabalhando":430,"cobtratou":431,"deu":432,"terreno":433,"trabalhei":434,"devia":435,"desprotegido":436,"tirar":437,"perm":438,"tbm":439,"estranho":440,"depois":441,"dois":442,"sumirem":443,"aq":444,"ficou":445,"on":446,"uns":447,"10min":448,"dps":449,"terminei":450,"si":451,"lembro":452,"cebo":453,"v":454,"final":455,"vou":456,"coordenada":457,"saiu":458,"game":459,"amg":460,"entrou":461,"sv":462,"tirou":463,"area":464,"sairam":465,"2":466,"ate":467,"sinal":468,"deles":469,"oioi":470,"andares":471,"pro":472,"cobrei":473,"520k":474,"simplesmente":475,"carente":476,"enchendo":477,"saco":478,"abertamente":479,"<#320541695697616896>":480,"irritar":481,"provocar":482,"indiretas":483,"falando":484,"merda":485,"sentiu":486,"incomodado":487,"fato":488,"estou":489,"catalogando":490,"/lojas":491,"decidi":492,"suporte":493,"voces":494,"resolva":495,"255141045715599360":496,"''":497,"respeite":498,"membros":499,"irrite":500,"provoque":501,"nesse":502,"serao":503,"toleradas":504,"pessoas":505,"toxicas":506,"causam":507,"desordem":508,"conversar":509,"divertir":510,"ter":511,"aturar":512,"gente":513,"temos":514,"sentimentos":515,"limite":516,"paciencia":517,":nb::nde:":518,"regra":519,"inclui":520,"tentam":521,"provocar/iniciar":522,"brigas":523,"discussoes":524,"(qualquer":525,"motivo)":526,"contam":527,"spoilers":528,"usam":529,"contas":530,"fakes":531,"evasao":532,"denuncie":533,"mesmo''":534,"pressionei":535,"dizer":536,"quieto":537,"''era":538,"irmao":539,"vender''":540,"desconectou":541,"kkkkkkkkkk":542,"dai":543,"pulga":544,"cocou":545,"scam":546,"desse":547,"tu":548,"investe":549,"50m":550,"pagando":551,"levantar":552,"andar":553,"tal":554,"vender":555,"6m":556,"dinheiro":557,"primeiro":558,"/claim":559,"abobora":560,"35":561,"cavado":562,"baixo":563,"desvincilhando":564,"pergunta":565,"kkkkkkkk":566,"historico":567,"quem/onde":568,"tpa":569,"confirmar":570,"marcim":571,"acaso":572,"grana":573,"negocio":574,"souza1tzzzz":575,"das":576,"duas":577,"verificar":578,"criar":579,"contra":580,"oi":581,"carinha":582,"quer":583,"envie":584,"''claim/posse''":585,"for":586,"mom1ntzada7":587,"estava":588,"hackead":589,"perguntar":590,"porq":591,"sai":592,"daquela":593,"registrar":594,"avisar":595,"desativei":596,"aquela":597,"vim":598,"sou":599,"sido":600,"hackeda":601,"tbom":602,"https://bitly/sparklypower-unban":603,"faca":604,"formulario":605,"unban":606,"alguem":607,"responde":608,"abri":609,"querer":610,"banida":611,"pedir":612,"passou":613,"mes":614,"comprir":615,"aquele":616,"mod":617,"construir":618,"constroe":619,"sozinho":620,"schematic":621,"podem":622,"ticket":623,":)":624,"-unban":625,"guisenpaii22":626,"legal":627,"fosse":628,"call":629,"^^":630,"gosto":631,"conhecer":632,"jogar":633,"regras":634,"juntos":635,"claro":636,"te":637,"desbanir":638,"peco":639,"pelo":640,"vi":641,"respeitou":642,"evadiu":643,"novamente":644,"baniu":645,"-checkban":646,"bem":647,"(de":648,"acordo":649,"data":650,"falaram)":651,"deveria":652,"durar":653,"meses":654,"viro":655,"eterno":656,"ping":657,"assim":658,"dar":659,"colher":660,"ia":661,"resolver":662,"grande":663,"parte":664,"dos":665,"problemas":666,"ain":667,"quebrei":668,"elevador":669,"testei":670,"quebrar":671,"plantacao":672,"crescendo":673,"crescida":674,"descobri":675,"recentemente":676,"/containertrust":677,"(nick)":678,"acesso":679,"aos":680,"jogadores":681,"principal":682,"farms":683,"pedi":684,"testar":685,"funcionava":686,"conseguiu":687,"(podia":688,"cheio":689,"sla)":690,"muitos":691,"amigos":692,"teste":693,"enfim":694,"funciona":695,"esteja":696,"otimo":697,"quem":698,"aluga":699,"(colher)":700,"blocos":701,"resposta":702,"esclarecer":703,"perguntei":704,"zum":705,"podia":706,"falou":707,"pensando":708,"montar":709,"lojinha":710,"competir":711,"lojas":712,"10%":713,"resto":714,"precisa":715,"herbalismo":716,"duvida":717,"ruim":718,"primeira":719,"chamada":720,"alison00007":721,"cheguei":722,"conectar":723,"(nem":724,"nela)":725,"xxalisonkkjxx":726,"troca":727,"achar":728,"curto":729,"gostei":730,"numero":731,"xbox":732,"nojentinho":733,"dittom":734,"averiguar":735,"dia/boa":736,"klapa":737,"este":738,"meio":739,"desbanido":740,"gostava":741,"muito":742,"permanentemente":743,"aprendi":744,"(e":745,"cometi)":746,"nocao":747,"durante":748,"desda":749,"cresci":750,"prometo":751,"farei":752,"bug/xray":753,"3º":754,"oportunidade":755,"players":756,"frequentam":757,"quiserem":758,"cometi":759,"demasiados":760,"<:lori_hug:543220309336260619>":761,"abusei":762,"bug":763,"apanhei":764,"kamiao":765,"dupou":766,"outras":767,"palavras":768,"aproveitei-me":769,"deem":770,"meus":771,"comprimentos-":772,"(alex)":773,"aguardo":774,"provavelmente":775,"corretamente":776,"parado":777,"in-game":778,"morreu":779,"ghast":780,"tela":781,"morte":782,"entrei":783,"apareceu":784,"sentido":785,"morrido":786,"minerando":787,"pc":788,"desligou":789,"liguei":790,"mine":791,"morri":792,"bau":793,"seja":794,"picaretas":795,"monstras":796,"(eram":797,"5)":798,"minerios":799,"pa":800,"queimou":801,"lava":802,"desligado":803,"voltei":804,"cai":805,"nether":806,"man":807,"donada":808,"estiver":809,"entrando":810,"sla":811,"presiso":812,"nivel":813,"estarei":814,"fechando":815,"explicado":816,"resumo":817,"ler":818,"acontece":819,"identifica":820,"camadas":821,"superiores":822,"protegida":823,"dropares":824,"item":825,"comsegue":826,"tipo":827,"+250":828,"altura":829,"voa":830,"alto":831,"jetpack":832,"drop":833,"/spawn":834,"encontrei":835,"teria":836,"retirar":837,"1":838,"tumulo":839,"fiquei":840,"esqueci":841,"altera":842,"mudar":843,"muda":844,"recuperar":845,"redefinir":846,"redefine":847,"recupera":848,"troco":849,"hey":850,"posso":851,"oieee":852,"td":853,"servidores":854,"ontem":855,"rapaz":856},"weights":[0.3239066812616224,0.3349902669422303,1.091722525527167,0.16751188465957986,0.4821817840897238,0.16757890952023158,0.12792633914847856,0.13751502585905087,0.16767949709829233,0.16771303970623358,0.303146939045019,0.04244171607873797,-0.20158319121888046,0.13192995525448734,0.02698718815815338,-0.037885029951723846,0.14705748083116005,-0.24877433842502497,-0.024681085818162647,-0.024681085818162647,-0.024681085818162647,-0.024681085818162647,-0.1153214887327627,-0.07205716936065605,-3.905571306459186E-27,-0.09538682992698116,-0.009580229258243908,-6.448270042887753E-28,-6.448270042887753E-28,-6.448270042887753E-28,-6.449559954878729E-28,-2.5805981872058898E-27,-6.45085012490371E-28,-6.452140553014313E-28,-6.453431239262165E-28,-0.2092008787564978,-0.16801522528269036,-0.3051914163415835,-0.3051914163415835,-0.14781878493045866,-0.11618697793732079,-0.008199299093326045,-6.459888544367856E-28,-0.09064040291459935,-0.045109133024357616,-0.00246846026340542,-6.459888544367856E-28,-2.2501761768365713E-5,-0.011426956960449522,-0.04513163478612581,-2.2501761768365713E-5,-2.2501761768365713E-5,-0.00246846026340542,-0.002474904625366662,-0.013872915462086516,-0.01796047787912686,-0.00246846026340542,-6.463766028384673E-28,-6.463766028384673E-28,-6.463766028384673E-28,-6.465059040192712E-28,-6.444361961234401E-6,-6.465059040192712E-28,-0.03969253848238193,-6.465059040192712E-28,-0.027584837035958206,-0.13169100543165602,-0.0066982417607865325,-0.09929667200686852,-6.4663523106548425E-28,-0.021474666247555015,-6.468939627748357E-28,-6.468939627748357E-28,-0.018610207279842948,-6.468939627748357E-28,-6.468939627748357E-28,-6.468939627748357E-28,-0.005885864555822022,-0.005885864555822022,-0.015143527340651814,-0.005885864555822022,-0.03581663376955394,-0.03581663376955394,-0.03581663376955394,-0.055392570039055414,-0.03581663376955394,-0.010864477952286464,-0.03710205227069428,-0.010864477952286464,-0.010864477952286464,-0.010864477952286464,-0.02961246516776526,-0.0030633274109423407,-0.05676626383453929,-6.47541245055191E-28,-6.47541245055191E-28,-6.47800339278889E-28,-1.3000211755838807E-27,-0.011657130810181509,-0.00711176899483851,-0.00711176899483851,-0.00711176899483851,-0.03257303943953037,-0.010175096405780813,-0.01968695274515145,-0.01968695274515145,-0.009813357369105725,-0.009813357369105725,-0.009813357369105725,-0.009813357369105725,-0.009813357369105725,-0.12800976675920314,-0.12800976675920314,-0.12800976675920314,-0.01347928804310574,-0.01347928804310574,-1.2974159974050774E-27,-6.485782441286538E-28,-6.485782441286538E-28,-6.485782441286538E-28,-6.485782441286538E-28,-1.3064329338730395E-27,-6.485782441286538E-28,-6.485782441286538E-28,-6.485782441286538E-28,-0.01035968970181389,-1.2622641832108413E-9,-1.2622641832108413E-9,-0.008656269092269091,-0.09064406777618825,-1.2976755065529085E-27,-6.488377532764542E-28,-0.008656269092269091,-6.488377532764542E-28,-6.488377532764542E-28,-6.488377532764542E-28,-0.008656269092269091,-6.488377532764542E-28,-6.488377532764542E-28,-0.018580867038261673,-6.488377532764542E-28,-6.488377532764542E-28,-7.4736838989719E-20,-6.4909736625906325E-28,-1.304981252530793E-27,-6.4909736625906325E-28,-6.4909736625906325E-28,-6.4909736625906325E-28,-6.4909736625906325E-28,-6.444361961234401E-6,-6.492272117014036E-28,-6.492272117014036E-28,-6.492272117014036E-28,-6.492272117014036E-28,-6.444361961234401E-6,-6.492272117014036E-28,-6.492272117014036E-28,-0.008656269092269091,-0.008656269092269091,-0.008656269092269091,-6.4948698051413005E-28,-1.9603457197248095E-27,-0.011404455198681105,-6.4948698051413005E-28,-6.4948698051413005E-28,-0.015583586427339178,-0.015583586427339178,-0.02262549413546491,-0.01344138400439053,-0.01344138400439053,-0.01344138400439053,-0.007199307719200661,-1.3001436873660438E-27,-0.011657130810181509,-3.9042057858879915E-27,-6.5000682999728785E-28,-0.09064040291459935,-0.02830247301636557,-0.023664848371859865,-6.506572270134578E-28,-6.506572270134578E-28,-6.506572270134578E-28,-6.506572270134578E-28,-1.3103548934156255E-27,-0.02430838519546692,-6.507873844903559E-28,-0.01573472110734729,-1.3112716825966542E-27,-0.1695682536386346,-1.3099529430819287E-27,-1.3061434811668023E-27,-0.0030633274109423407,-2.7924181255694614E-27,-6.518295820644737E-28,-6.518295820644737E-28,-6.518295820644737E-28,-6.519599740592856E-28,-6.522208363049741E-28,-6.522208363049741E-28,-0.007176411839580582,-0.007176411839580582,-0.007176411839580582,-2.6298506654661962E-27,-1.9701512166512455E-27,0.0,0.0,-6.558838862716738E-28,0.0,0.0,0.0,0.0,0.0,0.0,0.0,0.0,0.0,-6.5274287396674445E-28,-6.5274287396674445E-28,-6.5274287396674445E-28,-6.5274287396674445E-28,-6.5274287396674445E-28,-6.5274287396674445E-28,-6.5274287396674445E-28,-0.01564791307558602,-6.5274287396674445E-28,-6.528734486564757E-28,-6.528734486564757E-28,-6.528734486564757E-28,-6.53004049466369E-28,-6.53004049466369E-28,-6.53004049466369E-28,-6.53004049466369E-28,-6.53004049466369E-28,-6.53004049466369E-28,-1.7506484731799358E-4,-6.532653294675429E-28,-6.532653294675429E-28,-0.045109133024357616,-0.045109133024357616,-0.045109133024357616,-0.045109133024357616,-1.3079689408254178E-27,-2.6220255340117976E-27,-2.6220255340117976E-27,-2.6220255340117976E-27,-3.614059597066159E-27,-6.215466362878912E-27,-6.547042393085593E-28,-6.547042393085593E-28,-6.5509721903355385E-28,0.0,0.0,0.0,0.0,0.0,0.0,0.0,0.0,0.0,0.0,0.0,0.0,0.0,0.0,-6.553593365538019E-28,-6.553593365538019E-28,-0.026237573056143795,-6.553593365538019E-28,-6.553593365538019E-28,-0.007199307719200661,-0.010029778458027369,-6.5549043464073005E-28,-6.556215589525205E-28,-6.556215589525205E-28,-6.556215589525205E-28,-6.556215589525205E-28,-6.6566414119355695E-28,0.0,-0.026237573056143795,-0.09064040291459935,-3.6648615885321428E-6,-0.01140812006026963,-6.558838862716738E-28,-6.558838862716738E-28,-6.558838862716738E-28,-6.558838862716738E-28,-6.444361961234401E-6,-6.444361961234401E-6,-6.444361961234401E-6,-6.444361961234401E-6,-6.444361961234401E-6,-6.444361961234401E-6,-6.444361961234401E-6,-6.444361961234401E-6,-6.444361961234401E-6,-6.444361961234401E-6,-6.444361961234401E-6,-0.026237573056143795,-0.026237573056143795,0.0,0.0,0.0,0.0,0.0,0.0,0.0,0.0,0.0,0.0,0.0,0.0,0.0,0.0,0.0,0.0,-6.586446682648491E-28,0.0,0.0,0.0,0.0,0.0,0.0,0.0,0.0,0.0,0.0,0.0,0.0,0.0,-3.806799197415794E-27,0.0,0.0,0.0,-6.569342455924997E-28,-6.569342455924997E-28,-6.569342455924997E-28,-6.570656587242445E-28,-6.570656587242445E-28,-1.3143941962877465E-27,0.0,-0.011404455198681105,0.0,0.0,0.0,0.0,0.0,0.0,-6.578546897443648E-28,0.0,0.0,0.0,-6.578546897443648E-28,-0.008199299093326045,0.0,-1.6448757372488574E-27,-6.578546897443648E-28,-0.013448519802012728,-6.578546897443648E-28,0.0,-0.09064040291459935,0.0,0.0,0.0,0.0,-1.705534472228629E-27,-0.0361138028125085,-6.58776423549559E-28,-6.58776423549559E-28,0.0,-6.667301630152193E-28,0.0,0.0,-0.0066982417607865325,0.0,0.0,0.0,0.0,-9.406958199838562E-28,0.0,0.0,0.0,0.0,0.0,0.0,0.0,0.0,0.0,0.0,0.0,0.0,0.0,0.0,0.0,0.0,0.0,-0.003147491996426629,-0.003147491996426629,0.0,-0.09064040291459935,0.0,0.0,-6.599634077796176E-28,-6.6009542686499055E-28,-6.6009542686499055E-28,0.0,-0.010029778458027369,0.0,0.0,0.0,-0.006110170788403125,0.0,-1.9110606798773575E-27,-6.607559185340124E-28,-0.003147491996426629,-0.003147491996426629,0.0,-0.02430838519546692,-6.61284787676965E-28,0.0,0.0,0.0,-6.62078885197788E-28,0.0,0.0,-0.006110170788403125,0.0,0.0,-6.62078885197788E-28,-6.622113274632806E-28,-1.3257485356126264E-27,0.0,-0.006110170788403125,-0.006110170788403125,-0.019603754292007135,0.0,0.0,0.0,0.0,0.0,0.0,0.0,0.0,0.0,0.0,0.0,0.0,0.0,0.0,0.0,0.0,0.0,0.0,0.0,0.0,0.0,0.0,-6.6566414119355695E-28,0.0,0.0,0.0,0.0,0.0,0.0,0.0,0.0,0.0,0.0,-0.011404455198681105,0.0,0.0,-9.406958199838562E-28,-9.406958199838562E-28,-9.406958199838562E-28,-9.406958199838562E-28,-9.406958199838562E-28,0.0,0.0,0.0,0.0,0.0,0.0,0.0,0.0,0.0,0.0,0.0,0.0,0.0,0.0,0.0,0.0,0.0,0.0,0.0,0.0,0.0,-6.6446690384857975E-28,0.0,0.0,0.0,0.0,0.0,0.0,0.0,0.0,-0.007199307719200661,0.0,0.0,0.0,0.0,0.0,0.0,0.0,0.0,0.0,0.0,0.0,0.0,0.0,0.0,0.0,0.0,0.0,0.0,0.0,0.0,0.0,0.0,0.0,0.0,0.0,0.0,0.0,0.0,0.0,0.0,0.0,0.0,0.0,0.0,0.0,0.0,0.0,-0.010029778458027369,-0.010029778458027369,-0.010029778458027369,-0.010029778458027369,0.0,-0.010315585004901887,0.0,0.0,0.0,0.0,-0.011404455198681105,0.0,0.0,0.0,0.0,0.0,0.0,-0.011404455198681105,-0.011404455198681105,-0.011404455198681105,-0.011404455198681105,0.0,0.0,0.0,0.0,0.0,0.0,-6.6566414119355695E-28,0.0,0.0,0.0,0.0,-3.6648615885321428E-6,0.0,0.0,0.0,0.0,0.0,-6.667301630152193E-28,0.0,0.0,0.0,0.0,0.0,0.0,-0.01564791307558602,0.0,0.0,0.0,0.0,0.0,0.0,0.0,0.0,0.0,0.0,0.0,0.0,0.0,0.0,0.0,-0.010334717021231133,-0.010334717021231133,-0.010334717021231133,0.0,0.0,0.0,0.0,0.0,0.0,0.0,-0.09064040291459935,0.0,0.0,0.0,0.0,0.0,0.0,0.0,0.0,0.0,0.0,0.0,0.0,0.0,0.0,0.0,0.0,-0.007199307719200661,-0.007199307719200661,-0.007199307719200661,0.0,0.0,0.0,0.0,0.0,0.0,0.0,0.0,0.0,0.0,0.0,0.0,0.0,0.0,0.0,0.0,0.0,0.0,0.0,0.0,-0.09064040291459935,0.0,0.0,0.0,0.0,0.0,0.0,0.0,0.0,0.0,0.0,0.0,0.0,0.0,0.0,0.0,0.0,0.0,0.0,0.0,0.0,0.0,0.0,0.0,0.0,0.0,0.0,0.0,0.0,0.0,0.0,0.0,0.0,0.0,0.0,0.0,0.0,0.0,0.0,0.0,0.0,0.0,0.0,0.0,0.0,0.0,0.0,-0.005741816002509257,0.0,0.0,0.0,0.0,0.0,0.0,0.0,0.0,0.0,0.0,0.0,0.0,0.0,0.0,0.0,0.0,0.0,0.0,0.0,0.0,0.0,0.0,0.0,0.0,0.0,-0.027800147272992386,0.0,0.0,0.0,0.0,0.0,0.0,0.0,0.0,0.0,0.0,0.0,0.0,0.0,0.0,0.0,0.0,0.0,0.0,0.0,0.0,0.0,0.0,0.0,0.0,0.0,0.0,0.0,0.0,0.0,0.0,0.0,0.0,0.0,0.0,0.0,0.0,0.0,0.0,0.0,0.0,0.0,0.0,0.0,0.0,0.0,0.0,0.0,0.0,0.0,0.0,0.0,-0.17638329907194383,0.0,-0.01564791307558602,-0.027305043885767603,0.0,0.0,0.0,0.0,0.0,0.0,0.0,0.0,0.0,0.0,0.0,0.0,0.0,0.0,0.0,0.0,0.0,0.0,0.0,0.0,0.0,0.0,0.0,0.0,0.0,0.0,0.0,0.0,0.0,0.0,0.0,0.0,0.0,0.0,0.0,0.0,0.0,0.0,0.0,0.0,0.0,-0.010315585004901887,-0.017151333528354164,-0.010315585004901887,-0.005741816002509257,-0.005741816002509257,-0.005741816002509257,-0.025583744387364094,-0.025583744387364094,0.0,-0.006835748523452296,-0.006835748523452296,0.0,-0.09064040291459935,-0.09064040291459935,-0.09064040291459935,0.0,0.0,-0.012877694508714696,0.0,0.0,0.0,-0.019575936269501246,0.0,0.0,0.0,0.0,-0.012877694508714696,-0.012877694508714696,0.0,0.0,0.0,0.0,0.0],"bias":-1.0300000000000007}