{"vocabulary":{"eu":0,"esqueci":1,"a":2,"minha":3,"senha":4,"nao":5,"lembro":6,"como":7,"troca":8,"trocar":9,"alterar":10,"altera":11,"mudar":12,"muda":13,"quero":14,"queria":15,"recuperar":16,"redefinir":17,"redefine":18,"recupera":19,"ou":20,"troco":21,"da":22,"conta":23,"hey":24,"posso":25,"oieee":26,"td":27,"bem":28,"sou":29,"nova":30,"em":31,"servidores":32,"de":33,"minecraft":34,"e":35,"entrei":36,"pela":37,"primeira":38,"vez":39,"no":40,"sparklypower":41,"ontem":42,"mas":43,"que":44,"faco":45,"pra":46,"oi":47,"registrar":48,"novamente":49,"rapaz":50,"para":51,"antiga":52,"perdi":53,"sei":54,"login":55,"do":56,"mine":57,"gostaria":58,"saber":59,"faz":60,"algumas":61,"perguntas":62,"sobre":63,"se":64,"ta":65,"indo":66,"ela":67,"incorreta":68,"resetei":69,"sua":70,"troquei":71,"mudei":72,"redefini":73,"ola":74,"boa":75,"tarde":76,"atualmente":77,"jogo":78,"pelo":79,"original":80,"pc":81,"eventualmente":82,"comprei":83,"o":84,"iphone":85,"consiguirei":86,"jogar":87,"ambos":88,"atraves":89,"normalmente":90,"enviei":91,"pesadelos":92,"errado":93,"pessoa":94,"errada":95,"mandei":96,"dei":97,"dono":98,"plugin":99,"ainda":100,"atualizou":101,"pois":102,"era":103,"estar":104,"funcionando":105,"entao":106,"porque":107,"la":108,"<#760262410098442270>":109,"mypet":110,"esta":111,"disponivel":112,"fez":113,"isso":114,"hoje":115,"voce":116,"matou":117,"ele":118,"meu":119,"bichinho":120,"consigo":121,"chamar":122,"matei":123,"sniffer":124,"com":125,"laco":126,"kit":127,"noob":128,"por":129,"favor":130,"me":131,"ajudem":132,"tava":133,"querendo":134,"completar":135,"loja":136,";--;":137,"pior":138,"to":139,"triste":140,"agora":141,"https://discordcom/channels/320248230917046282/332866197701918731/1253826917350506538":142,"essa":143,"foi":144,"ultima":145,"atualizacao":146,"conseguindo":147,"entrar":148,"causa":149,"versao":150,"power":151,"na":152,"ah":153,"certoobrigada":154,"/warp":155,"reparar":156,"clica":157,"placa":158,"[reparar]":159,"repara":160,"pic":161,"monstra":162,"certo":163,"obg":164,"vai":165,"possibilitar":166,"logar":167,"sem":168,"colocar":169,"um":170,"periodo":171,"infelizmente":172,"recordo":173,"qual":174,"pode":175,"utilizar":176,"/lembrar":177,"/premium":178,"so":179,"ser":180,"utilizado":181,"java":182,"portanto":183,"console":184,"celular":185,"bedrock":186,"geral":187,"possivel":188,"ajudar":189,"logotenho":190,"ficar":191,"colocando":192,"toda":193,"cansativo":194,"quando":195,"mandoele":196,"diz":197,"parece":198,"oficial":199,"obtido":200,"legalmente":201,"ajudatenho":202,"mandar":203,"espero":204,"tenha":205,"feito":206,"certopois":207,"achei":208,"noite":209,"m_eeow03":210,"nickname":211,"=":212,"as":213,"coisas":214,"estao":215,"<@&332650495522897920>":216,"🤡":217,"":218,"cnt":219,"tou":220,"usando":221,"ag":222,"registrei":223,"esse":224,"discord":225,"foxy_zn8833":226,"ai":227,"tem":228,"passar":229,"nick":230,"p":231,"acho":232,"tinha":233,"transferir":234,"tudo":235,"li":236,"consegui":237,"microsoft":238,"usa":239,"/changepass":240,"<#830658622383980545>":241,"staff":242,"mais":243,"tempo":244,"tentei":245,"retornar":246,"conectada":247,"fazer":248,"vinculada":249,"alguma":250,"outra":251,"resolucao":252,"entendi":253,"obrigado":254,"atencao":255,"irei":256,"notificalo":257,"valor":258,"ja":259,"debitado":260,"/transactions":261,"mostra":262,"digitou":263,"chequei":264,"transacoes":265,"usuario":266,"tambem":267,"consta":268,"recebido":269,"sc0refl":270,"disse":271,"chegou":272,"economia":273,"liga":274,"nome":275,"escrito":276,"mandou":277,"caps":278,"lock":279,"ligado":280,"desculpe":281,"ops":282,"correto":283,"seria":284,"ao":285,"2kk":286,"alguns":287,"erros":288,"ortograficos":289,"passaram":290,"despercebidos":291,"acabei":292,"mandando":293,"poderiam":294,"ressarcir":295,"mim":296,"diretamente":297,"playerr":298,"sempre":299,"ando":300,"mochilas":301,"inv":302,"uso":303,"elas":304,"mt":305,"estranhei":306,"costumo":307,"guardar":308,"nenhum":309,"lugar":310,"aqui":311,"ver":312,"haviam":313,"3":314,"tenho":315,"uma":316,"print":317,"pouco":318,"antes":319,"off":320,"desloga":321,"seu":322,"inventario":323,"salvo":324,"ninguem":325,"mexer":326,"qualquer":327,"coisa":328,"nada":329,"sumir":330,"consegue":331,"provar":332,"tais":333,"loguei":334,"joguei":335,"fechei":336,"ir":337,"mercado":338,"fui":339,"deparo":340,"algo":341,"nunca":342,"ocorreu":343,"deixou":344,"bastante":345,"surpreso":346,"nem":347,"imaginava":348,"poderia":349,"acontecer":350,"entendo":351,"todos":352,"nos":353,"enganamos":354,"vezes":355,"fechar":356,"havia":357,"unidades":358,"mochila":359,"terra":360,"porem":361,"sumido":362,"ok":363,"duvidas":364,"encerrar":365,"tikcket":366,"obgg":367,"the":368,"boy":369,"farmar":370,"msm":371,"eta":372,"permitiu":373,"farm":374,"use":375,"apenas":376,"mesmo":377,"itens":378,"etc":379,"deixa":380,"caso":381,"voltar":382,"falar":383,"pegou":384,"permissao":385,"dele":386,"ban":387,"hm":388,"realmente":389,"usar":390,"problema":391,"podemos":392,"deixar":393,"kskks":394,"supostamente":395,"alt":396,"daily":397,"ahhh":398,"vimax99":399,"bom":400,"dia":401,"player":402,"amigo":403,"banido":404,"(nao":405,"motivo":406,"exato)":407,"trust":408,"(pois":409,"construi":410,"ele)":411,"autorizou":412,"forma":413,"posse":414,"(ele":415,"estando":416,"ciente":417,"acordo)":418,"algum":419,"canal":420,"comandos":421,"comando":422,"slash":423,"logada":424,"recebi":425,"os":426,"cargos":427,"membro":428,"vip":429,"agr":430,"puxar":431,"-bal":432,"ratoto_132":433,"outro":434,"cara":435,"botei":436,"m":437,"maiusculo":438,"pay":439,"ratoto":440,"pronto":441,"-mcuser":442,"setar":443,"xp":444,"criei":445,"id":446,"973754017236779068":447,"roubaram":448,"qr":449,"abrir":450,"denuncia":451,"dx":452,"ladrao":453,"n":454,"pagar":455,"pagou":456,"cria":457,"-money":458,"cebotarov":459,"trabalhando":460,"cobtratou":461,"deu":462,"terreno":463,"trabalhei":464,"devia":465,"desprotegido":466,"tirar":467,"perm":468,"tbm":469,"estranho":470,"depois":471,"dois":472,"sumirem":473,"aq":474,"ficou":475,"on":476,"uns":477,"10min":478,"dps":479,"terminei":480,"si":481,"cebo":482,"v":483,"final":484,"vou":485,"coordenada":486,"saiu":487,"game":488,"amg":489,"entrou":490,"sv":491,"tirou":492,"area":493,"sairam":494,"2":495,"ate":496,"sinal":497,"deles":498,"oioi":499,"andares":500,"pro":501,"cobrei":502,"520k":503,"simplesmente":504,"carente":505,"enchendo":506,"saco":507,"abertamente":508,"<#320541695697616896>":509,"irritar":510,"provocar":511,"indiretas":512,"falando":513,"merda":514,"sentiu":515,"incomodado":516,"fato":517,"estou":518,"catalogando":519,"/lojas":520,"decidi":521,"suporte":522,"voces":523,"resolva":524,"255141045715599360":525,"''":526,"respeite":527,"membros":528,"irrite":529,"provoque":530,"nesse":531,"serao":532,"toleradas":533,"pessoas":534,"toxicas":535,"causam":536,"desordem":537,"conversar":538,"divertir":539,"ter":540,"aturar":541,"gente":542,"temos":543,"sentimentos":544,"limite":545,"paciencia":546,":nb::nde:":547,"regra":548,"inclui":549,"tentam":550,"provocar/iniciar":551,"brigas":552,"discussoes":553,"(qualquer":554,"motivo)":555,"contam":556,"spoilers":557,"usam":558,"contas":559,"fakes":560,"evasao":561,"denuncie":562,"mesmo''":563,"pressionei":564,"dizer":565,"quieto":566,"''era":567,"irmao":568,"vender''":569,"desconectou":570,"kkkkkkkkkk":571,"dai":572,"pulga":573,"cocou":574,"scam":575,"desse":576,"tu":577,"investe":578,"50m":579,"pagando":580,"levantar":581,"andar":582,"tal":583,"vender":584,"6m":585,"dinheiro":586,"primeiro":587,"/claim":588,"abobora":589,"35":590,"cavado":591,"baixo":592,"desvincilhando":593,"pergunta":594,"kkkkkkkk":595,"historico":596,"quem/onde":597,"tpa":598,"confirmar":599,"marcim":600,"acaso":601,"grana":602,"negocio":603,"souza1tzzzz":604,"das":605,"duas":606,"verificar":607,"criar":608,"contra":609,"carinha":610,"quer":611,"envie":612,"''claim/posse''":613,"for":614,"mom1ntzada7":615,"estava":616,"hackead":617,"perguntar":618,"porq":619,"sai":620,"daquela":621,"avisar":622,"desativei":623,"aquela":624,"vim":625,"sido":626,"hackeda":627,"tbom":628,"https://bitly/sparklypower-unban":629,"faca":630,"formulario":631,"unban":632,"alguem":633,"responde":634,"abri":635,"querer":636,"banida":637,"pedir":638,"passou":639,"mes":640,"comprir":641,"aquele":642,"mod":643,"construir":644,"constroe":645,"sozinho":646,"schematic":647,"podem":648,"ticket":649,":)":650,"-unban":651,"guisenpaii22":652,"legal":653,"fosse":654,"call":655,"^^":656,"gosto":657,"conhecer":658,"regras":659,"juntos":660,"claro":661,"te":662,"desbanir":663,"peco":664,"vi":665,"respeitou":666,"evadiu":667,"baniu":668,"-checkban":669,"(de":670,"acordo":671,"data":672,"falaram)":673,"deveria":674,"durar":675,"meses":676,"viro":677,"eterno":678,"ping":679,"assim":680,"dar":681,"colher":682,"ia":683,"resolver":684,"grande":685,"parte":686,"dos":687,"problemas":688,"ain":689,"quebrei":690,"elevador":691,"testei":692,"quebrar":693,"plantacao":694,"crescendo":695,"crescida":696,"descobri":697,"recentemente":698,"/containertrust":699,"(nick)":700,"acesso":701,"aos":702,"jogadores":703,"principal":704,"farms":705,"pedi":706,"testar":707,"funcionava":708,"conseguiu":709,"(podia":710,"cheio":711,"sla)":712,"muitos":713,"amigos":714,"teste":715,"enfim":716,"funciona":717,"esteja":718,"otimo":719,"quem":720,"aluga":721,"(colher)":722,"blocos":723,"resposta":724,"esclarecer":725,"perguntei":726,"zum":727,"podia":728,"falou":729,"compra":730,"pensando":731,"montar":732,"lojinha":733,"competir":734,"lojas":735,"10%":736,"resto":737,"precisa":738,"herbalismo":739,"duvida":740,"ruim":741,"chamada":742,"alison00007":743,"cheguei":744,"conectar":745,"(nem":746,"nela)":747,"xxalisonkkjxx":748,"achar":749,"curto":750,"gostei":751,"numero":752,"xbox":753,"nojentinho":754,"dittom":755,"averiguar":756,"dia/boa":757,"klapa":758,"este":759,"meio":760,"desbanido":761,"gostava":762,"muito":763,"permanentemente":764,"aprendi":765,"(e":766,"cometi)":767,"nocao":768,"durante":769,"desda":770,"cresci":771,"prometo":772,"farei":773,"bug/xray":774,"3º":775,"oportunidade":776,"players":777,"frequentam":778,"quiserem":779,"cometi":780,"demasiados":781,"<:lori_hug:543220309336260619>":782,"abusei":783,"bug":784,"apanhei":785,"kamiao":786,"dupou":787,"outras":788,"palavras":789,"aproveitei-me":790,"deem":791,"meus":792,"comprimentos-":793,"(alex)":794,"aguardo":795,"provavelmente":796,"corretamente":797,"parado":798,"in-game":799,"morreu":800,"ghast":801,"tela":802,"morte":803,"apareceu":804,"sentido":805,"morrido":806,"minerando":807,"desligou":808,"liguei":809,"morri":810,"bau":811,"seja":812,"picaretas":813,"monstras":814,"(eram":815,"5)":816,"minerios":817,"pa":818,"queimou":819,"lava":820,"desligado":821,"voltei":822,"cai":823,"nether":824,"man":825,"donada":826,"estiver":827,"entrando":828,"sla":829,"presiso":830,"nivel":831,"estarei":832,"fechando":833,"explicado":834,"resumo":835,"ler":836,"acontece":837,"identifica":838,"camadas":839,"superiores":840,"protegida":841,"dropares":842,"item":843,"comsegue":844,"tipo":845,"+250":846,"altura":847,"voa":848,"alto":849,"jetpack":850,"drop":851,"/spawn":852,"encontrei":853,"teria":854,"retirar":855,"1":856,"tumulo":857,"fiquei":858,"onde":859,"comprar":860,"pega":861,"pego":862,"link":863},"weights":[0.09131008329491648,0.3432759336574336,0.18134451762411782,0.6096883276818816,0.9111307318557982,0.019058940266589705,0.32338105351296076,0.27882874627406395,0.16695277688370205,0.06637887911530455,0.07233146203618238,0.06507747267183428,0.2541579842686861,0.04318443478837784,0.09294922036873084,0.17877082780990486,0.1856338490446838,0.15321998189607658,0.009556767318064423,0.011259716435078376,0.061034066457679885,3.684800743798769E-27,0.0953527267186281,-0.15462470556695615,1.6822866773499587E-27,1.6822866773499587E-27,0.040392165734779696,0.040392165734779696,0.040392165734779696,-0.0026537522248990175,0.040392165734779696,-0.01259807556391549,0.040392165734779696,0.08389574325565542,0.040392165734779696,-0.2339732698660983,0.03762616089723818,0.040392165734779696,0.040392165734779696,-0.037995951774271036,-0.07719012910529978,0.12152149382040842,0.040392165734779696,-0.015610234324680568,-0.06740244494413272,0.23639569338687325,0.12389586698479706,0.02555084591382846,0.02555084591382846,0.02555084591382846,0.07518692948691999,0.05042426893457139,-0.022538131192313567,0.23899032468068393,2.314344592723186E-27,0.053950325400811586,0.21142910918796484,0.0389494377188756,2.7369728088326537E-29,5.611387317161345E-28,-0.16785685109255374,-0.16785685109255374,-0.16785685109255374,-0.16785685109255374,-0.15692127118830376,-0.2917900065783849,-0.14589500328919244,-0.14589500328919244,-0.14589500328919244,-0.16792401398118567,-0.6877347229382722,-0.16795760550228614,-0.16799120374303475,-0.1680248087047757,-0.07642750295819935,-0.07642750295819935,-0.04196397339958389,-0.04196397339958389,-0.07642750295819935,-0.12589192019875214,-0.04196397339958389,-0.04196397339958389,-0.04196397339958389,-0.04196397339958389,-0.1465903429677568,-0.04196397339958389,-0.04196397339958389,-0.04196397339958389,-0.04196397339958389,-0.04196397339958389,-0.04196397339958389,-0.010447053899319478,-0.07715835925826187,-2.1655183918371242E-27,-0.01943545268923279,-0.01943545268923279,-0.0035104213281057254,-0.005477977461807577,-5.310003327163517E-28,-0.021475805908177485,-1.5971578351109235E-27,-5.310003327163517E-28,-2.7965025749774197E-27,-0.011026267899111377,-1.7264806819080368E-27,-1.7264806819080368E-27,-2.1450899517739966E-27,-1.0704546554625144E-27,-1.8507903952053027E-27,-1.0650885753700848E-27,-5.313190603985541E-28,-5.313190603985541E-28,-5.313190603985541E-28,-0.014949323541468504,-0.07838811750905064,-0.03446352955861589,-0.015837091006979984,-5.314253454676477E-28,-0.019862075304258636,-0.11333522035781361,-0.07354448293608282,-0.006665621442375974,-5.31637979393886E-28,-5.317443282595379E-28,-5.317443282595379E-28,-0.011026267899111377,-5.317443282595379E-28,-5.317443282595379E-28,-5.317443282595379E-28,-0.053588586687678505,-1.0955768735912713E-27,-0.053588586687678505,-1.0955768735912713E-27,-0.09670529086223235,-0.09670529086223235,-0.09670529086223235,-0.09670529086223235,-0.09670529086223235,-5.3206350251768465E-28,-1.064552868747986E-27,-5.3206350251768465E-28,-5.3206350251768465E-28,-2.3278081443140605E-27,-3.3083319889976636E-27,-0.022079700301208014,-1.694444071299872E-27,-1.694444071299872E-27,-5.324893662302598E-28,-1.0686123638699624E-27,-6.038943930305826E-4,-1.0650852516375946E-27,-1.2716681567018763E-27,-0.014949323541468504,-3.410706064851399E-27,-2.3301373497953083E-27,-1.1313976347532314E-27,-1.1313976347532314E-27,-1.1313976347532314E-27,-1.1313976347532314E-27,-1.1313976347532314E-27,-0.03933558396624667,-0.03933558396624667,-0.05428490750771504,-0.053588586687678505,-1.696818191916288E-27,-0.053588586687678505,-0.053588586687678505,-0.053588586687678505,-0.053588586687678505,-0.053588586687678505,-0.0880521162462942,-0.053588586687678505,-0.053588586687678505,-0.053588586687678505,-0.05419248108070902,-0.01583709100698001,-1.0665775646014644E-27,-5.332354480890841E-28,-1.6004532366525433E-27,-0.04837312582279397,-1.0666842330247732E-27,-5.333421165123866E-28,-5.333421165123866E-28,-5.333421165123866E-28,-1.0671111201402359E-27,-5.333421165123866E-28,-5.333421165123866E-28,-5.333421165123866E-28,-5.333421165123866E-28,-1.1997828917021804E-17,-0.07838811750905064,-0.08187519191034395,-0.07838811750905064,-0.07838811750905064,-0.07838811750905064,-1.0729041087031573E-27,-5.336622498270822E-28,-5.336622498270822E-28,-5.336622498270822E-28,-5.336622498270822E-28,-5.336622498270822E-28,-5.336622498270822E-28,-5.337690036278078E-28,-5.337690036278078E-28,-5.338757787835645E-28,-1.6113965779185324E-27,-5.338757787835645E-28,-5.338757787835645E-28,-5.338757787835645E-28,-0.03446352955861589,-2.2714428689972336E-27,-1.0755995950179908E-27,-5.341962324237445E-28,-0.01096064390147293,-0.01096064390147293,-5.343030930423529E-28,-0.00532720786311518,-1.7019168004583634E-27,-1.647261983259821E-27,-0.04304591795967878,-5.348377168669157E-28,-5.348377168669157E-28,-5.348377168669157E-28,-1.0771066398457268E-27,-1.0732167054841342E-27,-0.04304591795967878,-1.739305314070254E-27,-1.6212163598379198E-27,-0.13269626233132145,-1.076776238230495E-27,-1.008602625250485E-5,-1.0738590887244758E-27,-0.011026267899111377,-0.04304591795967878,-5.358013881715762E-28,-0.014949323541468504,-5.359085698855533E-28,-0.03446352955861589,-0.03446352955861589,-5.36230243688427E-28,-0.015837091006979984,-5.36230243688427E-28,-0.03446352955861589,-0.03446352955861589,-0.037950603959909075,-0.03446352955861589,-0.03446352955861589,-0.03446352955861589,-0.03446352955861589,-0.03446352955861589,-0.04548979745772718,-0.24456226082532137,-0.03446352955861589,-1.0811050525887104E-27,-5.365521105728099E-28,-5.365521105728099E-28,-5.365521105728099E-28,-5.365521105728099E-28,-5.365521105728099E-28,-1.2756243818673574E-27,-5.365521105728099E-28,-5.366594424613022E-28,-5.366594424613022E-28,-5.366594424613022E-28,-5.3676679582046625E-28,-5.3676679582046625E-28,-5.3676679582046625E-28,-5.3676679582046625E-28,-5.3676679582046625E-28,-5.3676679582046625E-28,-2.150399543437694E-27,-5.3698156696799075E-28,-5.3698156696799075E-28,-0.021475805908177485,-0.021475805908177485,-0.03250207380728879,-0.021475805908177485,-1.0751453960710942E-27,-5.3741136710013905E-28,-5.3741136710013905E-28,-5.3741136710013905E-28,-5.375188708743139E-28,-1.075360339095671E-27,-5.381643452761314E-28,-5.381643452761314E-28,0.0,0.0,0.0,0.0,0.0,0.0,0.0,-0.014949323541468504,0.0,0.0,0.0,0.0,0.0,0.0,-5.38702832670761E-28,-5.38702832670761E-28,-1.6170787451947478E-27,-5.38702832670761E-28,-5.38702832670761E-28,-1.0776212111361468E-27,-5.38702832670761E-28,-5.3881059478971895E-28,-5.38918378465412E-28,-5.38918378465412E-28,-0.019862075304258636,-5.38918378465412E-28,-1.0861995258170205E-27,-0.011026267899111377,-1.078375912523909E-27,-0.00532720786311518,-0.003487074401293327,-0.003487074401293327,-0.003487074401293327,-0.003487074401293327,-0.003487074401293327,-0.003487074401293327,-5.392418588760286E-28,-5.392418588760286E-28,-5.392418588760286E-28,-5.392418588760286E-28,-5.392418588760286E-28,-5.392418588760286E-28,-5.392418588760286E-28,-0.011026267899111377,-5.392418588760286E-28,-5.392418588760286E-28,-0.007090804793925155,-5.393497288217929E-28,-5.393497288217929E-28,0.0,0.0,0.0,0.0,0.0,0.0,0.0,0.0,0.0,0.0,0.0,0.0,0.0,-0.010512602601733177,0.0,-5.414033625942541E-28,0.0,0.0,0.0,0.0,0.0,0.0,0.0,0.0,0.0,-0.014949323541468504,0.0,0.0,0.0,-5.397814244310681E-28,0.0,0.0,0.0,-5.399974017918888E-28,-5.399974017918888E-28,-5.399974017918888E-28,-5.401054228764641E-28,-1.0841140297279587E-27,-1.080426931139156E-27,0.0,-5.404296157987128E-28,-5.404296157987128E-28,-5.404296157987128E-28,-5.404296157987128E-28,-0.028020465462542304,-5.404296157987128E-28,-5.404296157987128E-28,-5.407540033145471E-28,0.0,0.0,0.0,-5.407540033145471E-28,-0.019872161330511073,0.0,-5.406458525138842E-28,-5.407540033145471E-28,-0.015837091006979984,-5.407540033145471E-28,0.0,-0.00532720786311518,0.0,0.0,0.0,0.0,-5.41186822905351E-28,-5.412950819217353E-28,-5.415116649272395E-28,-5.415116649272395E-28,0.0,-1.008602625250485E-5,0.0,0.0,0.0,0.0,0.0,0.0,0.0,0.0,0.0,0.0,0.0,0.0,0.0,0.0,0.0,0.0,0.0,0.0,-0.015837091006979984,-0.015837091006979984,0.0,-0.010512602601733177,-0.045324001447460356,-0.010512602601733177,-0.010512602601733177,-0.015839810464848367,-0.019862075304258636,-5.424873613603301E-28,-5.425958805364374E-28,-5.425958805364374E-28,-5.4270442142072155E-28,-0.011026267899111377,0.0,0.0,0.0,0.0,0.0,-5.430301743660645E-28,-5.431388021264898E-28,-5.432474516168132E-28,-5.432474516168132E-28,-5.433561228413815E-28,0.0,-5.435735305106445E-28,-0.16705281330702645,0.0,0.0,-5.4422627559265345E-28,-5.4400860685146735E-28,-5.4400860685146735E-28,-0.06439378578282699,-5.4400860685146735E-28,0.0,-5.4422627559265345E-28,-5.443351426211777E-28,-1.0897601540235378E-27,-5.444440314274631E-28,0.0,-7.390722712945413E-28,0.0,0.0,0.0,0.0,-0.05336751788371579,-0.07322959318797453,-1.008602625250485E-5,0.0,0.0,0.0,0.0,0.0,0.0,0.0,0.0,0.0,0.0,0.0,-0.011026267899111377,-0.011026267899111377,-0.011026267899111377,-0.011026267899111377,-0.011026267899111377,-1.008602625250485E-5,-0.019862075304258636,-0.019862075304258636,-0.019862075304258636,-0.019862075304258636,-0.019862075304258636,-0.019862075304258636,-0.019862075304258636,-0.019862075304258636,-0.019862075304258636,-0.019862075304258636,-0.019862075304258636,-0.019862075304258636,0.0,0.0,0.0,0.0,0.0,0.0,0.0,0.0,0.0,0.0,0.0,0.0,0.0,0.0,0.0,0.0,0.0,0.0,0.0,0.0,0.0,0.0,0.0,0.0,0.0,0.0,-5.461892176610717E-28,0.0,0.0,0.0,0.0,0.0,0.0,0.0,0.0,0.0,0.0,0.0,0.0,0.0,0.0,0.0,0.0,0.0,0.0,0.0,0.0,0.0,0.0,0.0,0.0,0.0,0.0,0.0,0.0,0.0,0.0,0.0,0.0,0.0,0.0,0.0,0.0,0.0,0.0,0.0,0.0,0.0,0.0,0.0,0.0,0.0,0.0,0.0,0.0,0.0,0.0,0.0,0.0,0.0,0.0,0.0,0.0,0.0,0.0,0.0,0.0,0.0,0.0,0.0,0.0,0.0,0.0,0.0,0.0,0.0,0.0,0.0,0.0,0.0,-5.47173342114856E-28,0.0,0.0,0.0,0.0,0.0,-0.014949323541468504,0.0,0.0,0.0,0.0,0.0,0.0,0.0,0.0,0.0,-0.04304591795967878,0.0,0.0,0.0,0.0,0.0,0.0,-0.04304591795967878,0.0,0.0,-0.04304591795967878,-0.04304591795967878,-0.04304591795967878,-5.489272770079484E-28,0.0,0.0,0.0,-7.791479828201551E-28,0.0,0.0,0.0,0.0,-7.791479828201551E-28,-7.791479828201551E-28,0.0,-0.00532720786311518,0.0,-1.1997828916487911E-17,-2.3995657832975822E-17,-1.1997828916487911E-17,-1.1997828916487911E-17,-1.1997828916487911E-17,0.0,0.0,0.0,0.0,0.0,0.0,0.0,0.0,0.0,0.0,0.0,0.0,0.0,0.0,0.0,0.0,0.0,0.0,0.0,0.0,0.0,0.0,0.0,0.0,0.0,0.0,0.0,0.0,0.0,-0.00532720786311518,0.0,0.0,0.0,0.0,0.0,0.0,0.0,0.0,0.0,0.0,0.0,0.0,0.0,0.0,0.0,0.0,0.0,0.0,0.0,0.0,0.0,0.0,0.0,0.0,0.0,0.0,0.0,0.0,0.0,0.0,0.0,0.0,0.0,0.0,0.0,0.0,0.0,0.0,0.0,0.0,0.0,0.0,0.0,0.0,0.0,0.0,0.0,-7.390722712945413E-28,0.0,0.0,0.0,0.0,0.0,-0.007097656915393925,0.0,0.0,0.0,0.0,0.0,0.0,-0.014949323541468504,0.0,0.0,0.0,0.0,0.0,0.0,0.0,0.0,0.0,0.0,0.0,-0.014949323541468504,0.0,0.0,0.0,0.0,0.0,0.0,0.0,0.0,0.0,0.0,0.0,0.0,0.0,0.0,0.0,0.0,0.0,0.0,0.0,0.0,0.0,0.0,0.0,0.0,0.0,0.0,0.0,0.0,0.0,0.0,0.0,0.0,0.0,0.0,0.0,0.0,0.0,0.0,0.0,0.0,0.0,0.0,-0.013071141921073776,0.0,0.0,0.0,0.0,0.0,0.0,0.0,-0.07382834149724943,0.0,0.0,-6.038943930305826E-4,0.0,0.0,0.0,0.0,0.0,0.0,0.0,-0.014949323541468504,-0.014949323541468504,-0.014949323541468504,-0.014949323541468504,-0.014949323541468504,-0.014949323541468504,-0.014949323541468504,-0.014949323541468504,-0.014949323541468504,-0.014949323541468504,0.0,0.0,0.0,0.0,-0.013071141921073776,-0.013071141921073776,0.0,0.0,0.0,0.0,0.0,0.0,0.0,0.0,0.0,0.0,0.0,0.0,0.0,0.0,0.0,0.0,-9.952813651242246E-28,0.0,0.0,0.0,0.0,0.0,0.0,0.0,-9.952813651242246E-28,-9.952813651242246E-28,0.0,-0.00532720786311518,-0.00532720786311518,-0.00532720786311518,0.0,0.0,0.0,-0.011675528814868176,-0.009005894830385601,-0.010860191908965321,0.0],"bias":-1.2300000000000009}