{"vocabulary":{"eu":0,"esqueci":1,"a":2,"minha":3,"senha":4,"nao":5,"lembro":6,"como":7,"troca":8,"trocar":9,"alterar":10,"altera":11,"mudar":12,"muda":13,"quero":14,"queria":15,"recuperar":16,"redefinir":17,"redefine":18,"recupera":19,"ou":20,"troco":21,"da":22,"conta":23,"hey":24,"posso":25,"oieee":26,"td":27,"bem":28,"sou":29,"nova":30,"em":31,"servidores":32,"de":33,"minecraft":34,"e":35,"entrei":36,"pela":37,"primeira":38,"vez":39,"no":40,"sparklypower":41,"ontem":42,"mas":43,"que":44,"faco":45,"pra":46,"oi":47,"registrar":48,"novamente":49,"rapaz":50,"para":51,"antiga":52,"perdi":53,"sei":54,"login":55,"do":56,"mine":57,"gostaria":58,"saber":59,"faz":60,"algumas":61,"perguntas":62,"sobre":63,"se":64,"ta":65,"indo":66,"ela":67,"incorreta":68,"resetei":69,"sua":70,"troquei":71,"mudei":72,"redefini":73,"ola":74,"boa":75,"tarde":76,"atualmente":77,"jogo":78,"pelo":79,"original":80,"pc":81,"eventualmente":82,"comprei":83,"o":84,"iphone":85,"consiguirei":86,"jogar":87,"ambos":88,"atraves":89,"normalmente":90,"enviei":91,"pesadelos":92,"errado":93,"pessoa":94,"errada":95,"mandei":96,"dei":97,"estava":98,"acontecendo":99,"uma":100,"rifa":101,"meus":102,"sairam":103,"devolvi":104,"os":105,"dono":106,"plugin":107,"ainda":108,"atualizou":109,"pois":110,"era":111,"estar":112,"funcionando":113,"entao":114,"porque":115,"la":116,"<#760262410098442270>":117,"mypet":118,"esta":119,"disponivel":120,"fez":121,"isso":122,"hoje":123,"voce":124,"matou":125,"ele":126,"meu":127,"bichinho":128,"consigo":129,"chamar":130,"matei":131,"sniffer":132,"com":133,"laco":134,"kit":135,"noob":136,"por":137,"favor":138,"me":139,"ajudem":140,"tava":141,"querendo":142,"completar":143,"loja":144,";--;":145,"pior":146,"to":147,"triste":148,"agora":149,"https://discordcom/channels/320248230917046282/332866197701918731/1253826917350506538":150,"essa":151,"foi":152,"ultima":153,"atualizacao":154,"conseguindo":155,"entrar":156,"causa":157,"versao":158,"power":159,"na":160,"ah":161,"certoobrigada":162,"/warp":163,"reparar":164,"clica":165,"placa":166,"[reparar]":167,"repara":168,"pic":169,"monstra":170,"certo":171,"obg":172,"vai":173,"possibilitar":174,"logar":175,"sem":176,"colocar":177,"um":178,"periodo":179,"infelizmente":180,"recordo":181,"qual":182,"pode":183,"utilizar":184,"/lembrar":185,"/premium":186,"so":187,"ser":188,"utilizado":189,"java":190,"portanto":191,"console":192,"celular":193,"bedrock":194,"geral":195,"possivel":196,"ajudar":197,"logotenho":198,"ficar":199,"colocando":200,"toda":201,"cansativo":202,"quando":203,"mandoele":204,"diz":205,"parece":206,"oficial":207,"obtido":208,"legalmente":209,"ajudatenho":210,"mandar":211,"espero":212,"tenha":213,"feito":214,"certopois":215,"achei":216,"noite":217,"m_eeow03":218,"nickname":219,"=":220,"as":221,"coisas":222,"estao":223,"<@&332650495522897920>":224,"🤡":225,"":226,"cnt":227,"tou":228,"usando":229,"ag":230,"registrei":231,"esse":232,"discord":233,"foxy_zn8833":234,"ai":235,"tem":236,"passar":237,"nick":238,"p":239,"acho":240,"tinha":241,"transferir":242,"tudo":243,"li":244,"consegui":245,"microsoft":246,"usa":247,"/changepass":248,"<#830658622383980545>":249,"staff":250,"mais":251,"tempo":252,"tentei":253,"retornar":254,"conectada":255,"fazer":256,"vinculada":257,"alguma":258,"outra":259,"resolucao":260,"entendi":261,"obrigado":262,"atencao":263,"irei":264,"notificalo":265,"valor":266,"ja":267,"debitado":268,"/transactions":269,"mostra":270,"digitou":271,"chequei":272,"transacoes":273,"usuario":274,"tambem":275,"consta":276,"recebido":277,"sc0refl":278,"disse":279,"chegou":280,"economia":281,"liga":282,"nome":283,"escrito":284,"mandou":285,"caps":286,"lock":287,"ligado":288,"desculpe":289,"ops":290,"correto":291,"seria":292,"ao":293,"2kk":294,"alguns":295,"erros":296,"ortograficos":297,"passaram":298,"despercebidos":299,"acabei":300,"mandando":301,"poderiam":302,"ressarcir":303,"mim":304,"diretamente":305,"playerr":306,"sempre":307,"ando":308,"mochilas":309,"inv":310,"uso":311,"elas":312,"mt":313,"estranhei":314,"costumo":315,"guardar":316,"nenhum":317,"lugar":318,"aqui":319,"ver":320,"haviam":321,"3":322,"tenho":323,"print":324,"pouco":325,"antes":326,"off":327,"desloga":328,"seu":329,"inventario":330,"salvo":331,"ninguem":332,"mexer":333,"qualquer":334,"coisa":335,"nada":336,"sumir":337,"consegue":338,"provar":339,"tais":340,"loguei":341,"joguei":342,"fechei":343,"ir":344,"mercado":345,"fui":346,"deparo":347,"algo":348,"nunca":349,"ocorreu":350,"deixou":351,"bastante":352,"surpreso":353,"nem":354,"imaginava":355,"poderia":356,"acontecer":357,"entendo":358,"todos":359,"nos":360,"enganamos":361,"vezes":362,"fechar":363,"havia":364,"unidades":365,"mochila":366,"terra":367,"porem":368,"sumido":369,"ok":370,"duvidas":371,"encerrar":372,"tikcket":373,"obgg":374,"the":375,"boy":376,"farmar":377,"msm":378,"eta":379,"permitiu":380,"farm":381,"use":382,"apenas":383,"mesmo":384,"itens":385,"etc":386,"deixa":387,"caso":388,"voltar":389,"falar":390,"pegou":391,"permissao":392,"dele":393,"ban":394,"hm":395,"realmente":396,"usar":397,"problema":398,"podemos":399,"deixar":400,"kskks":401,"supostamente":402,"alt":403,"daily":404,"ahhh":405,"vimax99":406,"bom":407,"dia":408,"player":409,"amigo":410,"banido":411,"(nao":412,"motivo":413,"exato)":414,"trust":415,"(pois":416,"construi":417,"ele)":418,"autorizou":419,"forma":420,"posse":421,"(ele":422,"estando":423,"ciente":424,"acordo)":425,"algum":426,"canal":427,"comandos":428,"comando":429,"slash":430,"logada":431,"recebi":432,"cargos":433,"membro":434,"vip":435,"agr":436,"puxar":437,"-bal":438,"ratoto_132":439,"outro":440,"cara":441,"botei":442,"m":443,"maiusculo":444,"pay":445,"ratoto":446,"pronto":447,"-mcuser":448,"setar":449,"xp":450,"criei":451,"id":452,"973754017236779068":453,"roubaram":454,"qr":455,"abrir":456,"denuncia":457,"dx":458,"ladrao":459,"n":460,"pagar":461,"pagou":462,"cria":463,"-money":464,"cebotarov":465,"trabalhando":466,"cobtratou":467,"deu":468,"terreno":469,"trabalhei":470,"devia":471,"desprotegido":472,"tirar":473,"perm":474,"tbm":475,"estranho":476,"depois":477,"dois":478,"sumirem":479,"aq":480,"ficou":481,"on":482,"uns":483,"10min":484,"dps":485,"terminei":486,"si":487,"cebo":488,"v":489,"final":490,"vou":491,"coordenada":492,"saiu":493,"game":494,"amg":495,"entrou":496,"sv":497,"tirou":498,"area":499,"2":500,"ate":501,"sinal":502,"deles":503,"oioi":504,"andares":505,"pro":506,"cobrei":507,"520k":508,"simplesmente":509,"carente":510,"enchendo":511,"saco":512,"abertamente":513,"<#320541695697616896>":514,"irritar":515,"provocar":516,"indiretas":517,"falando":518,"merda":519,"sentiu":520,"incomodado":521,"fato":522,"estou":523,"catalogando":524,"/lojas":525,"decidi":526,"suporte":527,"voces":528,"resolva":529,"255141045715599360":530,"''":531,"respeite":532,"membros":533,"irrite":534,"provoque":535,"nesse":536,"serao":537,"toleradas":538,"pessoas":539,"toxicas":540,"causam":541,"desordem":542,"conversar":543,"divertir":544,"ter":545,"aturar":546,"gente":547,"temos":548,"sentimentos":549,"limite":550,"paciencia":551,":nb::nde:":552,"regra":553,"inclui":554,"tentam":555,"provocar/iniciar":556,"brigas":557,"discussoes":558,"(qualquer":559,"motivo)":560,"contam":561,"spoilers":562,"usam":563,"contas":564,"fakes":565,"evasao":566,"denuncie":567,"mesmo''":568,"pressionei":569,"dizer":570,"quieto":571,"''era":572,"irmao":573,"vender''":574,"desconectou":575,"kkkkkkkkkk":576,"dai":577,"pulga":578,"cocou":579,"scam":580,"desse":581,"tu":582,"investe":583,"50m":584,"pagando":585,"levantar":586,"andar":587,"tal":588,"vender":589,"6m":590,"dinheiro":591,"primeiro":592,"/claim":593,"abobora":594,"35":595,"cavado":596,"baixo":597,"desvincilhando":598,"pergunta":599,"kkkkkkkk":600,"historico":601,"quem/onde":602,"tpa":603,"confirmar":604,"marcim":605,"acaso":606,"grana":607,"negocio":608,"souza1tzzzz":609,"das":610,"duas":611,"verificar":612,"criar":613,"contra":614,"carinha":615,"quer":616,"envie":617,"''claim/posse''":618,"for":619,"mom1ntzada7":620,"hackead":621,"perguntar":622,"porq":623,"sai":624,"daquela":625,"avisar":626,"desativei":627,"aquela":628,"vim":629,"sido":630,"hackeda":631,"tbom":632,"https://bitly/sparklypower-unban":633,"faca":634,"formulario":635,"unban":636,"alguem":637,"responde":638,"abri":639,"querer":640,"banida":641,"pedir":642,"passou":643,"mes":644,"comprir":645,"aquele":646,"mod":647,"construir":648,"constroe":649,"sozinho":650,"schematic":651,"podem":652,"ticket":653,":)":654,"-unban":655,"guisenpaii22":656,"legal":657,"fosse":658,"call":659,"^^":660,"gosto":661,"conhecer":662,"regras":663,"juntos":664,"claro":665,"te":666,"desbanir":667,"peco":668,"vi":669,"respeitou":670,"evadiu":671,"baniu":672,"-checkban":673,"(de":674,"acordo":675,"data":676,"falaram)":677,"deveria":678,"durar":679,"meses":680,"viro":681,"eterno":682,"ping":683,"assim":684,"dar":685,"colher":686,"ia":687,"resolver":688,"grande":689,"parte":690,"dos":691,"problemas":692,"ain":693,"quebrei":694,"elevador":695,"testei":696,"quebrar":697,"plantacao":698,"crescendo":699,"crescida":700,"descobri":701,"recentemente":702,"/containertrust":703,"(nick)":704,"acesso":705,"aos":706,"jogadores":707,"principal":708,"farms":709,"pedi":710,"testar":711,"funcionava":712,"conseguiu":713,"(podia":714,"cheio":715,"sla)":716,"muitos":717,"amigos":718,"teste":719,"enfim":720,"funciona":721,"esteja":722,"otimo":723,"quem":724,"aluga":725,"(colher)":726,"blocos":727,"resposta":728,"esclarecer":729,"perguntei":730,"zum":731,"podia":732,"falou":733,"compra":734,"pensando":735,"montar":736,"lojinha":737,"competir":738,"lojas":739,"10%":740,"resto":741,"precisa":742,"herbalismo":743,"duvida":744,"ruim":745,"chamada":746,"alison00007":747,"cheguei":748,"conectar":749,"(nem":750,"nela)":751,"xxalisonkkjxx":752,"achar":753,"curto":754,"gostei":755,"numero":756,"xbox":757,"nojentinho":758,"dittom":759,"averiguar":760,"dia/boa":761,"klapa":762,"este":763,"meio":764,"desbanido":765,"gostava":766,"muito":767,"permanentemente":768,"aprendi":769,"(e":770,"cometi)":771,"nocao":772,"durante":773,"desda":774,"cresci":775,"prometo":776,"farei":777,"bug/xray":778,"3º":779,"oportunidade":780,"players":781,"frequentam":782,"quiserem":783,"cometi":784,"demasiados":785,"<:lori_hug:543220309336260619>":786,"abusei":787,"bug":788,"apanhei":789,"kamiao":790,"dupou":791,"outras":792,"palavras":793,"aproveitei-me":794,"deem":795,"comprimentos-":796,"(alex)":797,"aguardo":798,"provavelmente":799,"corretamente":800,"parado":801,"in-game":802,"morreu":803,"ghast":804,"tela":805,"morte":806,"apareceu":807,"sentido":808,"morrido":809,"minerando":810,"desligou":811,"liguei":812,"morri":813,"bau":814,"seja":815,"picaretas":816,"monstras":817,"(eram":818,"5)":819,"minerios":820,"pa":821,"queimou":822,"lava":823,"desligado":824,"voltei":825,"cai":826,"nether":827,"man":828,"donada":829,"estiver":830,"entrando":831,"sla":832,"presiso":833,"nivel":834,"estarei":835,"fechando":836,"explicado":837,"resumo":838,"ler":839,"acontece":840,"identifica":841,"camadas":842,"superiores":843,"protegida":844,"dropares":845,"item":846,"comsegue":847,"tipo":848,"+250":849,"altura":850,"voa":851,"alto":852,"jetpack":853,"drop":854,"/spawn":855,"encontrei":856,"teria":857,"retirar":858,"1":859,"tumulo":860,"fiquei":861,"onde":862,"comprar":863,"pega":864,"pego":865,"link":866},"weights":[0.0863551234607457,0.3555272121489236,0.17490101724731336,0.6016193742501417,0.9224268534324289,0.023859978984480817,0.3241140779651116,0.2947473922368626,0.16519912156804253,0.045949414343546685,0.07443799916645125,0.06719538784987902,0.25068435741501643,0.05291395111959202,0.09163695369128584,0.17138620149222764,0.19335405342611306,0.14496581348263474,0.025711988305794336,0.008740970605947664,0.06144465648903685,2.2968153420374705E-27,0.09446078682986957,-0.14530057213847958,9.237788542155791E-28,9.237788542155791E-28,0.042476700290848414,0.042476700290848414,0.042476700290848414,-0.009067285344185686,0.042476700290848414,-0.0014794518957106566,0.042476700290848414,0.09539653629805622,0.042476700290848414,-0.24019224391925145,0.04223140048526798,0.042476700290848414,0.042476700290848414,-0.029354602790403844,-0.060275194647496345,0.1339409014405286,0.042476700290848414,-0.0013030068297804006,-0.06399193110667667,0.2309043818292381,0.11558026025482018,0.026420388010087722,0.026420388010087722,0.026420388010087722,0.07185697810550727,0.03521089126991108,-0.028638467318705868,0.23529322387381627,-4.950373590358504E-13,0.04827197679622785,0.19750470435251513,0.04789451722250579,1.5028939469276605E-29,-4.950373590358504E-13,-0.16609369947158145,-0.16609369947158145,-0.16609369947158145,-0.16609369947158145,-0.15081091210322373,-0.2880604996087663,-0.14403024980438314,-0.14403024980438314,-0.14403024980438314,-0.16616015688793034,-0.69218620492799,-0.16619339556704374,-0.1662266408952228,-0.16625989287379755,-0.07416224998956644,-0.07416224998956644,-0.03717548988821354,-0.03717548988821354,-0.07416224998956644,-0.11152646966464114,-0.03717548988821354,-0.03717548988821354,-0.03717548988821354,-0.03717548988821354,-0.14798493220810166,-0.03717548988821354,-0.03717548988821354,-0.03717548988821354,-0.03717548988821354,-0.03717548988821354,-0.03717548988821354,-0.01877681105133262,-0.07717970454168184,-1.1889289250020883E-27,-0.025544414454997475,-0.025544414454997475,-0.004879720902543297,-0.0018878825011216984,-2.914016744078322E-28,-2.914016744078322E-28,-0.0035243746629988666,-2.914016744078322E-28,-0.010366269705370603,-0.02137495305799157,-6.006936104527912E-28,-0.04445289650864331,-2.915765853721979E-28,-0.016121024764423994,-8.770123089750664E-28,-2.915765853721979E-28,-1.516524739854173E-27,-0.006780662298345559,-9.28967048018682E-28,-9.28967048018682E-28,-1.1778862741100764E-27,-5.877953251721595E-28,-5.884475321227326E-28,-5.84848767112243E-28,-2.9175160132513482E-28,-2.9175160132513482E-28,-2.9175160132513482E-28,-0.023065658730216165,-0.07183130308125225,-0.03698676010135271,-0.027346118703991423,-2.918099633177984E-28,-0.021374953058981537,-0.1277010071192236,-0.07961257463727257,-0.001825231142701612,-2.9192672232966136E-28,-2.9198511935353206E-28,-2.9198511935353206E-28,-0.006780662298345559,-2.9198511935353206E-28,-2.9198511935353206E-28,-2.9198511935353206E-28,-0.04983202305681306,-6.017759409934965E-28,-0.04983202305681306,-6.017759409934965E-28,-0.10287394152940404,-0.10287394152940404,-0.10287394152940404,-0.10287394152940404,-0.10287394152940404,-2.921603805249386E-28,-5.845546062652351E-28,-2.921603805249386E-28,-2.921603805249386E-28,-1.2794254340762689E-27,-1.817212163011196E-27,-0.022321382473119638,-9.310132301242953E-28,-9.310132301242953E-28,-2.9239422574027276E-28,-5.86783707930662E-28,-0.006200357708200543,-5.848469420238011E-28,-6.995027310438893E-28,-0.0230656587307112,-1.874054664772766E-27,-1.280705627523988E-27,-6.216543130181121E-28,-6.216543130181121E-28,-6.216543130181121E-28,-6.216543130181121E-28,-6.216543130181121E-28,-0.04291616628162615,-0.04291616628162615,-0.06598182501184228,-0.04983202305681306,-9.32317692007241E-28,-0.04983202305681306,-0.04983202305681306,-0.04983202305681306,-0.04983202305681306,-0.04983202305681306,-0.08681878315866091,-0.04983202305681306,-0.04983202305681306,-0.04983202305681306,-0.05603238076550867,-0.027346118703991423,-5.856663831644232E-28,-2.9280390533442924E-28,-8.788218406640923E-28,-0.06264565801513812,-5.857249556599904E-28,-2.928624778299952E-28,-2.928624778299952E-28,-2.928624778299952E-28,-5.859593628341437E-28,-2.928624778299952E-28,-2.928624778299952E-28,-2.928624778299952E-28,-2.928624778299952E-28,-2.929210620424037E-28,-0.07183130308125225,-0.07535567774375618,-0.07183130308125225,-0.07183130308125225,-0.07183130308125225,-5.89140339794436E-28,-2.930382656271239E-28,-2.930382656271239E-28,-2.930382656271239E-28,-2.930382656271239E-28,-2.930382656271239E-28,-2.930382656271239E-28,-2.9309688500412474E-28,-2.9309688500412474E-28,-2.931555161073462E-28,-8.848309180267737E-28,-2.931555161073462E-28,-2.931555161073462E-28,-2.931555161073462E-28,-0.03698676010135271,-1.5779589171927202E-27,-5.906204531713405E-28,-2.93331479797794E-28,-0.0070191558467716285,-0.0070191558467716285,-2.9339015782935988E-28,-0.011101672380103698,-9.351191252845606E-28,-9.047117111452912E-28,-0.05154398563503424,-2.93683724103466E-28,-2.93683724103466E-28,-2.93683724103466E-28,-5.914479836977834E-28,-5.893119892198291E-28,-0.05154398563503424,-9.558839325968432E-28,-8.90223039848067E-28,-0.13329714980901827,-4.950373590358504E-13,-6.630879632150258E-12,-5.896647270623109E-28,-0.006780662298345559,-0.05154398563552925,-2.9421288382545085E-28,-0.023065658730216165,-2.9427173817308545E-28,-0.03698676010135271,-0.03698676010135271,-2.944483718647553E-28,-0.027346118703991423,-2.944483718647553E-28,-0.03698676010135271,-0.03698676010135271,-0.04051113476385648,-0.03698676010135271,-0.03698676010135271,-0.03698676010135271,-0.03698676010135271,-0.03698676010135271,-0.04376742240019326,-0.24490713516736431,-0.03698676010135271,-5.936435445339597E-28,-2.9462511157904635E-28,-2.9462511157904635E-28,-2.9462511157904635E-28,-2.9462511157904635E-28,-2.9462511157904635E-28,-7.0167512633937745E-28,-2.9462511157904635E-28,-2.946840483887241E-28,-2.946840483887241E-28,-2.946840483887241E-28,-2.9474299698812175E-28,-2.9474299698812175E-28,-2.9474299698812175E-28,-2.9474299698812175E-28,-2.9474299698812175E-28,-2.9474299698812175E-28,-1.1808018139160537E-27,-2.9486092956551074E-28,-2.9486092956551074E-28,-0.016121024764423994,-0.016121024764423994,-0.022901687062769686,-0.016121024764423994,-5.903710488492438E-28,-2.9509693630072925E-28,-2.9509693630072925E-28,-2.9509693630072925E-28,-2.951559674942281E-28,-5.904890758057148E-28,-2.9551040271852324E-28,-2.9551040271852324E-28,0.0,0.0,0.0,0.0,0.0,0.0,0.0,-0.023065658730216165,0.0,0.0,0.0,-4.950373590358504E-13,0.0,0.0,-2.958060905102594E-28,-2.958060905102594E-28,-8.879510421205468E-28,-2.958060905102594E-28,-2.958060905102594E-28,-5.91730538962906E-28,-2.958060905102594E-28,-2.95865263562972E-28,-2.9592444845266254E-28,-2.9592444845266254E-28,-0.02137495305799157,-2.9592444845266254E-28,-5.964409610639681E-28,-0.006780662298345559,-5.9214495161024485E-28,-0.011101672380103698,-0.0035243746629988666,-0.0035243746625038355,-0.0035243746625038355,-0.0035243746625038355,-0.0035243746625038355,-2.9610207416728283E-28,-2.9610207416728283E-28,-2.9610207416728283E-28,-2.9610207416728283E-28,-2.9610207416728283E-28,-2.9610207416728283E-28,-2.9610207416728283E-28,-0.006780662298345559,-2.9610207416728283E-28,-2.9610207416728283E-28,-0.007409869301193966,-2.961613064285685E-28,-2.961613064285685E-28,0.0,0.0,0.0,0.0,0.0,0.0,0.0,0.0,0.0,0.0,0.0,0.0,0.0,-1.2284720435655434E-5,0.0,-2.972889733735517E-28,0.0,0.0,0.0,0.0,0.0,0.0,0.0,0.0,0.0,-0.023065658730216165,0.0,0.0,0.0,-2.9639835398563636E-28,0.0,0.0,0.0,-2.965169489045202E-28,-2.965169489045202E-28,-2.965169489045202E-28,-2.9657626415735167E-28,-5.952957982627616E-28,-5.932711825512136E-28,0.0,-1.9801494361434015E-12,-2.9675428111788273E-28,-2.9675428111788273E-28,-2.9675428111788273E-28,-0.033431928435586795,-2.9675428111788273E-28,-2.9675428111788273E-28,-2.9693240493132838E-28,0.0,0.0,0.0,-2.9693240493132838E-28,-0.02137495306462243,0.0,-2.968730184503421E-28,-2.9693240493132838E-28,-0.027346118704486503,-2.9693240493132838E-28,0.0,-0.011101672380103698,0.0,0.0,0.0,0.0,-2.9717006967576123E-28,0.0,-2.9734844306216413E-28,-2.9734844306216413E-28,-4.950373590358504E-13,-7.125916991186166E-12,-4.950373590358504E-13,-4.950373590358504E-13,-4.950373590358504E-13,-4.950373590358504E-13,-4.950373590358504E-13,-4.950373590358504E-13,-4.950373590358504E-13,-4.950373590358504E-13,-4.950373590358504E-13,-4.950373590358504E-13,-4.950373590358504E-13,-4.950373590358504E-13,-4.950373590358504E-13,-4.950373590358504E-13,-4.950373590358504E-13,0.0,0.0,0.0,-0.027346118703991423,-0.027346118703991423,0.0,-1.2284720435655434E-5,-1.2284720435655434E-5,-1.2284720435655434E-5,-0.011113957100539367,-0.02137495305799157,-2.978842058796092E-28,-2.9794379463853686E-28,-2.9794379463853686E-28,-2.980033953176004E-28,-0.006780662298345559,0.0,0.0,0.0,0.0,0.0,-2.9818226889945324E-28,-2.982419172829098E-28,0.0,0.0,-2.9836124984839915E-28,0.0,-2.9848063016123845E-28,-0.15637638943097737,0.0,0.0,-2.988390577749408E-28,-2.9871953410539315E-28,-2.9871953410539315E-28,-0.056283779902432746,-2.9871953410539315E-28,0.0,-2.988390577749408E-28,-2.988988375424493E-28,-5.983961308638177E-28,0.0,0.0,-4.070500147603217E-28,0.0,0.0,0.0,0.0,-0.04950311760408707,-0.0708780706620787,-6.630879632150258E-12,0.0,0.0,0.0,0.0,0.0,0.0,0.0,0.0,0.0,0.0,0.0,-0.006780662298345559,-0.006780662298345559,-0.006780662298345559,-0.006780662298345559,-0.006780662298345559,-6.630879632150258E-12,-0.02137495305799157,-0.02137495305799157,-0.02137495305799157,-0.02137495305799157,-0.02137495305799157,-0.02137495305799157,-0.02137495305799157,-0.02137495305799157,-0.02137495305799157,-0.02137495305799157,-0.02137495305799157,0.0,0.0,0.0,0.0,0.0,0.0,0.0,0.0,0.0,0.0,0.0,0.0,0.0,0.0,0.0,0.0,0.0,0.0,0.0,0.0,0.0,0.0,0.0,0.0,0.0,0.0,-2.9991692517036224E-28,0.0,0.0,0.0,0.0,0.0,0.0,0.0,0.0,0.0,0.0,0.0,0.0,0.0,0.0,0.0,0.0,0.0,0.0,0.0,0.0,0.0,0.0,0.0,0.0,0.0,0.0,0.0,0.0,0.0,0.0,0.0,0.0,0.0,0.0,0.0,0.0,0.0,0.0,0.0,0.0,0.0,0.0,0.0,0.0,0.0,0.0,0.0,0.0,0.0,0.0,0.0,0.0,0.0,0.0,0.0,0.0,0.0,0.0,0.0,0.0,0.0,0.0,0.0,0.0,0.0,0.0,0.0,0.0,0.0,0.0,0.0,0.0,0.0,-3.0045731588226222E-28,0.0,0.0,0.0,0.0,0.0,-0.023065658730216165,0.0,0.0,0.0,0.0,0.0,0.0,0.0,0.0,0.0,-0.05154398563503424,0.0,0.0,0.0,0.0,0.0,-0.05154398563503424,0.0,0.0,-0.05154398563503424,-0.05154398563503424,-0.05154398563503424,-3.0142041574413407E-28,0.0,0.0,0.0,0.0,0.0,0.0,0.0,0.0,0.0,0.0,0.0,-0.011101672380103698,0.0,0.0,0.0,0.0,0.0,0.0,0.0,0.0,0.0,0.0,0.0,0.0,0.0,0.0,0.0,0.0,0.0,0.0,0.0,0.0,0.0,0.0,0.0,0.0,0.0,0.0,0.0,0.0,0.0,0.0,0.0,0.0,0.0,0.0,0.0,-0.011101672380103698,0.0,0.0,0.0,0.0,0.0,0.0,0.0,0.0,0.0,0.0,0.0,0.0,0.0,0.0,0.0,0.0,0.0,0.0,0.0,0.0,0.0,0.0,0.0,0.0,0.0,0.0,0.0,0.0,0.0,0.0,0.0,0.0,0.0,0.0,0.0,0.0,0.0,0.0,0.0,0.0,0.0,0.0,0.0,0.0,0.0,0.0,0.0,-4.070500147603217E-28,0.0,0.0,0.0,0.0,0.0,-0.017798215335800224,0.0,0.0,0.0,0.0,0.0,0.0,-0.023065658730216165,0.0,0.0,0.0,0.0,0.0,0.0,0.0,0.0,0.0,0.0,0.0,-0.023065658730216165,0.0,0.0,0.0,0.0,0.0,0.0,0.0,0.0,0.0,0.0,0.0,0.0,0.0,0.0,0.0,0.0,0.0,0.0,0.0,0.0,0.0,0.0,0.0,0.0,0.0,0.0,0.0,0.0,0.0,0.0,0.0,0.0,0.0,0.0,0.0,0.0,0.0,0.0,0.0,0.0,0.0,0.0,0.0,0.0,0.0,0.0,0.0,0.0,0.0,-0.08552524579688654,0.0,0.0,-0.006200357708200543,0.0,0.0,0.0,0.0,0.0,0.0,0.0,-0.023065658730216165,-0.023065658730216165,-0.023065658730216165,-0.023065658730216165,-0.023065658730216165,-0.023065658730216165,-0.023065658730216165,-0.023065658730216165,-0.023065658730216165,-0.023065658730216165,0.0,0.0,0.0,0.0,-0.010366269705370603,-0.010366269705370603,0.0,0.0,0.0,0.0,0.0,0.0,0.0,0.0,0.0,0.0,0.0,0.0,0.0,0.0,0.0,0.0,-5.831077616061251E-28,0.0,0.0,0.0,0.0,0.0,0.0,0.0,-5.831077616061251E-28,-5.831077616061251E-28,0.0,-0.011101672380103698,-0.011101672380103698,-0.011101672380103698,0.0,0.0,0.0,-0.008120971692774964,-0.0022112790016005396,-0.003168051232509048,0.0],"bias":-1.2300000000000009}